-2.144408226013183594e-02,-1.178038269281387329e-01,-1.068984940648078918e-01,3.618858754634857178e-02,2.830829180311411619e-04,1.547890454530715942e-01,2.210284769535064697e-02,6.979613006114959717e-02,-9.466901421546936035e-02,5.363203585147857666e-02,-1.601744890213012695e-01,5.432086065411567688e-02,-2.677670419216156006e-01,-3.442687541246414185e-02,-1.418183790519833565e-03,-1.190508995205163956e-02,4.629631713032722473e-02,-7.747018337249755859e-02,-6.499384343624114990e-02,6.107858940958976746e-02,-1.311136633157730103e-01,-1.527107208967208862e-01,-2.426679804921150208e-02,-5.286249518394470215e-02,-1.424528956413269043e-01,1.362111270427703857e-01,9.501727670431137085e-02,-2.328520454466342926e-02,-1.365703344345092773e-01,-3.716719895601272583e-02,1.321395160630345345e-03,1.806011945009231567e-01,9.860456734895706177e-02,3.645684570074081421e-02,-4.177300631999969482e-02,7.695942372083663940e-02,2.253170497715473175e-02,2.508204430341720581e-02,-3.474653884768486023e-02,1.761036813259124756e-01,-1.616486161947250366e-01,1.772956550121307373e-01,-1.320028007030487061e-01,1.319803148508071899e-01,-1.781124435365200043e-02,9.242212027311325073e-02,-1.066555231809616089e-01,-3.532366082072257996e-02,1.229013204574584961e-01,-2.453734911978244781e-02,4.425626620650291443e-02,6.525825243443250656e-03,8.659273386001586914e-03,9.337576478719711304e-02,-1.662976741790771484e-01,3.813669830560684204e-02,-2.137812674045562744e-01,7.097045332193374634e-02,-1.135750189423561096e-01,5.548724904656410217e-02,-2.205088548362255096e-02,-1.684335619211196899e-01,3.366436064243316650e-02,-7.765617221593856812e-02,-1.103383488953113556e-02,-4.966427385807037354e-02,1.851485110819339752e-02,2.754214778542518616e-02,-6.290599703788757324e-02,4.477655887603759766e-02,-1.124155148863792419e-01,-5.924060195684432983e-02,3.913558647036552429e-02,3.336568176746368408e-02,1.124043688178062439e-01,3.492637723684310913e-02,-9.785609692335128784e-02,-7.929221540689468384e-02,8.686933666467666626e-02,8.756331354379653931e-02,4.787136334925889969e-03,6.503944098949432373e-02,7.928803563117980957e-02,1.053751260042190552e-02,7.904725521802902222e-02,2.203141711652278900e-02,1.803894639015197754e-01,-7.002311199903488159e-02,4.389282315969467163e-02,-3.516314178705215454e-02,-1.738210916519165039e-01,-5.185157060623168945e-02,1.403907388448715210e-01,-9.714736789464950562e-02,-1.091031134128570557e-01,2.046129852533340454e-01,-1.187851205468177795e-01,-2.163865566253662109e-01,3.375364467501640320e-02,-1.164182871580123901e-01,1.004218384623527527e-01,1.147372722625732422e-01,1.974084824323654175e-01,-8.182658255100250244e-02,8.885709196329116821e-02,2.813948877155780792e-02,-3.436876833438873291e-02,6.251469999551773071e-02,-6.110273674130439758e-02,-4.133998230099678040e-02,-1.184803899377584457e-02,1.069916263222694397e-01,-5.751064792275428772e-02,-1.709348559379577637e-01,-7.584917545318603516e-02,-2.423164993524551392e-02,-4.825858771800994873e-02,1.903892308473587036e-01,8.031295612454414368e-03,1.568202078342437744e-01,1.396713852882385254e-01,2.443107217550277710e-01,2.389651536941528320e-01,1.733732819557189941e-01,5.429904442280530930e-03,2.784773334860801697e-02,-8.114760369062423706e-02,5.948781222105026245e-02,-1.834842190146446228e-02,-5.649759992957115173e-02,7.108972966670989990e-02,-1.667196452617645264e-01,1.198314875364303589e-01,5.441411584615707397e-02,1.033090800046920776e-01,-1.336219310760498047e-01,2.296088449656963348e-02,1.693640500307083130e-01,-2.025523930788040161e-01,-6.872440222650766373e-03,-2.222663164138793945e-02,-1.770753227174282074e-02,1.438170671463012695e-01,6.714680790901184082e-02,-1.436013877391815186e-01,-2.127141505479812622e-01,3.264822065830230713e-03,-1.253446936607360840e-01,6.189269945025444031e-02,8.858332782983779907e-02,8.108243346214294434e-02,1.240064874291419983e-01,2.471604943275451660e-01,-4.656685516238212585e-02,-3.477645814418792725e-01,1.990679651498794556e-01,-5.218331143260002136e-02,-2.294439077377319336e-02,6.724256277084350586e-02,2.486559934914112091e-02,1.391924619674682617e-01,3.879489749670028687e-02,7.268375717103481293e-03,-4.864732176065444946e-02,2.014384269714355469e-01,-3.268854320049285889e-02,6.531828641891479492e-02,-1.470325291156768799e-01,1.371303759515285492e-02,3.621922060847282410e-02,4.544138535857200623e-02,7.904811203479766846e-02,-1.785054951906204224e-01,9.457176178693771362e-02,-4.071826406288892031e-04,-1.090480908751487732e-01,1.803008913993835449e-01,-2.113288491964340210e-01,1.950976401567459106e-01,-4.604177922010421753e-02,-5.141738429665565491e-02,-8.365759253501892090e-02,-1.353897899389266968e-01,-4.948126897215843201e-02,2.950063906610012054e-02,7.367407530546188354e-02,1.099074557423591614e-01,-1.676193326711654663e-01,-1.009134426712989807e-01,9.143577516078948975e-02,2.074421010911464691e-02,5.828584730625152588e-02,-2.741898894309997559e-01,5.010582972317934036e-03,9.783572703599929810e-02,2.427357286214828491e-01,-1.000075638294219971e-01,-1.404455602169036865e-01,1.332335267215967178e-02,-1.252419948577880859e-01,1.578959375619888306e-01,-2.602894008159637451e-01,1.141680255532264709e-01,-3.749202489852905273e-01,-7.322975993156433105e-02,-3.505854681134223938e-02,-1.732315681874752045e-02,-2.920922935009002686e-01,-1.473238468170166016e-01,1.040448434650897980e-03,2.920877635478973389e-01,1.346544325351715088e-01,-9.302392601966857910e-02,-1.868513673543930054e-01,7.511022686958312988e-02,-1.504257768392562866e-01,6.373985111713409424e-02,2.213155664503574371e-02,1.319347023963928223e-01,-4.965938627719879150e-01,2.032907679677009583e-02,9.374769777059555054e-02,6.325162947177886963e-02,-2.131911069154739380e-01,2.145220339298248291e-01,2.159501314163208008e-01,4.543026983737945557e-01,-2.602333724498748779e-01,-6.897414475679397583e-02,-2.369903773069381714e-01,-1.267009824514389038e-01,-1.906624585390090942e-01,7.675688713788986206e-02,-1.372477412223815918e-01,3.714469075202941895e-01,-5.562566518783569336e-01,1.485017836093902588e-01,1.407137326896190643e-02,-1.253346204757690430e-01,6.878273934125900269e-02,2.537445724010467529e-01,1.770980358123779297e-01,-3.311027288436889648e-01,-3.264991939067840576e-01,-1.414160579442977905e-01,-5.248716101050376892e-02,-1.752010285854339600e-01,-2.148614376783370972e-01,-2.447767853736877441e-01,-1.761500686407089233e-01,7.982914894819259644e-02,-4.183520972728729248e-01,3.774200752377510071e-02,-3.475078567862510681e-02,-2.256589382886886597e-01,9.813088178634643555e-02
-1.665773093700408936e-01,1.348230242729187012e-01,-2.408314347267150879e-01,6.836235988885164261e-04,6.478481739759445190e-02,-2.411781549453735352e-01,6.031218171119689941e-02,-1.276187300682067871e-01,2.094398289918899536e-01,-4.017949104309082031e-01,-4.403169825673103333e-02,-1.265058815479278564e-01,9.032047539949417114e-02,-1.883891522884368896e-01,5.328113213181495667e-02,-6.822705268859863281e-02,1.625612229108810425e-01,5.081421136856079102e-02,-3.265267238020896912e-02,2.609386667609214783e-02,3.633020445704460144e-02,-6.216412410140037537e-03,2.124046534299850464e-01,-6.240522861480712891e-02,-2.399627417325973511e-01,4.008495435118675232e-02,-5.726943165063858032e-02,1.228080987930297852e-01,-2.390170283615589142e-02,5.889564380049705505e-02,-9.312094002962112427e-02,1.340203285217285156e-01,-1.711915731430053711e-01,3.246653676033020020e-01,6.748300045728683472e-02,1.261928677558898926e-01,1.748875081539154053e-01,1.499474197626113892e-01,2.092104256153106689e-01,-7.826075889170169830e-03,1.891797780990600586e-01,-7.540518790483474731e-02,-1.500819623470306396e-01,2.267160862684249878e-01,-2.999988198280334473e-01,2.259743809700012207e-01,-3.482585772871971130e-02,8.094906061887741089e-02,-1.381361633539199829e-01,1.067439317703247070e-01,9.992855787277221680e-02,-2.129420787096023560e-01,3.536259755492210388e-02,4.755910485982894897e-02,3.124868869781494141e-02,1.411202400922775269e-01,1.414242237806320190e-01,3.565543796867132187e-03,-4.365584626793861389e-02,7.844979315996170044e-02,4.674086719751358032e-02,-1.871127933263778687e-01,-2.305079624056816101e-02,6.400835514068603516e-02,1.558344215154647827e-01,-1.120388135313987732e-01,-1.766748726367950439e-01,-1.533512026071548462e-01,9.242893010377883911e-02,-1.269668340682983398e-01,8.335524797439575195e-02,-1.361778378486633301e-01,-1.414698809385299683e-01,-4.972153156995773315e-02,9.671295993030071259e-03,-1.410021334886550903e-01,4.243632778525352478e-02,7.386487722396850586e-02,-7.201258093118667603e-02,2.598945610225200653e-02,2.987732924520969391e-02,4.433072358369827271e-02,-1.621854603290557861e-01,-1.449994295835494995e-01,-3.081996738910675049e-02,-2.292538434267044067e-01,-1.139029935002326965e-01,-3.773175552487373352e-02,4.600004479289054871e-02,-1.894280128180980682e-02,1.595777831971645355e-02,-1.430767215788364410e-02,-4.479961693286895752e-01,3.216214850544929504e-02,-3.531040549278259277e-01,-2.502978146076202393e-01,-1.044901460409164429e-01,1.039057821035385132e-01,2.343677282333374023e-01,1.682282835245132446e-01,-7.115215528756380081e-03,-3.475486487150192261e-02,-8.239289745688438416e-03,1.405097842216491699e-01,-1.519407033920288086e-01,8.181741088628768921e-02,-7.523702830076217651e-02,-3.927513957023620605e-02,-1.904751658439636230e-01,7.330222427845001221e-02,2.948602288961410522e-02,-1.931004822254180908e-01,-1.051869466900825500e-01,4.088756069540977478e-02,-1.482461541891098022e-01,-4.819602146744728088e-02,-3.863206505775451660e-02,-1.359459664672613144e-02,-8.962070941925048828e-02,1.096197664737701416e-01,4.355162009596824646e-02,3.935452923178672791e-02,1.039651855826377869e-01,-1.840296238660812378e-01,5.931499227881431580e-02,-3.975983336567878723e-02,9.719765186309814453e-02,7.635565102100372314e-02,4.022736847400665283e-02,-1.601948738098144531e-01,2.990028448402881622e-02,5.302406381815671921e-03,1.346602588891983032e-01,-7.373320311307907104e-02,7.750241458415985107e-02,1.016628891229629517e-01,-1.072042137384414673e-01,-2.722714543342590332e-01,-1.534249931573867798e-01,1.780010610818862915e-01,8.435359597206115723e-02,6.243352312594652176e-03,-1.311891078948974609e-01,6.826047599315643311e-02,-1.673534363508224487e-01,-4.983725398778915405e-02,-1.511717960238456726e-02,-2.071329355239868164e-01,-1.476043276488780975e-02,-9.223657101392745972e-02,4.065883345901966095e-03,3.108199872076511383e-02,-3.966154158115386963e-01,9.114648401737213135e-02,-1.509151458740234375e-01,8.595673739910125732e-02,-7.163131237030029297e-02,2.155782282352447510e-01,-1.929810084402561188e-02,1.187239661812782288e-01,-1.881027370691299438e-01,-3.827938064932823181e-02,1.066064015030860901e-01,2.036407031118869781e-02,1.248989030718803406e-01,9.573108702898025513e-02,-7.156576216220855713e-02,1.086884513497352600e-01,4.847432672977447510e-02,1.192369163036346436e-01,-1.728294044733047485e-01,-1.369539797306060791e-01,1.741177290678024292e-01,3.845204412937164307e-02,2.032300531864166260e-01,6.843370944261550903e-02,-1.212945654988288879e-01,1.999812722206115723e-01,-5.686601251363754272e-02,-1.198136899620294571e-02,-7.289091497659683228e-02,1.624487638473510742e-01,-1.553156077861785889e-01,4.321844130754470825e-02,1.007510721683502197e-01,7.134684920310974121e-02,8.736958354711532593e-02,-1.256131231784820557e-01,-8.471952378749847412e-02,-4.621413722634315491e-02,4.616764932870864868e-02,9.709007292985916138e-02,-8.299783617258071899e-02,-1.321038603782653809e-01,-6.427016109228134155e-02,-2.641292512416839600e-01,1.462993025779724121e-01,-1.064463704824447632e-01,-8.397815749049186707e-03,-4.438962414860725403e-02,-1.476899441331624985e-02,-9.327267110347747803e-02,-3.051608502864837646e-01,2.468769671395421028e-03,-4.748611897230148315e-02,-1.750357002019882202e-01,3.981394693255424500e-02,4.638233780860900879e-02,-1.846937090158462524e-01,-6.287342309951782227e-02,-1.430389937013387680e-03,-4.936591535806655884e-02,3.106333082541823387e-03,2.720033228397369385e-01,1.547398865222930908e-01,6.487949192523956299e-02,-9.695993363857269287e-02,-6.614330410957336426e-02,-4.032012447714805603e-02,2.129714004695415497e-02,-4.034925997257232666e-01,4.152389988303184509e-02,-2.043322175741195679e-01,2.493293955922126770e-02,-1.854496002197265625e-01,-9.499989449977874756e-02,-2.787518799304962158e-01,2.242432534694671631e-01,-2.516011893749237061e-01,1.305021494626998901e-01,-1.166473403573036194e-01,7.119371742010116577e-02,-8.017038553953170776e-02,8.590476959943771362e-02,1.481538116931915283e-01,-9.758071601390838623e-02,1.873610168695449829e-01,7.254625856876373291e-02,-3.883626684546470642e-02,-1.185030415654182434e-01,-6.897744536399841309e-02,8.052583783864974976e-03,1.499622911214828491e-01,1.904110610485076904e-01,-1.696580052375793457e-01,2.005073130130767822e-01,1.345438044518232346e-02,7.137686014175415039e-02,2.152371704578399658e-01,-4.440304264426231384e-02,-9.707948565483093262e-02,-4.112247005105018616e-02,1.110364198684692383e-01,-1.661065816879272461e-01,-1.749205440282821655e-01,2.111448720097541809e-02
5.361051857471466064e-02,2.276733666658401489e-01,-2.043069573119282722e-03,1.347402483224868774e-01,2.751360880210995674e-03,-1.437185853719711304e-01,-4.670320451259613037e-02,-2.155325859785079956e-01,-8.112370967864990234e-02,-6.441840529441833496e-02,-1.538341119885444641e-02,-9.756183624267578125e-02,-1.237055286765098572e-03,1.907784640789031982e-01,7.892991602420806885e-02,1.167030483484268188e-01,1.294957995414733887e-01,2.138419747352600098e-01,-5.840447545051574707e-02,-7.160787284374237061e-02,9.222292155027389526e-02,-1.948961317539215088e-01,-1.520690619945526123e-01,-1.817174106836318970e-01,3.062876174226403236e-03,-2.899578213691711426e-01,-1.789656132459640503e-01,7.038469612598419189e-02,-2.016952335834503174e-01,4.538556560873985291e-02,-5.708295106887817383e-02,-5.091568082571029663e-02,1.838950067758560181e-02,1.512625515460968018e-01,-5.444989539682865143e-03,-8.158767968416213989e-02,-1.298204213380813599e-01,-3.304217755794525146e-01,-4.834499582648277283e-02,1.950391381978988647e-02,4.405275359749794006e-02,-2.310363054275512695e-01,-2.370079308748245239e-01,6.659826636314392090e-02,-7.987519353628158569e-02,4.578559100627899170e-02,4.380695521831512451e-02,-4.847718030214309692e-02,-7.302280515432357788e-03,1.623105704784393311e-01,-1.791582703590393066e-01,7.663699239492416382e-02,-4.234965145587921143e-02,-2.711454629898071289e-01,2.436679601669311523e-01,9.919966012239456177e-02,-1.049615219235420227e-01,-2.689280807971954346e-01,-1.895636171102523804e-01,-1.363192871212959290e-02,-1.679361462593078613e-01,3.083280026912689209e-01,5.637006834149360657e-02,3.204888198524713516e-04,-3.555774688720703125e-02,4.232556559145450592e-03,-6.151829659938812256e-02,-4.035929962992668152e-02,1.670412570238113403e-01,9.894043207168579102e-02,6.985578685998916626e-02,-1.607642918825149536e-01,-3.445583954453468323e-02,-2.111337520182132721e-02,8.268189430236816406e-02,-4.354491084814071655e-02,-5.932299047708511353e-02,-1.494681686162948608e-01,-1.029929444193840027e-01,3.116790577769279480e-02,-6.670369207859039307e-02,-8.944541215896606445e-02,7.035023719072341919e-02,3.207954391837120056e-02,-3.515025973320007324e-02,4.297816008329391479e-02,-1.634318679571151733e-01,-1.966266185045242310e-01,4.250328615307807922e-02,2.433943375945091248e-02,-7.888045907020568848e-02,4.485275223851203918e-02,-1.804986000061035156e-01,-7.590127736330032349e-02,-2.591685764491558075e-02,-6.146619468927383423e-02,-1.342971771955490112e-01,1.817990392446517944e-01,-9.774967283010482788e-02,-9.497490711510181427e-03,-6.641758978366851807e-02,-8.270148932933807373e-02,-8.420507609844207764e-02,-1.975596416741609573e-03,4.924931749701499939e-02,-2.240213751792907715e-02,4.176678135991096497e-02,2.107724361121654510e-02,5.644325539469718933e-02,9.420453011989593506e-02,-7.290309667587280273e-02,1.929987035691738129e-02,-3.629962801933288574e-01,-1.981407999992370605e-01,-1.342555433511734009e-01,-3.815682604908943176e-02,1.139172986149787903e-01,4.794444888830184937e-02,5.344975367188453674e-02,2.121241241693496704e-01,1.372938901185989380e-01,-1.783753484487533569e-01,-3.202277719974517822e-01,8.781863749027252197e-02,1.833887100219726562e-01,9.135460853576660156e-02,2.248546332120895386e-01,3.030130174010992050e-03,-3.631239011883735657e-02,-6.531934440135955811e-02,-1.724013090133666992e-01,-2.817583978176116943e-01,-2.771682292222976685e-02,2.330731749534606934e-01,1.999358832836151123e-01,2.019602805376052856e-02,1.147456616163253784e-01,1.938573271036148071e-01,-5.431719496846199036e-02,-1.206654123961925507e-02,5.704750120639801025e-02,-4.797255247831344604e-02,-5.453043431043624878e-02,1.423972565680742264e-02,1.725110411643981934e-01,2.138133347034454346e-02,1.959917247295379639e-01,-2.282340228557586670e-01,-1.956920474767684937e-01,-5.861406028270721436e-02,7.161322236061096191e-02,3.053634986281394958e-02,2.915497496724128723e-02,-8.794791251420974731e-02,6.134612485766410828e-03,1.116172596812248230e-01,8.742569386959075928e-02,9.992720931768417358e-02,2.216265723109245300e-02,2.893821522593498230e-02,-2.823879942297935486e-02,8.432318270206451416e-02,6.153743341565132141e-02,8.544246107339859009e-02,1.987140811979770660e-02,1.481825020164251328e-02,-1.416224092245101929e-01,-8.945038914680480957e-02,3.966005146503448486e-02,2.449215948581695557e-02,8.148223906755447388e-02,6.724666059017181396e-02,-2.696669101715087891e-02,-1.624572426080703735e-01,2.012061513960361481e-02,9.864792227745056152e-02,-2.047273963689804077e-01,-8.142129518091678619e-04,-1.029749438166618347e-01,1.704798080027103424e-02,-1.106721237301826477e-01,3.968158736824989319e-02,-1.039371713995933533e-01,1.675854250788688660e-02,-3.196903318166732788e-02,1.795363724231719971e-01,-3.435111790895462036e-02,-9.675699472427368164e-02,2.291522324085235596e-01,-2.789347767829895020e-01,-3.954567015171051025e-02,-6.321237981319427490e-02,-2.556588351726531982e-01,-2.121635973453521729e-01,-1.572108119726181030e-01,-1.093073710799217224e-01,1.011883839964866638e-01,3.083406575024127960e-02,1.157223731279373169e-01,1.425301730632781982e-01,1.864105276763439178e-02,-1.899255216121673584e-01,-1.084283888339996338e-01,1.474001258611679077e-01,-1.535480618476867676e-01,4.213063418865203857e-02,-1.851056218147277832e-01,1.923091262578964233e-01,-1.127757783979177475e-02,3.112734120804816484e-04,-1.470317393541336060e-01,-8.157299831509590149e-03,1.210794895887374878e-01,5.824566632509231567e-02,-6.465160753577947617e-03,-1.165759786963462830e-01,-1.676298975944519043e-01,1.907952427864074707e-01,-1.004855707287788391e-01,6.005476042628288269e-02,-1.205786466598510742e-01,5.231316015124320984e-02,-1.606279425323009491e-02,2.033299580216407776e-02,-9.912381321191787720e-02,5.521379038691520691e-02,-1.412842571735382080e-01,1.261446624994277954e-01,8.010434359312057495e-02,-4.126134514808654785e-02,6.962641328573226929e-02,-1.001157388091087341e-01,6.465236842632293701e-02,5.380716919898986816e-02,-4.136139526963233948e-02,4.171562939882278442e-02,-4.604895040392875671e-02,1.015367209911346436e-01,2.023479901254177094e-02,-3.722207387909293175e-03,1.443945169448852539e-01,-1.678118109703063965e-02,2.909279167652130127e-01,8.638275414705276489e-02,1.090808138251304626e-01,-2.202530205249786377e-02,-1.687767356634140015e-01,-3.012408129870891571e-02,1.080280169844627380e-01,1.175276413559913635e-01,-1.230074688792228699e-01,1.769804209470748901e-01,6.497411429882049561e-02,-1.620774269104003906e-01,1.698558628559112549e-01,-1.976276980713009834e-03
1.787472888827323914e-02,2.591766649857163429e-03,1.397243887186050415e-01,2.522013485431671143e-01,-1.010430306196212769e-01,-2.131456732749938965e-01,-2.855812311172485352e-01,-1.933873817324638367e-02,3.969975560903549194e-02,1.204254254698753357e-01,6.621953099966049194e-02,-1.606613583862781525e-02,-3.042486011981964111e-01,7.116116583347320557e-02,-2.073203399777412415e-02,7.996568828821182251e-02,1.067670881748199463e-01,-5.729192495346069336e-02,-1.070412918925285339e-01,2.227466702461242676e-01,-2.242951840162277222e-01,-8.547601103782653809e-02,-4.524041712284088135e-02,2.522252127528190613e-02,6.234037503600120544e-02,1.830791309475898743e-02,6.126944441348314285e-03,-6.970117986202239990e-02,-9.031405299901962280e-02,1.918336153030395508e-01,-6.378259509801864624e-03,5.757962539792060852e-02,-1.595670878887176514e-01,-9.187426418066024780e-02,1.043910533189773560e-01,-6.391053646802902222e-02,-3.891664743423461914e-02,9.436479210853576660e-02,6.635165214538574219e-02,-2.484375424683094025e-02,3.943886980414390564e-02,-1.333560645580291748e-01,2.073564380407333374e-02,4.832997173070907593e-02,6.838320940732955933e-02,-1.591057167388498783e-03,-2.241529077291488647e-01,1.434647142887115479e-01,-1.726821996271610260e-02,-2.735461480915546417e-02,-3.419668227434158325e-02,-2.348164655268192291e-02,-7.749646157026290894e-02,1.045913342386484146e-02,-1.644596308469772339e-01,-1.451394855976104736e-01,-8.848278969526290894e-02,1.515251249074935913e-01,-3.073123749345541000e-03,-1.901226490736007690e-01,5.943545326590538025e-02,-6.636773049831390381e-02,-1.469830274581909180e-01,-6.551400572061538696e-02,2.125619053840637207e-01,4.337495192885398865e-02,9.780305624008178711e-02,1.564749330282211304e-01,-2.425903379917144775e-01,-9.400578588247299194e-02,-3.560053184628486633e-02,2.970745973289012909e-02,-2.530230768024921417e-02,7.722077518701553345e-02,-1.434523053467273712e-02,-1.335697770118713379e-01,-2.598303603008389473e-03,3.112163394689559937e-02,-1.906652748584747314e-02,3.990807011723518372e-02,1.626262068748474121e-01,1.113567799329757690e-01,-2.505817264318466187e-02,1.165152341127395630e-01,-3.824570775032043457e-02,6.794401258230209351e-02,-9.358891844749450684e-02,-7.001871615648269653e-02,2.033905535936355591e-01,2.171193063259124756e-01,-4.825355857610702515e-02,-7.842787355184555054e-02,1.380395442247390747e-01,-1.951923221349716187e-01,-1.945088207721710205e-01,-1.610356941819190979e-02,-5.869134911336004734e-04,1.233052164316177368e-01,-2.454335428774356842e-02,1.077267751097679138e-01,7.719308137893676758e-02,4.420050978660583496e-02,9.056548587977886200e-03,-9.978859871625900269e-02,5.845283158123493195e-03,3.012962937355041504e-01,-4.123008996248245239e-02,3.660097345709800720e-02,5.753392726182937622e-02,8.704245835542678833e-02,1.806261837482452393e-01,-1.704253256320953369e-01,-9.525496279820799828e-04,2.219379991292953491e-01,-8.819967508316040039e-02,-9.057251363992691040e-02,7.582750171422958374e-02,-1.849980354309082031e-01,-1.445977836847305298e-01,-9.549078345298767090e-02,-1.674933731555938721e-01,1.998020708560943604e-01,1.061468049883842468e-01,-1.023347973823547363e-01,9.270907938480377197e-02,-2.079320698976516724e-02,1.451695412397384644e-01,-2.411351725459098816e-02,1.248863935470581055e-01,-3.136874735355377197e-02,1.403723936527967453e-02,5.407300963997840881e-02,1.159421131014823914e-01,6.635864824056625366e-02,-5.280335992574691772e-02,-1.412158161401748657e-01,9.391297586262226105e-03,2.408057749271392822e-01,-5.628939718008041382e-02,1.571442559361457825e-02,2.145981192588806152e-01,-1.091285422444343567e-01,4.813268035650253296e-02,1.658822037279605865e-02,-2.743675410747528076e-01,-1.007059067487716675e-01,-1.476204693317413330e-01,-2.185719460248947144e-01,1.537888944149017334e-01,-9.812692552804946899e-02,-1.209408789873123169e-01,-1.125055775046348572e-01,-1.299664080142974854e-01,3.726610448211431503e-03,-1.196431815624237061e-01,1.033390238881111145e-01,1.521580815315246582e-01,-5.920006707310676575e-02,7.029541581869125366e-02,-3.189857304096221924e-02,-1.160079911351203918e-01,-7.043024152517318726e-02,-5.604974180459976196e-02,-1.649202257394790649e-01,4.074000194668769836e-02,-1.680119037628173828e-01,-3.083982318639755249e-02,-1.625661998987197876e-01,4.948671907186508179e-02,7.052156329154968262e-02,-1.859902739524841309e-01,-1.895430535078048706e-01,-5.000758916139602661e-02,3.916390612721443176e-02,-1.213939562439918518e-01,-1.728570610284805298e-01,1.459105461835861206e-01,5.456836894154548645e-02,1.823138296604156494e-01,-8.655186742544174194e-03,-4.141420125961303711e-01,-1.430019289255142212e-01,-7.538257539272308350e-02,-1.234262064099311829e-01,3.742242604494094849e-02,1.312807798385620117e-01,-3.537061437964439392e-02,-2.507551014423370361e-01,5.374397151172161102e-03,-6.245866045355796814e-02,-2.038230448961257935e-01,-6.569180637598037720e-02,-3.092519380152225494e-02,-1.230611950159072876e-01,-5.959704145789146423e-02,-2.340755909681320190e-01,2.941488027572631836e-01,-3.418878838419914246e-02,-2.626824378967285156e-02,-2.724464237689971924e-02,4.865278303623199463e-02,-3.919598832726478577e-02,-2.283941954374313354e-01,-1.137798875570297241e-01,-1.557552963495254517e-01,-2.707459926605224609e-01,-9.101448580622673035e-03,5.333782359957695007e-02,-1.173833832144737244e-01,-1.281341351568698883e-02,1.244857534766197205e-01,-2.107802629470825195e-01,1.514955013990402222e-01,-1.373130735009908676e-02,1.226609721779823303e-01,-4.004930704832077026e-02,5.108524858951568604e-02,-7.981076091527938843e-02,-1.001993268728256226e-01,-7.668626960366964340e-03,-9.202828258275985718e-02,3.443681821227073669e-02,-1.202829852700233459e-01,-2.123293578624725342e-01,1.185989100486040115e-02,-2.192889750003814697e-01,3.846070766448974609e-01,-1.723161898553371429e-02,-2.892766892910003662e-02,-1.526665240526199341e-01,4.151975736021995544e-02,-4.752362892031669617e-02,1.223655790090560913e-02,-8.029598742723464966e-02,-4.038026556372642517e-02,-8.260887116193771362e-02,-1.153482794761657715e-01,8.132818341255187988e-02,4.316142201423645020e-02,-2.654026150703430176e-01,2.265249639749526978e-01,1.282346714287996292e-02,3.294677138328552246e-01,1.067905575037002563e-01,-1.215998381376266479e-01,-7.330482825636863708e-03,-1.488476395606994629e-01,1.007198393344879150e-01,-1.179651096463203430e-01,1.620925217866897583e-01,2.902470529079437256e-01,-7.701946049928665161e-02,-3.765006735920906067e-02,-2.118200808763504028e-01,-1.505922079086303711e-01,-1.157671138644218445e-01
1.482781469821929932e-01,-1.232739463448524475e-01,4.088271781802177429e-02,1.969053894281387329e-01,-3.334816694259643555e-01,-3.529375791549682617e-01,3.839705139398574829e-02,-1.478993743658065796e-01,2.744789235293865204e-02,-1.691679954528808594e-01,3.720179945230484009e-02,-2.225745022296905518e-01,-2.633324861526489258e-01,1.417079269886016846e-01,1.503675282001495361e-01,1.477856095880270004e-02,9.259699285030364990e-02,-4.378001019358634949e-02,3.864656761288642883e-02,1.104354709386825562e-01,-1.165090054273605347e-01,-6.956463307142257690e-02,-1.473242044448852539e-01,-1.196437478065490723e-01,1.740247905254364014e-01,-4.162735864520072937e-02,6.690245121717453003e-02,5.876840651035308838e-02,-1.945214271545410156e-01,1.692100614309310913e-01,1.634461134672164917e-01,-6.889832764863967896e-02,-1.073478981852531433e-01,-1.342441048473119736e-02,-1.063050404191017151e-01,3.410211764276027679e-03,-4.825494438409805298e-02,1.240196377038955688e-01,5.645345151424407959e-02,4.560115560889244080e-02,6.426826119422912598e-02,1.081944108009338379e-01,-1.362186223268508911e-01,1.708719432353973389e-01,-8.186535537242889404e-02,-2.534207515418529510e-02,-6.433957815170288086e-02,-6.628748029470443726e-02,6.447546184062957764e-02,7.591346651315689087e-02,1.810013353824615479e-01,-1.289834827184677124e-01,-6.209149956703186035e-03,7.363816350698471069e-02,-1.501986980438232422e-01,5.391004309058189392e-02,1.679096966981887817e-01,1.038500666618347168e-01,1.724255979061126709e-01,1.118546351790428162e-02,1.450836211442947388e-01,-1.580811440944671631e-01,-9.300613403320312500e-02,-1.042750999331474304e-01,-2.960546873509883881e-02,2.337724715471267700e-02,1.130467131733894348e-01,7.288529723882675171e-02,-1.266102492809295654e-02,-4.314879421144723892e-03,-5.363040789961814880e-02,-6.184076890349388123e-02,-1.611063927412033081e-01,1.265421658754348755e-01,-8.937288075685501099e-02,-1.876891590654850006e-03,1.571071892976760864e-01,-1.329733580350875854e-01,-1.142127513885498047e-01,2.057750672101974487e-01,-6.379608064889907837e-02,-1.323616970330476761e-02,2.040546014904975891e-02,7.709074416197836399e-04,1.000616028904914856e-01,-1.285774819552898407e-02,-8.933896571397781372e-02,4.923640191555023193e-02,4.467130079865455627e-02,4.185296222567558289e-02,-2.326994091272354126e-01,1.452344469726085663e-02,-9.447685629129409790e-02,-3.074174560606479645e-02,-1.040846034884452820e-01,-1.220768596976995468e-02,4.591827467083930969e-02,-1.206212118268013000e-01,-8.466259390115737915e-02,-1.879760771989822388e-01,-4.764901008456945419e-03,-6.183911487460136414e-02,-1.025891583412885666e-02,-6.098198518157005310e-02,-1.136084794998168945e-01,1.777765154838562012e-01,-1.066654268652200699e-02,-9.463229030370712280e-02,-2.414459735155105591e-02,1.270938813686370850e-01,1.339777261018753052e-01,-1.085757687687873840e-01,1.880863495171070099e-02,2.490027546882629395e-01,3.164713457226753235e-02,2.496426925063133240e-02,-9.200230240821838379e-02,-1.160768494009971619e-01,-1.408544331789016724e-01,-2.925727665424346924e-01,-1.028503775596618652e-01,-5.435575544834136963e-02,2.633610069751739502e-01,6.889219582080841064e-02,-1.022706087678670883e-02,2.773222923278808594e-01,3.035968244075775146e-01,8.643892593681812286e-03,-6.776728481054306030e-02,-1.100959777832031250e-01,-6.646154820919036865e-02,4.098578393459320068e-01,2.365793585777282715e-01,-9.169471450150012970e-03,-7.464188337326049805e-02,2.416185140609741211e-01,9.150267392396926880e-02,-6.713254004716873169e-02,1.291504800319671631e-01,3.250851482152938843e-02,-1.258285641670227051e-01,-3.325305134057998657e-02,9.324045479297637939e-02,8.015246689319610596e-02,1.666052266955375671e-02,-2.459443807601928711e-01,-2.691080234944820404e-02,4.066319167613983154e-01,1.799372434616088867e-01,1.122003793716430664e-01,3.529430553317070007e-02,4.205615445971488953e-02,3.584706038236618042e-02,-1.140261441469192505e-01,-2.716203592717647552e-02,1.021502017974853516e-01,-9.708434343338012695e-02,1.333698779344558716e-01,7.447753101587295532e-02,1.547296792268753052e-01,-5.836529657244682312e-02,1.586849689483642578e-01,1.036178097128868103e-01,-4.453850910067558289e-02,-1.155118644237518311e-01,9.020492434501647949e-02,9.999039024114608765e-02,-1.090292409062385559e-01,-3.234083577990531921e-02,-8.448481559753417969e-02,3.719439357519149780e-02,-1.638246513903141022e-02,-6.271902471780776978e-02,7.708716392517089844e-02,-5.136596970260143280e-03,-2.474110573530197144e-01,1.141485869884490967e-01,2.310802601277828217e-02,-1.704490371048450470e-02,1.725623011589050293e-02,-1.492828577756881714e-01,4.121538251638412476e-02,-1.363925933837890625e-01,-5.935555323958396912e-02,1.772524788975715637e-02,-1.322529464960098267e-01,-8.112843334674835205e-02,-1.454012691974639893e-01,1.918082088232040405e-01,-5.901783704757690430e-02,-1.487161666154861450e-01,-4.421697929501533508e-02,2.543346025049686432e-03,1.261132806539535522e-01,-2.294910550117492676e-01,1.381519883871078491e-01,1.975790113210678101e-01,-8.271366357803344727e-02,6.925790756940841675e-02,1.163873076438903809e-01,1.032656580209732056e-01,-1.007222458720207214e-01,-4.693550243973731995e-02,6.058405339717864990e-02,-7.755997776985168457e-02,-8.723063394427299500e-03,1.209403127431869507e-01,9.514196962118148804e-02,4.417609889060258865e-03,-1.127644032239913940e-01,9.757255017757415771e-02,-6.994895171374082565e-03,8.284200727939605713e-02,-7.643514871597290039e-02,8.054798841476440430e-02,-1.215816587209701538e-01,2.120417803525924683e-01,1.024625264108181000e-02,4.464157298207283020e-02,-8.477734029293060303e-02,-5.272386968135833740e-02,9.989858418703079224e-02,6.065873056650161743e-02,-7.747472729533910751e-03,1.430515795946121216e-01,-9.905873239040374756e-02,2.273287922143936157e-01,-1.548495441675186157e-01,-1.857411414384841919e-01,5.913125351071357727e-02,9.200006723403930664e-02,1.241685301065444946e-01,-2.227234691381454468e-01,-8.653299510478973389e-02,6.645403802394866943e-02,-1.209983751177787781e-01,2.170147448778152466e-01,9.812966734170913696e-02,-2.003768682479858398e-01,-1.168761923909187317e-01,2.787580788135528564e-01,-1.445102542638778687e-01,2.255055457353591919e-01,-2.425621598958969116e-01,-8.471076190471649170e-02,1.704684197902679443e-01,-1.982618719339370728e-01,3.806468471884727478e-02,1.156651973724365234e-01,-1.754506826400756836e-01,1.192245185375213623e-01,1.949639469385147095e-01,2.273399233818054199e-01,-2.426928579807281494e-01,-2.405115365982055664e-01,6.474389694631099701e-03
-1.201665252447128296e-01,2.180621176958084106e-01,-2.747678756713867188e-02,-4.510805010795593262e-01,1.111406013369560242e-01,2.337048351764678955e-01,1.492807865142822266e-01,-4.699402675032615662e-02,4.405101388692855835e-02,-1.620716452598571777e-01,-1.727572232484817505e-01,8.457507938146591187e-02,-1.191659793257713318e-01,-8.757884055376052856e-02,-1.503984779119491577e-01,1.625619679689407349e-01,-4.226659238338470459e-02,-1.333669722080230713e-01,1.472201794385910034e-01,-1.165209338068962097e-01,1.774343550205230713e-01,1.767845600843429565e-01,-3.443107125349342823e-04,6.407242268323898315e-02,1.478018313646316528e-01,-4.219116866588592529e-01,6.173967197537422180e-02,1.698429435491561890e-01,-1.427387744188308716e-01,-1.607746630907058716e-01,-1.424842178821563721e-01,-1.166783273220062256e-02,-3.096117638051509857e-02,1.136802434921264648e-01,1.247186288237571716e-01,2.082781121134757996e-02,1.108169108629226685e-01,6.187189742922782898e-02,1.006406471133232117e-01,1.944435834884643555e-01,1.219842210412025452e-02,-1.992377825081348419e-02,1.337231099605560303e-01,4.700715839862823486e-02,-1.175425574183464050e-01,1.126235499978065491e-01,4.538651555776596069e-02,1.335301101207733154e-01,-8.643003553152084351e-02,1.338968575000762939e-01,1.922408863902091980e-02,1.007537636905908585e-02,1.157389655709266663e-01,1.552760601043701172e-01,-1.029028668999671936e-01,1.613071560859680176e-01,-3.056272119283676147e-02,1.855806410312652588e-01,-3.454520553350448608e-02,-5.632142722606658936e-02,-2.110038250684738159e-01,3.879365622997283936e-01,2.166735380887985229e-01,-3.834320977330207825e-02,-8.788281679153442383e-02,-1.364706009626388550e-01,-5.643991753458976746e-02,-1.684801131486892700e-01,1.370441764593124390e-01,1.022435501217842102e-01,-1.061337441205978394e-01,1.336324065923690796e-01,2.067742347717285156e-01,-2.436024099588394165e-01,-1.187637373805046082e-01,1.488769948482513428e-01,-4.288667440414428711e-02,2.652509510517120361e-02,-1.748671233654022217e-01,9.116381406784057617e-03,-3.048653481528162956e-03,1.799194514751434326e-01,-1.969780400395393372e-02,2.791184186935424805e-02,4.021690040826797485e-02,-8.040456473827362061e-02,-3.740183264017105103e-02,5.300533771514892578e-02,5.275670066475868225e-02,6.675705313682556152e-03,-2.593000233173370361e-01,1.390520483255386353e-01,-1.297042369842529297e-01,4.287287592887878418e-02,-9.413404390215873718e-03,-6.782074272632598877e-02,1.045655086636543274e-01,1.009561792016029358e-01,5.672155320644378662e-02,1.139829829335212708e-01,-2.401586771011352539e-01,-2.535206079483032227e-01,-1.461968570947647095e-01,-4.779613111168146133e-03,1.394346654415130615e-01,-7.314726710319519043e-02,-1.108266487717628479e-01,-4.215550050139427185e-02,-1.537847518920898438e-01,8.912377804517745972e-02,-1.279610325582325459e-03,-2.581697516143321991e-02,8.028332144021987915e-03,-8.811076730489730835e-02,-3.510666787624359131e-01,8.262053132057189941e-03,7.675343658775091171e-03,2.948600426316261292e-02,6.285630911588668823e-02,1.226792782545089722e-01,-2.663744986057281494e-02,-1.126496046781539917e-01,-2.892647124826908112e-02,-2.410574443638324738e-02,1.754709519445896149e-02,-6.149825081229209900e-02,-6.343519687652587891e-02,-2.979433909058570862e-02,3.486319445073604584e-03,-4.503628239035606384e-02,8.605907857418060303e-02,-1.482493132352828979e-01,-1.360554434359073639e-02,-8.875045180320739746e-02,1.102933064103126526e-01,1.097656339406967163e-01,2.742818556725978851e-02,-1.083647757768630981e-01,-4.143106564879417419e-02,-1.937367767095565796e-02,-1.837062090635299683e-01,5.551979690790176392e-02,-1.169534102082252502e-01,-4.735698550939559937e-02,9.310014545917510986e-02,-8.694487623870372772e-03,5.606180429458618164e-02,7.653445005416870117e-03,8.933568745851516724e-02,-2.130704075098037720e-01,-1.922837644815444946e-02,-4.682565107941627502e-02,4.091446101665496826e-02,8.202286809682846069e-02,5.690636485815048218e-02,1.363142728805541992e-01,-8.662118762731552124e-02,1.498873382806777954e-01,1.380339264869689941e-01,-5.761728622019290924e-03,4.370216280221939087e-02,-1.134796068072319031e-01,-1.445704847574234009e-01,-6.591612845659255981e-02,9.096314758062362671e-02,-1.644831895828247070e-01,3.849241882562637329e-02,1.681409925222396851e-01,-2.537737786769866943e-02,5.344222299754619598e-03,-3.709654137492179871e-02,1.560801360756158829e-02,-1.841806918382644653e-01,1.327692568302154541e-01,-1.309002637863159180e-01,8.251936733722686768e-02,-2.589693367481231689e-01,3.329546004533767700e-02,4.848868027329444885e-02,-9.985311329364776611e-02,-1.546414755284786224e-02,-2.806675732135772705e-01,-2.360980957746505737e-01,1.649766787886619568e-02,-3.189184367656707764e-01,-8.350642025470733643e-02,-4.196244180202484131e-01,1.741210371255874634e-02,-4.035000130534172058e-02,-1.033495441079139709e-01,1.696912497282028198e-01,-1.252541393041610718e-01,-9.400629997253417969e-02,-1.534636914730072021e-01,2.271307110786437988e-01,1.623316854238510132e-01,-4.831488132476806641e-01,-2.295090109109878540e-01,-1.487056761980056763e-01,-2.701215744018554688e-01,5.881141126155853271e-02,2.743867039680480957e-01,1.077757105231285095e-01,-2.597776055335998535e-01,-1.682880818843841553e-01,-7.584898918867111206e-02,-9.507317841053009033e-02,-3.249543309211730957e-01,-2.122975885868072510e-03,1.129060536623001099e-01,1.173136234283447266e-01,2.398667633533477783e-01,-8.908433467149734497e-02,-1.694115549325942993e-01,-2.225683033466339111e-01,-3.566757142543792725e-01,4.850222729146480560e-03,5.356406420469284058e-02,3.564723134040832520e-01,-4.190297722816467285e-01,-1.205441951751708984e-01,8.251778781414031982e-02,1.288531124591827393e-01,-1.045700535178184509e-01,8.513354510068893433e-02,1.586191058158874512e-01,-1.497340649366378784e-01,-5.118344724178314209e-02,2.274220138788223267e-01,-3.146907687187194824e-01,-9.851576387882232666e-02,-1.680743545293807983e-01,1.177523210644721985e-01,-2.865274846553802490e-01,-8.209472149610519409e-02,-1.348412930965423584e-01,6.743550300598144531e-02,9.127839468419551849e-03,6.191214174032211304e-02,-1.130205392837524414e-01,-3.796336054801940918e-01,7.144321501255035400e-02,-3.935505151748657227e-01,-4.825278818607330322e-01,3.490317985415458679e-02,-2.687146961688995361e-01,1.344629824161529541e-01,-1.361385583877563477e-01,-2.379675060510635376e-01,-2.949737608432769775e-01,-1.832675188779830933e-01,-5.864878892898559570e-01,-1.003815606236457825e-01,-1.201815232634544373e-01,-6.268621981143951416e-02,-5.431083496659994125e-03
1.688339710235595703e-01,-2.958543300628662109e-01,-3.340754657983779907e-02,-1.190840974450111389e-01,-8.197231590747833252e-02,-1.578492522239685059e-01,2.567048557102680206e-02,-1.891855448484420776e-01,1.161976754665374756e-01,-8.156268298625946045e-02,-5.079840309917926788e-03,-2.810410559177398682e-01,-1.521301120519638062e-01,-2.603734135627746582e-01,-4.401756450533866882e-02,4.862330481410026550e-02,1.364776790142059326e-01,-1.006616428494453430e-01,-1.494221687316894531e-01,8.336694538593292236e-02,1.105910837650299072e-01,-5.514692887663841248e-02,-1.181447654962539673e-01,-1.692287623882293701e-01,-8.813807368278503418e-02,-9.307493269443511963e-02,1.841550916433334351e-01,5.646248161792755127e-02,-1.286366581916809082e-01,-6.118595600128173828e-02,-3.326363265514373779e-01,3.215728700160980225e-02,-9.677508845925331116e-03,2.807163596153259277e-01,-4.890026524662971497e-02,1.446067988872528076e-01,-1.149161458015441895e-01,-1.662417650222778320e-01,-3.082381784915924072e-01,-6.811431050300598145e-02,8.206507563591003418e-02,-1.681172102689743042e-01,-1.964037567377090454e-01,-5.308650061488151550e-02,-2.126646935939788818e-01,1.255104541778564453e-01,-1.378780603408813477e-01,-1.557859778404235840e-02,-4.708766564726829529e-02,2.125885188579559326e-01,-1.470654904842376709e-01,-2.145627439022064209e-01,1.745522320270538330e-01,-1.438620835542678833e-01,7.555604726076126099e-02,2.064309865236282349e-01,1.183320954442024231e-01,-1.434696167707443237e-01,-2.307364940643310547e-01,-4.677737504243850708e-02,-2.431831955909729004e-01,-7.304703444242477417e-02,1.956703364849090576e-01,7.682859152555465698e-02,1.444585993885993958e-02,-2.763855159282684326e-01,-1.595729729160666466e-03,-1.320737898349761963e-01,1.445819288492202759e-01,1.137219890952110291e-01,-2.404046505689620972e-01,-6.072768196463584900e-02,-2.543203718960285187e-02,-1.575575917959213257e-01,4.972240328788757324e-02,6.716447323560714722e-02,5.847343429923057556e-02,2.201099693775177002e-02,-1.519382894039154053e-01,-8.154574036598205566e-02,6.688840687274932861e-02,9.249774739146232605e-03,7.092392444610595703e-02,8.483434468507766724e-02,9.638159722089767456e-02,4.981192201375961304e-02,-5.712474137544631958e-02,-2.658348716795444489e-02,3.902635350823402405e-02,6.943004578351974487e-02,1.013708487153053284e-01,1.242733970284461975e-01,-3.479540944099426270e-01,1.605549082159996033e-02,-4.016221314668655396e-02,3.823871165513992310e-02,-3.237945437431335449e-01,2.254682630300521851e-01,-1.143304184079170227e-01,5.739863216876983643e-02,-1.023958325386047363e-01,-6.029934063553810120e-02,-2.593332156538963318e-02,-2.693210728466510773e-03,6.871683150529861450e-02,-2.900023758411407471e-01,-1.088575497269630432e-01,2.270712703466415405e-01,5.888706073164939880e-02,3.227022290229797363e-02,1.445762068033218384e-01,8.489917963743209839e-02,-4.122797548770904541e-01,-7.204516232013702393e-02,-3.425854817032814026e-02,-1.371478885412216187e-01,1.324643343687057495e-01,-6.060180068016052246e-02,1.629103124141693115e-01,3.723339140415191650e-01,-7.630839943885803223e-02,-2.243130467832088470e-03,-3.300557732582092285e-01,1.490867137908935547e-01,5.030129104852676392e-02,-5.737606063485145569e-02,-2.695207484066486359e-02,6.611099094152450562e-02,1.072451472282409668e-02,5.952477455139160156e-02,1.785945296287536621e-01,-6.434056162834167480e-02,-1.751900911331176758e-01,-1.620428413152694702e-01,-1.332812607288360596e-01,-7.068412005901336670e-02,9.647729247808456421e-02,-2.129875719547271729e-01,1.792680919170379639e-01,9.198960661888122559e-02,-2.059995830059051514e-01,6.945475190877914429e-02,-1.279743164777755737e-01,6.851874291896820068e-03,8.864795789122581482e-03,2.275480777025222778e-01,-1.089654639363288879e-01,1.668866574764251709e-01,1.170516461133956909e-01,-2.565886974334716797e-01,2.937853150069713593e-02,-5.689390748739242554e-02,-1.097004022449254990e-02,-3.108816221356391907e-02,-4.033285751938819885e-02,1.701060868799686432e-02,-2.346327714622020721e-02,8.143086731433868408e-02,1.892307102680206299e-01,-1.173447966575622559e-01,-4.065881073474884033e-01,-1.979564577341079712e-01,-1.070496216416358948e-01,-2.996293641626834869e-02,1.795344799757003784e-01,8.011129498481750488e-02,-1.952837780117988586e-02,1.137567758560180664e-01,1.021210402250289917e-01,5.206592381000518799e-03,-2.090933918952941895e-01,5.293683707714080811e-02,5.033599212765693665e-02,9.236506372690200806e-02,-9.090193547308444977e-03,-1.667652130126953125e-01,-2.922436296939849854e-01,-3.552205264568328857e-01,1.186460023745894432e-03,-1.807978153228759766e-01,-2.992481179535388947e-02,8.884549140930175781e-02,-2.494209259748458862e-02,2.768084406852722168e-02,-6.188458949327468872e-02,7.363574951887130737e-02,4.310544580221176147e-02,-1.629370599985122681e-01,1.189511492848396301e-01,1.643901504576206207e-02,5.440315231680870056e-02,-7.082775235176086426e-02,2.090102881193161011e-01,-1.274204552173614502e-01,-1.128528238041326404e-04,2.588033303618431091e-02,1.086830049753189087e-01,1.514565572142601013e-02,1.264480799436569214e-01,-9.387066215276718140e-02,-4.791771061718463898e-03,-3.397356867790222168e-01,5.390588939189910889e-02,-3.313688561320304871e-02,-1.262543052434921265e-01,2.629061639308929443e-01,8.637821301817893982e-03,1.315568238496780396e-01,4.596259817481040955e-02,-1.474577039480209351e-01,-1.611877083778381348e-01,-1.974393278360366821e-01,-6.944084167480468750e-02,8.544072508811950684e-02,-1.673986762762069702e-01,8.573801815509796143e-02,8.045651763677597046e-02,1.625504344701766968e-01,-5.035323649644851685e-02,1.672286987304687500e-01,2.536764554679393768e-02,-8.372823148965835571e-02,5.773987993597984314e-02,4.500167444348335266e-02,-3.449581265449523926e-01,-1.167723163962364197e-01,-2.186470180749893188e-01,1.586043089628219604e-01,8.356638252735137939e-02,-1.354511231184005737e-01,-1.453303694725036621e-01,1.112536340951919556e-01,2.452998906373977661e-01,1.048355102539062500e-01,-2.400976121425628662e-01,1.175475418567657471e-01,-8.398512378334999084e-03,6.631697714328765869e-02,1.475369483232498169e-01,3.096337057650089264e-02,-4.531336575746536255e-02,1.485856026411056519e-01,2.363442778587341309e-01,9.777579456567764282e-02,-1.210452914237976074e-01,-4.249836876988410950e-02,2.675422728061676025e-01,-6.834162771701812744e-02,2.455358952283859253e-02,2.691333293914794922e-01,-9.415651112794876099e-02,1.343337912112474442e-02,-3.243782743811607361e-02,4.731329530477523804e-02,8.254279196262359619e-02,6.107920408248901367e-02
1.912419497966766357e-01,-6.469094753265380859e-02,1.839697360992431641e-01,1.748149096965789795e-01,-9.414248168468475342e-02,-1.787736266851425171e-01,-2.755272090435028076e-01,2.493784949183464050e-02,-1.914222352206707001e-02,-1.173850744962692261e-01,1.961120367050170898e-01,-6.382498890161514282e-02,6.784711033105850220e-02,-2.509086206555366516e-02,-5.240402370691299438e-02,1.784828603267669678e-01,4.316867887973785400e-02,2.524109184741973877e-01,-5.386468768119812012e-02,5.452563613653182983e-02,7.737681269645690918e-02,-6.430354714393615723e-02,-2.804248631000518799e-01,-1.984509378671646118e-01,-6.615312397480010986e-02,-1.198006868362426758e-01,-1.834372431039810181e-01,1.978013664484024048e-01,2.395710796117782593e-01,-8.216097950935363770e-03,5.013173073530197144e-02,3.350412845611572266e-02,-3.109452128410339355e-01,1.139065325260162354e-01,-2.567768990993499756e-01,9.241975098848342896e-02,3.352405875921249390e-02,-3.772038593888282776e-02,-5.219153687357902527e-02,5.640194937586784363e-02,-2.439556568861007690e-01,-1.854443252086639404e-01,-3.903269767761230469e-01,2.207276374101638794e-01,-6.724834442138671875e-02,8.763187564909458160e-03,3.345568897202610970e-03,-1.283359248191118240e-03,-1.583857089281082153e-01,-2.814562022686004639e-01,-2.419397532939910889e-01,-1.304923146963119507e-01,2.238538116216659546e-01,7.187356054782867432e-02,3.542714118957519531e-01,8.226312696933746338e-02,-2.643379867076873779e-01,-1.573465913534164429e-01,-1.043749004602432251e-01,1.937513202428817749e-01,-4.482252057641744614e-03,-4.908412322402000427e-02,-4.281350970268249512e-02,9.593880735337734222e-03,2.006991207599639893e-01,-2.735368907451629639e-01,-8.135904371738433838e-02,-1.040385104715824127e-02,1.905111670494079590e-01,1.617248952388763428e-01,-1.259246617555618286e-01,-7.428800314664840698e-02,6.527969241142272949e-02,-1.377469599246978760e-01,-1.230629533529281616e-01,8.024366945028305054e-02,3.221587091684341431e-02,-1.079002618789672852e-01,-5.523554608225822449e-02,3.857534378767013550e-02,1.252900511026382446e-01,1.604623347520828247e-01,-1.079635974019765854e-02,5.648125428706407547e-03,-4.882333055138587952e-02,8.418121188879013062e-02,1.520066335797309875e-02,2.494181878864765167e-02,-4.545810818672180176e-02,2.205978089477866888e-04,-2.214962691068649292e-01,2.196039631962776184e-02,2.757749855518341064e-01,1.075221784412860870e-02,-1.698851436376571655e-01,-1.583535037934780121e-02,1.710520125925540924e-02,1.288837343454360962e-01,-1.229408234357833862e-01,-1.346783787012100220e-01,1.301420945674180984e-02,9.356611967086791992e-02,6.644226610660552979e-02,1.703650653362274170e-01,-3.887367248535156250e-02,-2.456632070243358612e-02,4.509276896715164185e-02,1.467770989984273911e-02,1.179627776145935059e-01,3.787576034665107727e-02,-3.098025359213352203e-02,-8.859592676162719727e-02,-2.189619094133377075e-01,-2.734907269477844238e-01,4.572417959570884705e-02,-1.293320804834365845e-01,3.489317372441291809e-02,1.293133497238159180e-01,2.090360075235366821e-01,1.996266692876815796e-01,1.246738433837890625e-01,-9.486569464206695557e-02,-4.237603396177291870e-02,-9.264580905437469482e-02,5.037059634923934937e-02,-1.348835378885269165e-01,-2.344612330198287964e-01,1.718019694089889526e-01,1.447380036115646362e-01,9.791880846023559570e-02,-3.454413637518882751e-02,-3.781756162643432617e-01,1.872959136962890625e-01,4.871771484613418579e-02,-2.860179729759693146e-02,-9.801657497882843018e-02,-5.595483258366584778e-02,-1.311127562075853348e-02,-2.037973105907440186e-01,1.131929755210876465e-01,2.515514567494392395e-02,-2.701689898967742920e-01,-1.074031516909599304e-01,-6.614471971988677979e-02,-1.277969181537628174e-01,-1.811404824256896973e-01,-1.595613807439804077e-01,-2.732849121093750000e-01,2.551976777613162994e-02,2.007090486586093903e-02,1.827957630157470703e-01,-4.341014847159385681e-02,1.185250803828239441e-01,3.381148353219032288e-02,-1.585375219583511353e-01,-2.477543987333774567e-02,2.504197321832180023e-02,2.222615666687488556e-02,2.921877242624759674e-02,-1.941155195236206055e-01,-6.896939128637313843e-02,5.171244964003562927e-02,6.370569020509719849e-02,1.074466016143560410e-02,-2.645565755665302277e-02,-5.827731639146804810e-02,-1.074093300849199295e-02,-3.098852001130580902e-02,-2.489449381828308105e-01,-5.165411531925201416e-02,2.243864387273788452e-01,-6.716091930866241455e-02,2.650920152664184570e-01,-1.040664836764335632e-01,-1.082788333296775818e-01,5.976061150431632996e-02,1.633266955614089966e-01,-3.266825899481773376e-02,1.964188516139984131e-01,-1.292941868305206299e-01,-3.048145174980163574e-01,-5.825708061456680298e-02,8.383159339427947998e-02,3.893070854246616364e-03,1.911232173442840576e-01,2.446203492581844330e-02,1.989444047212600708e-01,-7.246176898479461670e-02,2.920842915773391724e-02,-3.731752512976527214e-03,-4.501821473240852356e-02,1.070165187120437622e-01,-3.003773987293243408e-01,-1.686711460351943970e-01,-3.609307110309600830e-02,-7.686740159988403320e-02,-2.935161348432302475e-03,1.206206753849983215e-01,-1.471933275461196899e-01,-5.703711137175559998e-02,3.933585807681083679e-02,-2.175869196653366089e-01,-1.953483074903488159e-01,-8.667749166488647461e-02,-1.807746589183807373e-01,-1.029956489801406860e-01,-5.680784583091735840e-03,-1.961082518100738525e-01,-2.007967047393321991e-02,-1.314652413129806519e-01,8.131523430347442627e-02,4.408909752964973450e-02,-1.495752781629562378e-01,2.645217627286911011e-02,3.627980127930641174e-02,1.211229041218757629e-01,-1.093274950981140137e-01,-3.687059506773948669e-02,8.133011311292648315e-02,-1.547283083200454712e-01,-1.167924478650093079e-01,1.374634951353073120e-01,-1.598043441772460938e-01,-4.295925050973892212e-02,9.844387322664260864e-02,3.029314987361431122e-02,3.938760459423065186e-01,1.501139998435974121e-01,-5.926832556724548340e-02,-1.494028717279434204e-01,1.724440753459930420e-01,-1.061681807041168213e-01,2.442553266882896423e-02,-5.553531926125288010e-03,2.509257197380065918e-01,1.574476957321166992e-01,2.374714463949203491e-01,8.726674318313598633e-02,-8.661717921495437622e-02,-5.463332682847976685e-02,2.805097214877605438e-02,-2.662025392055511475e-02,2.050615698099136353e-01,-3.042357973754405975e-02,7.826666533946990967e-02,1.875032186508178711e-01,1.463004737161099911e-03,-3.792495699599385262e-03,4.289193078875541687e-03,-7.107532769441604614e-02,1.380415260791778564e-01,-7.861719280481338501e-02,1.708953082561492920e-02,1.096787303686141968e-01,-7.850068807601928711e-02,-1.352175176143646240e-01
-1.377744320780038834e-02,-3.328894078731536865e-01,-2.543401122093200684e-01,-9.776730835437774658e-02,1.731364578008651733e-01,2.520788311958312988e-01,2.615626156330108643e-01,4.156012088060379028e-02,1.367812007665634155e-01,-2.830021083354949951e-01,-5.884946137666702271e-02,1.683554500341415405e-01,3.683139011263847351e-02,2.144565135240554810e-01,2.115534394979476929e-01,-5.410308390855789185e-02,-1.433732509613037109e-01,-8.515091240406036377e-02,6.038041412830352783e-02,-1.931155323982238770e-01,-1.166550517082214355e-01,2.066687941551208496e-01,2.022732049226760864e-01,1.333272457122802734e-01,3.466608226299285889e-01,-1.197708770632743835e-02,-4.820812121033668518e-02,-1.062870956957340240e-02,-3.082887269556522369e-02,-1.335127800703048706e-01,1.199327185750007629e-01,-8.449199795722961426e-02,4.418970644474029541e-02,1.932651400566101074e-01,5.302248522639274597e-02,-6.337575614452362061e-02,-8.097176253795623779e-02,-5.141660198569297791e-02,1.153987925499677658e-02,-5.139141343533992767e-03,-2.089491300284862518e-02,1.758455783128738403e-01,-6.122183427214622498e-02,-1.715254597365856171e-02,-1.745990365743637085e-01,-1.409790068864822388e-01,2.066751867532730103e-01,9.284716844558715820e-02,3.824399411678314209e-02,1.620425730943679810e-01,-6.618758291006088257e-02,6.965881586074829102e-02,2.025252580642700195e-02,-9.577240794897079468e-02,-2.482796311378479004e-01,-6.493739783763885498e-02,-2.478369623422622681e-01,9.225692600011825562e-02,1.884870417416095734e-02,-1.204338297247886658e-01,1.714051328599452972e-02,-2.719756960868835449e-02,1.200112551450729370e-01,-9.109219908714294434e-02,-7.267082482576370239e-02,-1.643674448132514954e-02,-2.982332706451416016e-01,-4.528599977493286133e-01,-6.569713354110717773e-02,-4.168630763888359070e-02,3.350260555744171143e-01,-1.929612457752227783e-01,-5.907041579484939575e-02,-6.180583313107490540e-02,-2.068748176097869873e-01,-6.863854825496673584e-02,1.327074617147445679e-01,1.966412365436553955e-01,-1.787872985005378723e-02,4.047006368637084961e-02,-1.430310904979705811e-01,-2.375379353761672974e-01,8.033013343811035156e-02,-2.084967494010925293e-01,-1.203063204884529114e-01,-8.791624009609222412e-02,1.140720322728157043e-01,-1.093644872307777405e-01,7.674954831600189209e-02,-3.261407017707824707e-01,-1.176362950354814529e-02,1.256123781204223633e-01,-2.750275135040283203e-01,2.519739866256713867e-01,1.479127109050750732e-01,9.110181033611297607e-02,4.661442339420318604e-02,3.235412016510963440e-02,-1.396727114915847778e-01,1.469282060861587524e-01,3.325580433011054993e-02,2.443160675466060638e-02,1.402835100889205933e-01,4.599145427346229553e-02,-2.411748766899108887e-01,-3.467461792752146721e-03,-9.484960883855819702e-02,9.056736528873443604e-02,-1.167336851358413696e-01,1.879194527864456177e-01,8.118915557861328125e-02,1.617462374269962311e-02,-1.723818331956863403e-01,1.425205469131469727e-01,-1.199836656451225281e-02,-1.233686879277229309e-01,1.030480340123176575e-01,1.435205191373825073e-01,-1.280674189329147339e-01,9.179330430924892426e-03,-3.145761042833328247e-02,-2.657697796821594238e-01,-1.127819716930389404e-01,-8.393028378486633301e-02,8.261778950691223145e-02,1.061988621950149536e-01,2.190885245800018311e-01,9.269376844167709351e-02,-1.066303253173828125e-01,-9.287700057029724121e-02,-1.515232771635055542e-01,-3.716721832752227783e-01,4.464399442076683044e-02,-8.985416591167449951e-02,1.403361558914184570e-01,3.159943968057632446e-02,-4.337322413921356201e-01,-1.501863263547420502e-02,-1.163068711757659912e-01,1.936096847057342529e-01,9.464535862207412720e-03,1.427740789949893951e-02,-2.015915066003799438e-01,-1.114761903882026672e-01,1.122156679630279541e-01,2.499522119760513306e-01,1.683934032917022705e-01,-2.956631481647491455e-01,-2.835060842335224152e-02,-5.165813490748405457e-02,-7.627208530902862549e-02,-1.149721369147300720e-01,-1.511019617319107056e-01,-2.665458917617797852e-01,1.838118210434913635e-02,-1.346949189901351929e-01,3.447668626904487610e-02,1.049998328089714050e-01,4.158146306872367859e-02,-1.253336369991302490e-01,-2.425345927476882935e-01,1.923094131052494049e-02,-1.417303690686821938e-03,-1.179669424891471863e-01,-8.238312602043151855e-02,1.317421793937683105e-01,1.859459653496742249e-02,1.318222135305404663e-01,1.042977273464202881e-01,-1.348624974489212036e-01,-6.585878133773803711e-02,-4.914052411913871765e-02,2.697392180562019348e-02,1.195293813943862915e-01,2.095229551196098328e-02,1.107423454523086548e-01,2.759637124836444855e-02,8.699854463338851929e-02,8.246111869812011719e-02,2.678493596613407135e-02,-8.764165639877319336e-02,-6.495025753974914551e-02,-1.245943158864974976e-01,1.891775578260421753e-01,5.906514823436737061e-02,2.160621434450149536e-02,1.129822656512260437e-01,9.885642677545547485e-03,6.348079442977905273e-02,-2.344729453325271606e-01,-1.129001006484031677e-01,1.193647384643554688e-01,-1.522303372621536255e-01,9.819175302982330322e-02,-3.839532434940338135e-01,-5.203643441200256348e-02,-2.050850540399551392e-02,6.161973811686038971e-03,6.625128537416458130e-02,1.824018657207489014e-01,-2.011274844408035278e-01,1.906301528215408325e-01,-2.555586993694305420e-01,9.486188739538192749e-02,1.972155869007110596e-01,1.372414678335189819e-01,-2.295489907264709473e-01,1.572344452142715454e-01,-1.935270279645919800e-01,1.988403685390949249e-02,-7.765144575387239456e-03,-1.130413264036178589e-01,2.607872709631919861e-02,5.692176148295402527e-02,-1.478795800358057022e-02,6.844650954008102417e-02,-3.302572295069694519e-02,-2.395877242088317871e-02,-9.919673949480056763e-02,6.888440251350402832e-02,1.182139962911605835e-01,-3.755267709493637085e-02,-1.790172606706619263e-01,8.567987382411956787e-02,4.935041535645723343e-03,2.130542881786823273e-02,-4.149825870990753174e-02,3.351987898349761963e-01,-1.249323189258575439e-01,9.698437899351119995e-02,2.695125713944435120e-02,4.100621119141578674e-02,7.428281754255294800e-02,8.675011992454528809e-02,-4.086417332291603088e-02,-8.446468412876129150e-02,-1.009123399853706360e-01,-1.250068992376327515e-01,-5.145093798637390137e-02,-1.244699507951736450e-01,1.991548687219619751e-01,1.384587734937667847e-01,3.304071426391601562e-01,3.129805922508239746e-01,3.859858587384223938e-02,3.458944335579872131e-02,-2.746900022029876709e-01,-8.556655794382095337e-02,5.684993416070938110e-02,1.414863318204879761e-01,3.324632346630096436e-01,8.063030987977981567e-02,-9.958346188068389893e-02,1.386826783418655396e-01,1.517862677574157715e-01,-1.558056026697158813e-01
-5.762118846178054810e-03,1.293065696954727173e-01,-7.815656252205371857e-03,1.522648334503173828e-01,1.241029724478721619e-01,8.794187009334564209e-02,1.285893470048904419e-01,2.022537589073181152e-01,-3.964707255363464355e-02,1.257953234016895294e-02,-2.531971037387847900e-02,1.457700133323669434e-01,-2.653205394744873047e-01,1.265910416841506958e-01,-6.591668725013732910e-02,5.845760554075241089e-02,-2.065187692642211914e-01,-1.618747785687446594e-02,-1.413654536008834839e-01,8.612493053078651428e-03,5.074108392000198364e-02,2.389934286475181580e-02,1.643782258033752441e-01,-3.215549141168594360e-02,-1.007583066821098328e-01,-1.280548274517059326e-01,-1.189571321010589600e-01,1.466217190027236938e-01,-6.210674066096544266e-03,1.061419472098350525e-01,-1.743383333086967468e-02,2.824408374726772308e-02,-2.710550725460052490e-01,-1.383756101131439209e-01,5.473480001091957092e-02,9.528551250696182251e-02,-2.258985489606857300e-02,2.183447405695915222e-02,-3.606389090418815613e-02,-1.502731591463088989e-01,5.981181189417839050e-02,-1.055725440382957458e-01,-1.189221739768981934e-01,-7.667772471904754639e-02,-3.741951659321784973e-02,-6.948621571063995361e-02,6.359775364398956299e-02,-2.308599464595317841e-02,1.027625948190689087e-01,8.257990330457687378e-02,1.985841691493988037e-01,1.211010664701461792e-01,4.136036708950996399e-02,-8.285608887672424316e-02,-1.109277606010437012e-01,-4.386542737483978271e-02,-1.359129101037979126e-01,6.167105957865715027e-02,1.426037847995758057e-01,3.768303990364074707e-02,8.934330940246582031e-02,-3.625795617699623108e-02,-1.122698038816452026e-01,-4.066804796457290649e-02,-7.648120075464248657e-02,-4.907139390707015991e-02,1.118204556405544281e-02,-2.211122959852218628e-02,-1.001420989632606506e-01,1.146580278873443604e-01,2.299187630414962769e-01,1.560189127922058105e-01,8.895859122276306152e-02,-7.917541079223155975e-03,3.862625360488891602e-02,-2.857115864753723145e-02,-4.927531257271766663e-02,1.321460604667663574e-01,2.629908919334411621e-01,2.171303704380989075e-02,-7.167956978082656860e-02,1.323751509189605713e-01,-3.090347535908222198e-02,-1.664199829101562500e-01,-7.729058712720870972e-02,6.622077524662017822e-02,8.349889516830444336e-02,2.039514333009719849e-01,8.472830802202224731e-02,1.051141172647476196e-01,2.092647105455398560e-01,6.956318020820617676e-02,5.006664246320724487e-02,-6.620894372463226318e-02,-2.555286586284637451e-01,1.483876556158065796e-01,1.123681738972663879e-01,2.321532964706420898e-01,-1.692301779985427856e-02,4.698950052261352539e-02,2.592026442289352417e-02,-1.207247674465179443e-01,-1.125612184405326843e-01,1.824470162391662598e-01,-2.149488627910614014e-01,8.519819378852844238e-02,1.514922976493835449e-01,-2.094313055276870728e-01,1.002781465649604797e-01,-6.236774101853370667e-02,-1.240004450082778931e-01,2.305140905082225800e-02,1.353919506072998047e-01,3.420954346656799316e-01,2.421187795698642731e-02,2.281479388475418091e-01,1.390159130096435547e-01,-2.250559031963348389e-01,-9.081787616014480591e-02,-4.719368368387222290e-02,-1.416246742010116577e-01,-2.877248823642730713e-01,6.110504269599914551e-02,-2.213092148303985596e-02,8.445011451840400696e-03,1.388681381940841675e-01,-9.018903225660324097e-02,-1.995258778333663940e-01,-1.635052710771560669e-01,-7.926709949970245361e-02,-6.362501531839370728e-02,-1.933372467756271362e-01,-4.158810526132583618e-02,-3.807971626520156860e-02,2.837410569190979004e-01,3.907403722405433655e-02,1.714530587196350098e-01,-7.899957895278930664e-02,1.941451728343963623e-01,-1.119334772229194641e-01,-1.215402316302061081e-02,-2.160495966672897339e-01,-1.604627668857574463e-01,1.168868597596883774e-02,-2.888127416372299194e-02,2.312888801097869873e-01,7.506149262189865112e-02,1.971066370606422424e-02,-9.480050206184387207e-02,2.334933578968048096e-01,-1.926638484001159668e-01,1.059526205062866211e-02,1.944901943206787109e-01,6.253062933683395386e-02,2.490221261978149414e-01,5.043658986687660217e-02,-2.171111991629004478e-03,-1.826695799827575684e-01,1.451670285314321518e-02,1.367071568965911865e-01,2.801316231489181519e-02,-1.830310225486755371e-01,-2.592210769653320312e-01,-3.029294125735759735e-02,-1.312676519155502319e-01,-1.107876282185316086e-02,-2.965186238288879395e-01,4.998323693871498108e-02,-9.921732358634471893e-03,3.308682516217231750e-02,-4.176025465130805969e-02,-1.007604151964187622e-01,9.737426042556762695e-02,-2.100016176700592041e-02,-3.194281756877899170e-01,1.420038472861051559e-02,1.431777030229568481e-01,1.731656119227409363e-02,-2.486272007226943970e-01,1.763813048601150513e-01,3.244663029909133911e-02,1.294054836034774780e-02,-1.525287330150604248e-01,1.469044387340545654e-01,-6.370961666107177734e-02,-8.667313307523727417e-02,-9.010192006826400757e-02,8.773401379585266113e-02,1.227435022592544556e-01,8.638277649879455566e-02,-1.497093439102172852e-01,-2.010959535837173462e-01,1.046193167567253113e-01,-2.738354802131652832e-01,2.536247670650482178e-01,-2.559721767902374268e-01,-4.305906295776367188e-01,-3.354771137237548828e-01,7.375697046518325806e-02,-3.422598540782928467e-01,2.549708820879459381e-02,-1.071493253111839294e-01,2.574900863692164421e-03,-3.576225638389587402e-01,1.352201849222183228e-01,-2.156310342252254486e-02,-1.662329584360122681e-02,3.030442446470260620e-02,1.356985270977020264e-01,-2.529603242874145508e-01,-2.026556245982646942e-02,-2.551299631595611572e-01,-8.225556463003158569e-02,9.081274271011352539e-02,-1.278748959302902222e-01,-3.885192573070526123e-01,1.293689459562301636e-01,-3.078899085521697998e-01,-8.040296286344528198e-02,-2.487252056598663330e-01,2.375970222055912018e-02,-1.979167312383651733e-01,1.245916634798049927e-01,-1.521574705839157104e-01,-1.142623424530029297e-01,-3.000558018684387207e-01,-5.221394449472427368e-02,-3.307499736547470093e-02,6.055365875363349915e-02,8.372572809457778931e-02,-9.206102229654788971e-03,7.960190996527671814e-03,4.846293106675148010e-02,-6.251472979784011841e-02,-1.159799173474311829e-01,1.355459839105606079e-01,-3.038349747657775879e-01,-3.956959247589111328e-01,6.397862732410430908e-02,1.768721044063568115e-01,2.667880356311798096e-01,-3.283150866627693176e-02,1.939604580402374268e-01,1.870897114276885986e-01,-2.526917159557342529e-01,-1.734817028045654297e-02,-7.217954844236373901e-02,9.580164216458797455e-03,2.228800766170024872e-02,9.122886508703231812e-02,1.144123300909996033e-01,-1.952115446329116821e-03,9.857487864792346954e-03,-1.616880297660827637e-01,2.052971124649047852e-01,5.787520483136177063e-02
-1.161060407757759094e-01,-2.006047405302524567e-02,7.735760509967803955e-02,-5.807751417160034180e-02,2.683685719966888428e-02,-1.065180897712707520e-01,-1.285964697599411011e-01,7.125519216060638428e-03,8.805406838655471802e-02,-5.921043921262025833e-03,-3.885763138532638550e-02,1.230283267796039581e-02,1.002422273159027100e-01,5.671127513051033020e-02,1.123772636055946350e-01,-3.240647539496421814e-02,-5.753364786505699158e-02,-1.119424626231193542e-01,3.493924625217914581e-03,6.997365504503250122e-02,-1.347943861037492752e-02,-5.870201066136360168e-02,-4.332573711872100830e-02,-9.516675025224685669e-02,1.664824038743972778e-02,1.334634423255920410e-02,-2.845942601561546326e-02,-1.164723038673400879e-01,4.706379771232604980e-02,-1.361891329288482666e-01,-6.382854655385017395e-03,-4.017292335629463196e-02,8.833123743534088135e-02,-8.613944798707962036e-02,-1.429773494601249695e-02,-1.016353219747543335e-01,1.108930562622845173e-03,-1.082992553710937500e-02,5.725337192416191101e-02,9.419680386781692505e-02,-1.494242399930953979e-01,6.286177784204483032e-03,-5.699344351887702942e-02,-1.044908463954925537e-01,-7.437124848365783691e-02,-5.823981389403343201e-02,-1.138670146465301514e-01,-3.880566358566284180e-02,-1.267472058534622192e-01,-1.144033744931221008e-01,1.342074759304523468e-02,-6.654717773199081421e-02,-1.120212078094482422e-01,-1.371800154447555542e-01,9.221061319112777710e-02,7.899697124958038330e-02,-5.742558464407920837e-02,-1.105054244399070740e-01,3.267753496766090393e-02,-6.855967640876770020e-02,3.774027526378631592e-02,-8.531200885772705078e-02,-1.516718766652047634e-03,5.196300148963928223e-02,-1.168572679162025452e-01,-9.980916231870651245e-02,9.641817957162857056e-02,-3.337251953780651093e-03,5.441471002995967865e-03,7.554762065410614014e-02,-1.525684446096420288e-02,-6.220887973904609680e-02,-6.367693841457366943e-02,-2.861854061484336853e-02,3.931088373064994812e-03,-1.117261499166488647e-02,4.579856246709823608e-02,4.789840430021286011e-03,-4.503666982054710388e-02,1.706610620021820068e-02,4.498800635337829590e-02,-1.213854104280471802e-01,-5.093418434262275696e-02,1.577087678015232086e-02,-4.426913708448410034e-02,-1.111298575997352600e-01,-1.495500653982162476e-01,-9.618633240461349487e-02,-8.252304792404174805e-02,-1.078653335571289062e-02,6.811034679412841797e-02,-6.777961552143096924e-02,8.123496174812316895e-02,-1.478765010833740234e-01,-5.885650590062141418e-02,-5.018558725714683533e-02,4.925116524100303650e-02,-6.231079623103141785e-02,-1.068646460771560669e-01,2.997120656073093414e-02,-1.543964594602584839e-01,6.007540598511695862e-02,4.953592643141746521e-02,4.884184524416923523e-02,-1.288382709026336670e-01,6.308068335056304932e-02,1.556642353534698486e-02,-8.674126118421554565e-02,-8.025828003883361816e-02,1.119254827499389648e-01,-4.313193261623382568e-02,2.781199850142002106e-02,6.116770952939987183e-02,7.986508309841156006e-03,3.469969704747200012e-02,3.575325757265090942e-02,4.533014819025993347e-02,-6.833849102258682251e-02,-2.924636937677860260e-02,7.237651944160461426e-02,-4.720697179436683655e-02,-9.409935772418975830e-02,8.172368258237838745e-02,5.315246526151895523e-03,1.131683401763439178e-02,-2.976296469569206238e-02,-6.181408837437629700e-02,9.715222567319869995e-02,-8.038777858018875122e-02,-9.882207214832305908e-02,-1.158089786767959595e-01,-2.281197533011436462e-02,-7.123830914497375488e-02,3.778016660362482071e-03,-5.626678094267845154e-02,-8.853611350059509277e-02,3.539933264255523682e-02,-1.494930963963270187e-02,-8.196145296096801758e-02,-1.036382988095283508e-01,-1.411041319370269775e-01,-1.634540967643260956e-02,4.907510429620742798e-02,-7.254074513912200928e-02,2.686021663248538971e-02,-1.407494954764842987e-02,1.157379299402236938e-01,-1.326604485511779785e-01,6.055662035942077637e-02,-9.804125875234603882e-03,1.222248654812574387e-02,-1.217876225709915161e-01,-1.026118695735931396e-01,-8.597929030656814575e-02,3.139115124940872192e-02,5.201102048158645630e-02,-1.283132284879684448e-01,-2.839770168066024780e-02,8.841262757778167725e-02,8.118476718664169312e-02,-6.691285967826843262e-02,-4.352818801999092102e-02,-1.427853256464004517e-01,5.132348835468292236e-02,-8.559598028659820557e-02,-1.193531900644302368e-01,4.295730963349342346e-02,-1.371793299913406372e-01,1.090094447135925293e-01,-1.181497126817703247e-01,-8.590695261955261230e-02,-8.805093914270401001e-02,-1.403433829545974731e-01,-1.204138398170471191e-01,-6.716869026422500610e-02,-1.095248609781265259e-01,1.449822634458541870e-02,3.073919937014579773e-02,8.023026585578918457e-02,-9.005797654390335083e-02,1.529240794479846954e-02,-1.317831128835678101e-02,4.325668886303901672e-02,-9.558255784213542938e-03,-8.912070095539093018e-02,-1.198219731450080872e-01,1.138416957110166550e-02,-5.477167200297117233e-03,3.931717574596405029e-02,-5.785882845520973206e-02,-7.096994668245315552e-02,-4.003359470516443253e-03,-8.396553993225097656e-02,-4.287658259272575378e-02,-1.092654019594192505e-01,8.771528303623199463e-02,4.301786795258522034e-02,7.864861935377120972e-02,-1.174120418727397919e-02,2.240941487252712250e-02,-1.543400585651397705e-01,8.990760147571563721e-02,8.806370943784713745e-02,-1.196463629603385925e-01,6.146385893225669861e-02,-7.891362160444259644e-02,-1.254995614290237427e-01,9.192197769880294800e-02,-1.595044508576393127e-02,-1.020986363291740417e-01,-6.950396299362182617e-02,2.423516660928726196e-02,-8.969040960073471069e-02,3.366949781775474548e-02,1.067630350589752197e-01,6.455627083778381348e-02,4.703323543071746826e-02,-1.004839409142732620e-02,-5.582327023148536682e-02,-9.677045792341232300e-02,6.093800440430641174e-02,4.708982259035110474e-02,-1.137279644608497620e-01,-1.394225358963012695e-01,1.209164690226316452e-02,-1.049580648541450500e-01,3.781719505786895752e-02,-6.500377506017684937e-02,5.549636110663414001e-02,-6.876928359270095825e-02,-7.815156877040863037e-02,6.010561436414718628e-02,4.440122097730636597e-02,-4.173047840595245361e-03,-1.267971098423004150e-01,-1.404216736555099487e-01,1.872082427144050598e-02,-4.048426821827888489e-02,-1.160316020250320435e-01,8.299323730170726776e-03,-5.447219684720039368e-02,2.704533399082720280e-04,7.764153182506561279e-02,8.411573246121406555e-03,-7.525485008955001831e-02,3.573249652981758118e-02,8.468381315469741821e-02,-7.870077341794967651e-02,7.305702567100524902e-02,2.663484192453324795e-04,8.783635497093200684e-02,-7.863333821296691895e-02,-7.433829456567764282e-02,4.806549847126007080e-02,-7.678224146366119385e-02,2.172285132110118866e-02
-8.035416156053543091e-02,1.453028172254562378e-01,8.041101694107055664e-02,-1.412854641675949097e-01,-1.590533852577209473e-01,-5.399594083428382874e-02,2.494193241000175476e-02,-3.940466344356536865e-01,2.077286094427108765e-01,-5.737496167421340942e-02,1.744599938392639160e-01,-1.037941053509712219e-01,-1.176708042621612549e-01,-1.671881079673767090e-01,-7.621393352746963501e-02,-2.271815240383148193e-01,9.098893404006958008e-02,5.936893634498119354e-03,1.303738951683044434e-01,-9.512728452682495117e-02,6.663606315851211548e-02,-2.422844432294368744e-02,-2.248785048723220825e-01,-2.055825293064117432e-01,-1.510592736303806305e-02,-1.618573665618896484e-01,-8.322356268763542175e-03,-1.564871370792388916e-01,1.483561843633651733e-01,-1.238223537802696228e-02,-6.099101155996322632e-03,-2.134645283222198486e-01,8.213172852993011475e-02,3.615723848342895508e-01,-8.827211707830429077e-02,1.101495847105979919e-01,-8.377728983759880066e-03,-1.647053286433219910e-02,4.596054714056663215e-05,-1.738226413726806641e-01,8.013984560966491699e-02,-1.439139842987060547e-01,-1.931713521480560303e-01,6.210765615105628967e-02,9.515856951475143433e-02,-5.618794262409210205e-02,-1.271754950284957886e-01,8.519341796636581421e-02,-5.957296490669250488e-02,2.425990253686904907e-01,7.434601336717605591e-02,-1.712484508752822876e-01,3.910135850310325623e-02,-6.372515857219696045e-02,3.058915436267852783e-01,-6.085716560482978821e-02,1.907306760549545288e-01,-2.732502818107604980e-01,-2.783954143524169922e-01,4.630937054753303528e-02,1.581578850746154785e-01,-1.957586407661437988e-01,2.827848773449659348e-03,1.436039358377456665e-01,6.223655864596366882e-02,-1.048888936638832092e-01,-1.606394350528717041e-01,-1.819491237401962280e-01,1.769187301397323608e-01,1.148066148161888123e-01,-1.921672821044921875e-01,-8.059284090995788574e-02,-2.497988343238830566e-01,-4.339133203029632568e-02,3.059984743595123291e-02,2.928072959184646606e-02,-1.584479808807373047e-01,-9.034288115799427032e-03,-9.818249940872192383e-02,-2.174151241779327393e-01,1.119845435023307800e-01,2.390460520982742310e-01,1.191853359341621399e-01,-1.130477711558341980e-01,1.567491888999938965e-01,-2.043833769857883453e-02,1.053786948323249817e-01,1.129897907376289368e-01,-1.781380772590637207e-01,-1.096022687852382660e-02,-5.090356245636940002e-02,-1.114508882164955139e-01,-2.140375226736068726e-02,7.937631756067276001e-02,-2.829973399639129639e-02,-1.800390630960464478e-01,-2.512900531291961670e-01,2.290682680904865265e-02,5.003556609153747559e-02,6.308007985353469849e-02,-9.452279657125473022e-02,-5.206666514277458191e-02,3.674020990729331970e-02,2.082840204238891602e-01,4.390659928321838379e-02,-1.628046929836273193e-01,-1.385554671287536621e-01,8.434372022747993469e-03,1.559216827154159546e-01,-1.493644416332244873e-01,-1.327723115682601929e-01,-7.136998325586318970e-02,-3.306381404399871826e-01,-4.096488282084465027e-02,-1.370798796415328979e-01,-1.936911642551422119e-01,1.431192457675933838e-02,1.274809837341308594e-01,6.928326934576034546e-02,2.686733007431030273e-01,-5.538222193717956543e-02,-1.358034014701843262e-01,-5.207515507936477661e-02,-3.638100251555442810e-02,7.667197287082672119e-02,-2.906673252582550049e-01,-6.391096115112304688e-02,8.101923763751983643e-02,-9.069041162729263306e-02,-9.396883100271224976e-02,-2.498313039541244507e-02,-2.125587910413742065e-01,-8.458038419485092163e-02,-9.956714510917663574e-02,7.454792410135269165e-02,1.178859770298004150e-01,1.047813370823860168e-01,1.830320209264755249e-01,-2.045928686857223511e-01,8.204281330108642578e-02,4.863127321004867554e-02,-9.624645859003067017e-02,-6.174309551715850830e-02,2.602647757157683372e-03,1.417752653360366821e-01,-1.100138798356056213e-01,-4.067374765872955322e-02,-2.918747365474700928e-01,-1.595309674739837646e-01,-3.486609086394309998e-02,3.461221605539321899e-02,8.781188726425170898e-02,-1.084803119301795959e-01,-8.408512920141220093e-03,-2.418997883796691895e-01,-3.471025079488754272e-02,2.715109884738922119e-01,7.442510873079299927e-02,-7.716055959463119507e-02,2.556809782981872559e-01,-4.083814471960067749e-02,-2.124631851911544800e-01,4.589565843343734741e-02,1.114023029804229736e-01,2.124092280864715576e-01,1.394232958555221558e-01,-9.870690293610095978e-03,7.177796214818954468e-02,-9.414161741733551025e-02,6.281281262636184692e-02,9.503731131553649902e-02,1.617527455091476440e-01,-3.284874558448791504e-02,-2.845299802720546722e-02,-1.253764033317565918e-01,1.503579467535018921e-01,-1.878858208656311035e-01,-1.899311691522598267e-01,-1.830743849277496338e-01,-1.308509055525064468e-02,-1.210848316550254822e-01,1.426488347351551056e-02,8.134767413139343262e-03,2.001467049121856689e-01,1.855438351631164551e-01,2.377177774906158447e-01,1.788195371627807617e-01,-1.098928526043891907e-01,-8.020042628049850464e-02,-1.653026416897773743e-02,-9.864002466201782227e-03,2.867578268051147461e-01,9.091639518737792969e-02,-2.171449214220046997e-01,1.337943822145462036e-01,-5.209236219525337219e-02,-7.546569406986236572e-02,1.256927996873855591e-01,5.607800930738449097e-02,6.356414407491683960e-02,1.216498836874961853e-01,1.316232830286026001e-01,1.634455919265747070e-01,-1.471866574138402939e-02,8.002662658691406250e-02,-6.676618475466966629e-03,-1.427024370059370995e-03,-3.606764227151870728e-02,-1.113723032176494598e-02,-9.668555855751037598e-02,1.372583955526351929e-02,-7.637596130371093750e-02,-1.479340195655822754e-01,-1.168186962604522705e-01,-1.567042768001556396e-01,1.882418617606163025e-02,1.227430999279022217e-02,7.481601834297180176e-02,-1.563401222229003906e-01,-6.905601918697357178e-02,-1.528173983097076416e-01,-1.217366196215152740e-02,-2.196011990308761597e-01,1.240800544619560242e-01,2.556977421045303345e-02,4.209495615214109421e-03,1.612079441547393799e-01,2.920117676258087158e-01,-2.418829128146171570e-02,-5.453870445489883423e-02,8.179423213005065918e-02,1.419357657432556152e-01,1.235775277018547058e-01,1.408365070819854736e-01,4.275576397776603699e-02,8.853583782911300659e-02,-2.468396574258804321e-01,-8.941622823476791382e-02,1.573707908391952515e-01,1.130308434367179871e-01,5.506964772939682007e-02,1.944364607334136963e-02,2.561952471733093262e-01,2.120326086878776550e-02,-1.430055648088455200e-01,-3.688366711139678955e-02,-6.067159585654735565e-03,-3.165224194526672363e-02,1.795186474919319153e-02,2.612640559673309326e-01,1.292909532785415649e-01,-4.062183201313018799e-02,7.573122531175613403e-02,-8.382812142372131348e-03,-7.686843723058700562e-02,-1.791941002011299133e-02
-1.261500734835863113e-02,-1.591379940509796143e-01,-4.191796481609344482e-02,-3.338938811793923378e-03,-1.071867123246192932e-01,3.884262964129447937e-02,-5.814961716532707214e-02,1.010697633028030396e-01,1.691667437553405762e-01,-2.055641263723373413e-01,-6.552288681268692017e-02,2.160389721393585205e-01,-3.074188530445098877e-01,-4.378358367830514908e-03,-7.475140970200300217e-03,9.827499091625213623e-02,-1.639504916965961456e-02,-1.814717054367065430e-01,1.277674734592437744e-01,1.439187526702880859e-01,-3.678214922547340393e-02,2.548717260360717773e-01,2.137504518032073975e-01,1.499902009963989258e-01,2.869171462953090668e-02,-1.137526519596576691e-02,4.374193027615547180e-02,-3.686435520648956299e-02,-4.614993035793304443e-01,7.370375096797943115e-02,-1.520807147026062012e-01,1.928464621305465698e-01,-6.961673498153686523e-02,-3.092888295650482178e-01,-3.488934412598609924e-02,-4.698788002133369446e-02,3.149257898330688477e-01,1.163866668939590454e-01,5.510799586772918701e-02,2.447073012590408325e-01,1.513577401638031006e-01,1.311359554529190063e-01,8.889974653720855713e-02,-2.101399563252925873e-02,9.780926257371902466e-02,1.330248117446899414e-01,2.151942253112792969e-01,2.931105494499206543e-01,-3.840827941894531250e-02,-1.236412972211837769e-01,-6.278948485851287842e-02,3.589724004268646240e-02,4.523073509335517883e-02,-6.848719785921275616e-04,-2.322806268930435181e-01,1.558625698089599609e-01,1.148137822747230530e-01,1.188994273543357849e-01,3.090383484959602356e-02,5.077873915433883667e-02,1.534192711114883423e-01,-6.571923196315765381e-02,-8.171869814395904541e-02,1.595664583146572113e-02,-3.019810467958450317e-02,1.776838675141334534e-02,1.403433978557586670e-01,-2.137636840343475342e-01,-4.181300476193428040e-02,1.690338738262653351e-02,-6.147709488868713379e-02,-8.800114691257476807e-02,6.364692747592926025e-02,-2.504525482654571533e-01,7.391675561666488647e-02,-1.264295578002929688e-01,5.696402490139007568e-02,-3.233503550291061401e-02,1.729708462953567505e-01,-1.117660999298095703e-01,8.729727566242218018e-02,-2.219117060303688049e-02,6.375811994075775146e-02,6.308448314666748047e-02,-2.245729565620422363e-01,-5.043778568506240845e-02,-2.342720031738281250e-01,-1.586280316114425659e-01,-5.680187791585922241e-02,-1.667467951774597168e-01,5.250117182731628418e-02,-1.470842212438583374e-01,6.598387658596038818e-02,-5.306209623813629150e-02,1.440904755145311356e-02,-2.172704786062240601e-01,1.222374588251113892e-01,-9.429884701967239380e-02,3.223501890897750854e-02,-9.495826810598373413e-02,-5.085665360093116760e-02,-1.320610381662845612e-02,-1.497972011566162109e-01,-2.773619592189788818e-01,1.148472875356674194e-01,1.229389086365699768e-01,4.426443204283714294e-02,-1.569605767726898193e-01,2.976808138191699982e-02,-6.096639856696128845e-02,4.029711708426475525e-03,8.096014708280563354e-02,-1.220040544867515564e-01,9.644644707441329956e-02,4.894327744841575623e-02,7.100539654493331909e-02,-2.119945734739303589e-01,8.426252007484436035e-02,-1.003330945968627930e-02,-1.738519817590713501e-01,3.006290271878242493e-02,3.475300222635269165e-02,8.387530595064163208e-02,-4.623259231448173523e-02,1.159110441803932190e-01,-2.215881049633026123e-01,1.283399760723114014e-01,-4.014952480792999268e-02,-9.459459781646728516e-02,-5.608446523547172546e-02,4.464229196310043335e-02,-2.184831053018569946e-01,6.931511312723159790e-02,-1.029883138835430145e-02,-7.962396740913391113e-02,-7.111326605081558228e-02,-3.835086524486541748e-01,-2.140342593193054199e-01,1.065840572118759155e-01,-9.342797845602035522e-02,-1.670925319194793701e-01,2.224756032228469849e-02,-1.138096377253532410e-01,6.771735381335020065e-03,-4.592740908265113831e-02,7.433050125837326050e-02,8.353444188833236694e-02,5.849645473062992096e-03,-1.344103217124938965e-01,3.611639887094497681e-02,-1.879873573780059814e-01,-1.243703514337539673e-01,2.108917199075222015e-02,5.857158452272415161e-02,1.124946251511573792e-01,-5.130375549197196960e-02,1.137770935893058777e-01,1.127194091677665710e-01,1.377716064453125000e-01,-2.089018970727920532e-01,2.920131087303161621e-01,-1.438784897327423096e-01,-6.126254051923751831e-02,7.870663702487945557e-02,-2.802399545907974243e-02,-6.939740478992462158e-02,-2.054671496152877808e-01,-9.354491531848907471e-02,-1.452232599258422852e-01,1.265588998794555664e-01,1.168268546462059021e-01,-3.911872953176498413e-02,-1.097775250673294067e-01,1.303484439849853516e-01,3.943585976958274841e-02,-3.426693379878997803e-02,4.981158673763275146e-02,1.159119009971618652e-01,-4.358364641666412354e-02,-2.166938409209251404e-02,-1.692058742046356201e-01,-1.689768582582473755e-01,-1.499546878039836884e-02,-9.735073149204254150e-02,-1.317446082830429077e-01,-5.613407865166664124e-02,-5.047197639942169189e-02,1.785545349121093750e-01,1.351021081209182739e-01,-2.328551858663558960e-01,-4.718085005879402161e-02,-1.147570312023162842e-01,6.837989389896392822e-02,1.948786824941635132e-01,-9.715621173381805420e-02,1.621017456054687500e-01,-2.318838387727737427e-01,-2.113448977470397949e-01,-7.831013202667236328e-02,-2.236152738332748413e-01,8.530784398317337036e-02,-1.712044030427932739e-01,1.363157927989959717e-01,-6.044823303818702698e-02,1.012445092201232910e-01,-2.290297746658325195e-01,-1.064549759030342102e-01,-6.901830434799194336e-02,1.629522740840911865e-01,-4.361005127429962158e-02,-4.366302862763404846e-02,-1.061663106083869934e-01,-8.000277727842330933e-02,-6.686311215162277222e-02,-8.306620270013809204e-02,-1.635850667953491211e-01,4.273529350757598877e-02,9.512347728013992310e-02,3.019803948700428009e-02,-1.671133376657962799e-02,-1.374651491641998291e-01,-1.984666660428047180e-02,7.875137031078338623e-02,-5.594483390450477600e-02,-3.473034501075744629e-02,-1.139543429017066956e-01,-6.360132992267608643e-02,-1.620471291244029999e-02,-9.226721525192260742e-02,-1.223899200558662415e-01,-1.045149788260459900e-01,-2.314977900823578238e-04,2.629296295344829559e-02,1.125306822359561920e-02,1.294987201690673828e-01,1.422364562749862671e-01,4.682250693440437317e-02,-2.241327911615371704e-01,9.428527951240539551e-02,1.792432218790054321e-01,-8.370419591665267944e-02,-3.737428784370422363e-02,-1.125521957874298096e-01,-1.937831044197082520e-01,2.382531613111495972e-01,2.048279047012329102e-01,1.178839802742004395e-02,1.805745363235473633e-01,-7.779273390769958496e-02,3.533438965678215027e-02,-7.138565182685852051e-02,-6.027966737747192383e-02,1.056295111775398254e-01,-6.727487593889236450e-02,-1.165517494082450867e-01,1.299070864915847778e-01
-1.151093840599060059e-01,-1.225027665495872498e-01,8.320705965161323547e-03,-2.600092068314552307e-02,1.700346320867538452e-01,1.721212118864059448e-01,7.356273941695690155e-03,1.402302980422973633e-01,-2.541849389672279358e-02,-3.927265759557485580e-03,7.064626365900039673e-02,-7.709334790706634521e-02,-3.033339083194732666e-01,-7.700421847403049469e-03,3.935708082281053066e-04,-1.523942803032696247e-03,-1.659673824906349182e-02,-1.528210490942001343e-01,3.174676373600959778e-02,2.068052738904953003e-01,1.221982110291719437e-02,-1.783663779497146606e-01,1.277392357587814331e-02,7.784123718738555908e-02,-3.868206590414047241e-02,1.587040871381759644e-01,5.154919251799583435e-02,7.592562586069107056e-02,-2.289541363716125488e-01,1.428913772106170654e-01,-5.196115747094154358e-02,-1.472298949956893921e-01,1.610518991947174072e-01,-1.613291949033737183e-01,6.411350518465042114e-02,2.085720151662826538e-01,1.205744221806526184e-02,-1.264217048883438110e-01,4.021088592708110809e-03,4.419978708028793335e-02,-5.499836802482604980e-02,6.948443502187728882e-02,1.139244586229324341e-01,2.214471809566020966e-02,-1.354726850986480713e-01,3.798285499215126038e-02,-2.053726166486740112e-01,-5.033066868782043457e-02,4.054788649082183838e-01,1.724806129932403564e-01,1.012125536799430847e-01,3.959577530622482300e-02,5.078385025262832642e-02,2.908642590045928955e-02,-2.722633481025695801e-01,2.391673997044563293e-02,-2.503690123558044434e-02,4.386270418763160706e-02,7.262705266475677490e-02,-1.196476593613624573e-01,-1.313610970973968506e-01,2.824939787387847900e-01,1.452706456184387207e-01,-4.038911685347557068e-02,6.239254400134086609e-02,-7.723839581012725830e-02,1.209043189883232117e-01,5.159349739551544189e-02,1.271788328886032104e-01,-2.211287990212440491e-02,7.213959097862243652e-02,-1.294792592525482178e-01,1.337435562163591385e-02,3.333533182740211487e-03,-8.020077645778656006e-02,1.328168064355850220e-01,2.529856935143470764e-02,8.819224685430526733e-02,-7.864686101675033569e-02,2.054547518491744995e-01,-1.069417875260114670e-02,-1.312835514545440674e-02,4.100614786148071289e-02,2.332439869642257690e-01,4.010976478457450867e-02,8.997494727373123169e-02,-1.204632297158241272e-01,-7.038043439388275146e-02,5.616881698369979858e-02,4.737399984151124954e-03,-3.840384259819984436e-02,-3.001016750931739807e-02,-5.864321067929267883e-02,1.523364335298538208e-01,7.140517234802246094e-02,1.104431599378585815e-01,1.006474867463111877e-01,-2.350616455078125000e-01,1.343452632427215576e-01,-1.190891787409782410e-01,-1.915307715535163879e-02,-1.816879361867904663e-01,-1.389411743730306625e-02,-4.366384446620941162e-02,4.324672743678092957e-02,-6.220940127968788147e-02,7.565414160490036011e-02,1.199724674224853516e-01,-2.314449250698089600e-01,-2.027316242456436157e-01,-7.168723642826080322e-02,2.789080142974853516e-02,1.404644399881362915e-01,2.361588180065155029e-01,-1.280886381864547729e-01,1.040791571140289307e-01,8.882501721382141113e-02,-2.525930702686309814e-01,1.456803977489471436e-01,-2.648790776729583740e-01,-1.035519167780876160e-01,-2.884257435798645020e-01,5.660941451787948608e-02,3.383863866329193115e-01,-1.262779533863067627e-01,1.862022792920470238e-03,-1.323955357074737549e-01,-4.490934312343597412e-03,-1.226147264242172241e-01,4.382539540529251099e-02,-7.375796139240264893e-02,2.428668923676013947e-02,4.087215662002563477e-02,5.188613012433052063e-02,1.028821989893913269e-01,1.432975232601165771e-01,1.845010221004486084e-01,-2.770760282874107361e-02,-3.482999652624130249e-02,7.744767516851425171e-02,-1.084509938955307007e-01,1.154771894216537476e-01,2.656258642673492432e-01,6.916373036801815033e-03,-7.558333128690719604e-02,-1.221758592873811722e-02,4.413813725113868713e-02,-1.370434165000915527e-01,-9.716027975082397461e-02,3.936292603611946106e-02,7.317988574504852295e-02,1.237437799572944641e-01,-2.756479755043983459e-02,-1.028094962239265442e-01,-4.721263051033020020e-02,1.030559372156858444e-02,-4.193275794386863708e-02,-9.535703063011169434e-02,-9.974758327007293701e-02,-6.917456537485122681e-02,9.165370464324951172e-02,1.295861881226301193e-02,-8.360643871128559113e-03,3.091616742312908173e-02,-1.725713163614273071e-02,-1.592350751161575317e-01,3.537905216217041016e-02,-1.104759871959686279e-01,-8.388937264680862427e-02,4.256502911448478699e-02,2.583806514739990234e-01,8.611781895160675049e-02,1.303181052207946777e-01,-6.077853217720985413e-02,-1.099673509597778320e-01,9.204058349132537842e-02,1.172949001193046570e-01,-5.350354686379432678e-02,-9.847331792116165161e-02,-1.560051888227462769e-01,3.432126939296722412e-01,-1.289464682340621948e-01,-2.299048006534576416e-03,-1.388990879058837891e-02,-6.366882473230361938e-02,-1.074629053473472595e-01,-1.277977526187896729e-01,1.177954152226448059e-01,-1.645044982433319092e-01,-1.022866368293762207e-01,-2.871060073375701904e-01,-4.920089617371559143e-02,-1.499638706445693970e-01,1.041801348328590393e-01,-6.232714653015136719e-02,1.729483604431152344e-01,-2.220349013805389404e-01,1.275233179330825806e-02,1.254061609506607056e-01,7.612685859203338623e-02,2.241401821374893188e-01,-1.643683016300201416e-02,2.291651070117950439e-01,-2.706720232963562012e-01,-1.617779582738876343e-01,-7.553540915250778198e-02,-7.350003719329833984e-02,-5.765397101640701294e-02,9.075198322534561157e-03,-1.194734349846839905e-01,5.753627792000770569e-02,-1.250372380018234253e-01,-1.709588021039962769e-01,5.942711606621742249e-02,-1.357514709234237671e-01,-3.815058991312980652e-02,8.455449342727661133e-02,2.361527457833290100e-02,3.733915388584136963e-01,-3.033623099327087402e-01,6.397017091512680054e-02,4.091715905815362930e-03,-1.349380519241094589e-02,1.000609099864959717e-01,2.511753737926483154e-01,6.479643285274505615e-02,7.447808235883712769e-02,-2.633790075778961182e-01,3.459658473730087280e-02,1.483915187418460846e-02,-4.051792919635772705e-01,1.432316154241561890e-01,5.753901600837707520e-02,-1.112617477774620056e-01,2.229228764772415161e-01,-1.156256347894668579e-01,2.101704627275466919e-01,-2.139858305454254150e-01,1.616493016481399536e-01,1.200878713279962540e-02,-1.006386056542396545e-01,-1.061426699161529541e-01,-2.743108272552490234e-01,-4.055341780185699463e-01,5.813642963767051697e-02,-2.465963736176490784e-02,-1.184848509728908539e-02,1.481626927852630615e-01,-1.469852626323699951e-01,-3.201618194580078125e-01,-5.797889083623886108e-02,4.678900539875030518e-02,-4.110353067517280579e-03,-1.122493296861648560e-01,-2.312000244855880737e-01,1.905700750648975372e-02
-4.235067591071128845e-02,4.285695552825927734e-01,6.305152922868728638e-02,-1.536139547824859619e-01,-7.986510545015335083e-02,4.263163357973098755e-02,-2.467692494392395020e-01,-1.711702793836593628e-01,-8.232472836971282959e-02,7.000699639320373535e-02,6.970175309106707573e-04,-7.748138904571533203e-02,2.538797259330749512e-01,-2.617667615413665771e-01,-3.111323527991771698e-02,1.108783669769763947e-02,8.283891715109348297e-03,2.912956476211547852e-01,-9.228199720382690430e-02,-8.978658169507980347e-02,1.858901232481002808e-01,-5.393555760383605957e-02,-7.216536253690719604e-02,-2.124636620283126831e-01,-3.592015802860260010e-01,8.144330978393554688e-02,3.394688293337821960e-02,-1.415447294712066650e-01,1.257236003875732422e-01,-2.339955121278762817e-01,-1.436892747879028320e-01,3.093036822974681854e-02,-4.540767520666122437e-03,1.862338483333587646e-01,-2.893330715596675873e-02,5.276197195053100586e-02,1.174360737204551697e-01,-2.679269909858703613e-01,2.220364660024642944e-02,-2.082813233137130737e-01,-1.796842515468597412e-01,-2.421926110982894897e-01,-1.879841238260269165e-01,3.168026357889175415e-02,5.174405500292778015e-02,-1.122771576046943665e-01,-5.658024176955223083e-02,-2.187866531312465668e-02,5.075530335307121277e-02,2.533205747604370117e-01,-3.849833309650421143e-01,1.127125993371009827e-01,7.404300570487976074e-02,-5.131305456161499023e-01,1.747897565364837646e-01,-6.864815950393676758e-02,-1.439965069293975830e-01,-1.660500615835189819e-01,-5.131856203079223633e-01,1.846163719892501831e-01,-9.048123657703399658e-02,2.751556336879730225e-01,1.355490535497665405e-01,-8.127361652441322803e-04,9.186936914920806885e-02,1.395364254713058472e-01,1.244934946298599243e-01,7.053240388631820679e-02,7.984437979757785797e-03,-3.619688004255294800e-02,-2.296993881464004517e-01,-2.189408615231513977e-02,-1.047383323311805725e-01,-7.751670479774475098e-02,4.322505742311477661e-02,1.616965830326080322e-01,4.219112545251846313e-02,-1.251823306083679199e-01,3.483112528920173645e-02,4.805746302008628845e-02,1.391112152487039566e-02,-6.786458194255828857e-02,2.495782077312469482e-02,-6.607183814048767090e-02,-7.540713995695114136e-02,1.746932230889797211e-02,-1.927859038114547729e-01,1.117112040519714355e-01,-9.426622092723846436e-02,3.388520702719688416e-02,5.766286328434944153e-02,-5.659301578998565674e-02,2.968013882637023926e-01,-7.161028683185577393e-02,-9.097815304994583130e-02,-5.361209064722061157e-02,1.035044621676206589e-02,1.629038006067276001e-01,2.743816375732421875e-01,1.245880722999572754e-01,1.435022354125976562e-01,1.927689462900161743e-02,2.827258035540580750e-02,1.409548819065093994e-01,-1.520167663693428040e-02,3.791067004203796387e-02,-6.966277211904525757e-02,1.897759735584259033e-03,-3.664039820432662964e-02,-8.153790980577468872e-02,-1.914396286010742188e-01,-8.839162066578865051e-03,4.122550040483474731e-02,-4.328212887048721313e-02,-2.443525753915309906e-02,-1.383789535611867905e-02,2.231026589870452881e-01,-3.600769490003585815e-02,1.693234592676162720e-02,2.547852993011474609e-01,2.294048070907592773e-01,8.226495981216430664e-02,-1.265994161367416382e-01,-5.369476974010467529e-02,1.913743019104003906e-01,-1.466737836599349976e-01,-2.769750058650970459e-01,4.161213710904121399e-02,6.635516136884689331e-02,1.651377975940704346e-01,1.605253070592880249e-01,-1.011313423514366150e-01,-9.711345657706260681e-03,2.973013930022716522e-02,-6.814007461071014404e-02,-9.210672229528427124e-02,1.943322867155075073e-01,-1.719234324991703033e-02,9.193875640630722046e-02,1.285363137722015381e-01,1.598158180713653564e-01,2.049278914928436279e-01,1.381213366985321045e-01,-8.468457311391830444e-02,1.246809437870979309e-01,-1.298690587282180786e-01,1.118955090641975403e-01,-2.127922624349594116e-01,-7.801070809364318848e-02,-5.624344572424888611e-02,1.376916319131851196e-01,8.753346651792526245e-02,9.847421199083328247e-02,2.176271975040435791e-01,-3.874233458191156387e-03,1.229539141058921814e-01,1.142987757921218872e-01,-7.986439019441604614e-02,-2.630903199315071106e-02,1.691796183586120605e-01,1.333028376102447510e-01,-8.626737631857395172e-03,3.604996576905250549e-02,-4.506133124232292175e-02,1.676427423954010010e-01,1.064041480422019958e-01,1.000495813786983490e-02,2.931813523173332214e-02,-1.916688866913318634e-02,1.621167957782745361e-01,1.118162944912910461e-01,5.635933484882116318e-03,9.509043395519256592e-02,-9.754233807325363159e-02,1.060666367411613464e-01,2.562497742474079132e-02,7.398578524589538574e-02,-1.440643221139907837e-01,1.219213940203189850e-02,4.579299315810203552e-02,-1.350684612989425659e-01,-6.131309270858764648e-02,8.573094010353088379e-02,1.006611362099647522e-01,1.868597231805324554e-02,1.790785342454910278e-01,2.421858720481395721e-03,1.104406565427780151e-01,-1.089394278824329376e-02,-1.610891371965408325e-01,1.370043903589248657e-01,-7.175550609827041626e-02,-1.961866915225982666e-01,4.529896751046180725e-02,4.168812558054924011e-02,3.310771659016609192e-02,5.901889130473136902e-02,-9.938011318445205688e-02,-3.565662354230880737e-02,-2.312591485679149628e-02,-7.950838655233383179e-02,4.016217589378356934e-02,1.466398686170578003e-02,5.910117924213409424e-02,2.515288814902305603e-02,2.886875271797180176e-01,-2.210199832916259766e-02,-9.958400577306747437e-02,1.016032695770263672e-01,9.562153369188308716e-02,1.459004133939743042e-01,1.502982713282108307e-02,1.134457215666770935e-01,9.249588847160339355e-02,3.625387325882911682e-02,8.012260496616363525e-02,-2.258731722831726074e-01,-6.509368121623992920e-02,1.734119802713394165e-01,-6.148275732994079590e-02,-1.148855835199356079e-01,-1.301646828651428223e-01,-7.317011710256338120e-03,-3.925015218555927277e-03,-5.851917713880538940e-02,6.504552066326141357e-02,3.024889342486858368e-02,-3.464741632342338562e-02,1.787913292646408081e-01,5.444739013910293579e-03,1.055355295538902283e-01,6.310452520847320557e-02,6.472121924161911011e-02,9.851081669330596924e-02,4.943488538265228271e-02,-7.819962501525878906e-02,-6.885761860758066177e-03,9.242359548807144165e-02,1.235587671399116516e-01,8.120238035917282104e-02,8.129949122667312622e-02,-5.650931224226951599e-02,-1.936709508299827576e-02,-9.260335564613342285e-02,1.544757653027772903e-02,3.597741201519966125e-02,-6.194331869482994080e-02,-9.234444051980972290e-02,-8.951652050018310547e-02,-7.005306333303451538e-02,-1.502153426408767700e-01,-2.376592252403497696e-03,1.053251400589942932e-01,-1.442403495311737061e-01,9.013468772172927856e-02,2.928524836897850037e-02
