-2.067267298698425293e-01,1.495638787746429443e-01,-7.511708885431289673e-02,-4.278632253408432007e-02,-1.299263685941696167e-01,-8.049820363521575928e-02,1.267943903803825378e-02,-4.482563212513923645e-02,6.083029881119728088e-02,-1.252444535493850708e-01,1.376177519559860229e-01,1.788896881043910980e-02,-1.218619197607040405e-02,-7.957431487739086151e-03,-2.172963768243789673e-01,-1.465426832437515259e-01,3.785867989063262939e-02,8.647149056196212769e-02,-1.553905457258224487e-01,1.120498105883598328e-01,1.313886195421218872e-01,7.619299739599227905e-02,7.047203183174133301e-02,-2.707657516002655029e-01,1.400683633983135223e-02,-6.838031858205795288e-02,-1.653622537851333618e-01,-7.519017159938812256e-02,-1.336909979581832886e-01,4.795893281698226929e-02,-8.493861556053161621e-02,-2.417583018541336060e-01,-1.336218416690826416e-01,-1.865275651216506958e-01,2.012181133031845093e-01,8.156553655862808228e-02,8.834748715162277222e-02,2.857640571892261505e-02,-6.429418176412582397e-02,-3.995777294039726257e-02,1.686847656965255737e-01,-3.903764858841896057e-02,7.048378139734268188e-02,-2.698746621608734131e-01,-1.390634477138519287e-02,7.817035540938377380e-03,7.041940093040466309e-02,-9.320451319217681885e-02,-1.089115813374519348e-01,1.539143472909927368e-01,-8.672732859849929810e-02,1.793549060821533203e-01,6.284251576289534569e-04,7.169363647699356079e-02,-1.436023861169815063e-01,-1.711523830890655518e-01,9.429602324962615967e-02,1.438877582550048828e-01,7.813120633363723755e-02,-1.312721520662307739e-03,1.836121231317520142e-01,5.138888955116271973e-02,-5.819446966052055359e-02,-8.505603671073913574e-02,4.722653329372406006e-02,-7.909598946571350098e-02,3.460404649376869202e-02,6.139519810676574707e-02,-6.336073577404022217e-02,-1.367607183055952191e-05,-9.462653845548629761e-02,-2.568257972598075867e-02,-1.154342219233512878e-01,1.633186042308807373e-01,-7.569742947816848755e-02,-5.185121670365333557e-02,-4.393320903182029724e-02,-1.835421770811080933e-01,6.053348630666732788e-02,-1.608967036008834839e-01,2.162113636732101440e-01,-1.333387047052383423e-01,-2.101504802703857422e-01,-1.044016256928443909e-01,2.439812272787094116e-01,3.310516476631164551e-02,5.576334521174430847e-02,-9.172438876703381538e-04,-1.556931287050247192e-01,1.454924140125513077e-02,-6.853725016117095947e-02,-1.361199766397476196e-01,6.333206593990325928e-02,-1.543364375829696655e-01,8.456504344940185547e-02,4.271890223026275635e-02,-1.139895319938659668e-01,-1.302822232246398926e-01,-1.212589442729949951e-01,1.157874688506126404e-01,-1.736234314739704132e-02,1.600867509841918945e-01,-2.160602807998657227e-01,-2.198758162558078766e-02,-1.712474822998046875e-01,-9.231647849082946777e-02,-9.543483704328536987e-02,1.258852630853652954e-01,-3.034594058990478516e-01,-3.493860363960266113e-02,9.095005691051483154e-02,1.164322867989540100e-01,-2.105334252119064331e-01,6.974955648183822632e-02,1.795834004878997803e-01,8.040723204612731934e-02,8.060811460018157959e-02,-1.309147477149963379e-01,-4.833160713315010071e-02,6.827933713793754578e-03
-2.345813810825347900e-01,-1.144150421023368835e-01,-3.038112521171569824e-01,7.490269839763641357e-02,1.074274480342864990e-01,-5.453020334243774414e-03,-1.017492935061454773e-01,-2.706880122423171997e-02,-6.184138357639312744e-02,2.101583182811737061e-01,1.300422381609678268e-02,-2.839119136333465576e-01,1.837878227233886719e-01,-9.212560206651687622e-02,-2.366282939910888672e-01,-2.959427833557128906e-01,1.332677453756332397e-01,-1.334790438413619995e-01,-1.448463350534439087e-01,-3.399765118956565857e-02,-6.268271803855895996e-02,-1.799322217702865601e-01,5.316242109984159470e-03,4.196595773100852966e-02,1.541070342063903809e-01,2.862364612519741058e-02,-1.043540239334106445e-01,8.461439609527587891e-02,1.659760624170303345e-01,-7.988010533154010773e-03,-2.738846540451049805e-01,2.622704505920410156e-01,-2.006765007972717285e-01,-1.938439719378948212e-02,-2.001545578241348267e-01,-4.889873415231704712e-02,1.393285691738128662e-01,-1.485509276390075684e-01,2.303692251443862915e-01,-4.634118974208831787e-01,-9.849189221858978271e-02,-8.776592090725898743e-03,-4.853590577840805054e-02,-2.015949487686157227e-01,-2.276394516229629517e-02,9.060671925544738770e-02,-1.221551075577735901e-01,-8.349481225013732910e-02,8.295094966888427734e-02,5.761963501572608948e-02,1.519581228494644165e-01,-1.795740723609924316e-01,-1.232452876865863800e-02,-2.526685297489166260e-01,-5.492914095520973206e-02,1.439793854951858521e-01,1.644445657730102539e-01,1.089497841894626617e-02,1.122674793004989624e-01,1.133004352450370789e-01,2.081213295459747314e-01,-1.116407960653305054e-01,9.300186485052108765e-02,2.342086434364318848e-01,3.757106661796569824e-01,1.708664894104003906e-01,8.246457204222679138e-03,1.216851919889450073e-01,9.351556003093719482e-02,-9.203800559043884277e-02,-1.493813842535018921e-01,7.308793067932128906e-02,3.241280317306518555e-01,4.129317030310630798e-02,2.550078928470611572e-01,-1.180456876754760742e-01,4.832599759101867676e-01,-3.633386269211769104e-02,-1.002887338399887085e-01,-9.544622898101806641e-02,1.581523716449737549e-01,2.517099678516387939e-01,1.036265641450881958e-01,-2.549797594547271729e-01,2.765435576438903809e-01,-7.236051559448242188e-02,-4.402932152152061462e-02,-1.848919689655303955e-01,-3.033995069563388824e-02,6.018599122762680054e-02,-4.028030484914779663e-02,1.255263090133666992e-01,1.241128519177436829e-02,2.065892517566680908e-01,8.935734629631042480e-02,-2.419649511575698853e-01,8.884652704000473022e-02,-2.474087849259376526e-02,2.460202015936374664e-02,-1.011394783854484558e-01,-2.080772668123245239e-01,-4.265392571687698364e-02,-1.142850667238235474e-01,-7.793299853801727295e-03,-1.672369688749313354e-01,1.475954800844192505e-01,-9.111858904361724854e-02,-9.374045580625534058e-02,-1.348856985569000244e-01,2.525538764894008636e-02,-1.864917203783988953e-02,8.277244120836257935e-02,-3.911691531538963318e-02,-2.226552963256835938e-01,-2.707934379577636719e-01,-2.807667665183544159e-02,-5.139968544244766235e-02,1.507521867752075195e-01,2.090837247669696808e-02,-2.020882517099380493e-01
-3.697510361671447754e-01,1.447733789682388306e-01,1.025286912918090820e-01,1.707180738449096680e-01,1.345681101083755493e-01,3.094803728163242340e-02,2.018271237611770630e-01,8.345010876655578613e-02,-1.238152384757995605e-01,1.644048541784286499e-01,9.803039021790027618e-03,1.258021742105484009e-01,-1.974629908800125122e-01,-2.281208783388137817e-01,2.497126348316669464e-02,-4.417265653610229492e-01,-1.223898380994796753e-01,-2.869184017181396484e-01,1.233649924397468567e-01,-1.620089560747146606e-01,-3.814229741692543030e-02,-2.469710260629653931e-01,1.714027374982833862e-01,-2.516098916530609131e-01,-8.081945776939392090e-02,-1.725924909114837646e-01,1.565230190753936768e-01,1.072843968868255615e-01,-1.331764608621597290e-01,-6.734493374824523926e-02,2.091257125139236450e-01,1.943446397781372070e-01,-1.803778409957885742e-01,8.938163518905639648e-03,-2.422236502170562744e-01,9.325166791677474976e-02,1.448100954294204712e-01,2.388207912445068359e-01,-1.377811729907989502e-01,-5.309498310089111328e-02,4.600481688976287842e-02,-1.860059797763824463e-02,2.578167319297790527e-01,-1.850819438695907593e-01,-1.956925541162490845e-01,-1.921327859163284302e-01,7.615029462613165379e-04,-3.079101443290710449e-01,-2.795805633068084717e-01,-1.087099537253379822e-01,4.136966541409492493e-02,4.183472692966461182e-02,-3.789075911045074463e-01,2.591576874256134033e-01,9.527870267629623413e-02,6.728316098451614380e-02,7.807985530234873295e-04,1.977490931749343872e-01,-1.097201555967330933e-01,-8.921477198600769043e-02,1.146990358829498291e-01,7.214728742837905884e-02,1.789977401494979858e-01,-1.778667569160461426e-01,-1.108800619840621948e-01,5.441679060459136963e-02,-2.473946809768676758e-01,5.021463334560394287e-02,-6.849593669176101685e-02,5.033131688833236694e-02,1.551519241183996201e-02,-1.698382347822189331e-01,-5.995960906147956848e-02,8.063086867332458496e-02,1.348045617341995239e-01,-1.432830542325973511e-01,-2.407431788742542267e-02,1.059126481413841248e-01,8.526698499917984009e-02,-6.958648562431335449e-02,2.274732738733291626e-01,1.187569051980972290e-01,-2.431120909750461578e-02,1.092844828963279724e-01,-1.742443889379501343e-01,-2.010755240917205811e-02,-1.067105755209922791e-01,8.136630058288574219e-03,-2.052761614322662354e-01,-4.811139311641454697e-03,-5.711314734071493149e-03,3.694143518805503845e-02,1.321612596511840820e-01,-5.100516974925994873e-02,2.162283658981323242e-01,-3.108517825603485107e-01,-3.432880342006683350e-02,-4.080708026885986328e-01,6.196218356490135193e-02,-6.551425904035568237e-02,-2.314056754112243652e-01,2.204831875860691071e-02,-2.049038559198379517e-02,-2.055090852081775665e-02,1.128143891692161560e-01,-8.508857339620590210e-02,-5.169463157653808594e-02,-2.507743239402770996e-01,-4.745041020214557648e-03,1.103336587548255920e-01,1.047981902956962585e-01,4.029009863734245300e-02,-2.266422659158706665e-01,-1.622902899980545044e-01,-2.666068971157073975e-01,1.666917651891708374e-01,4.532193765044212341e-02,1.117319520562887192e-02,2.823840975761413574e-01,8.422149717807769775e-02
-5.106664821505546570e-02,-9.350622072815895081e-03,4.068346461281180382e-04,-1.938739269971847534e-01,-3.631684929132461548e-02,3.958392515778541565e-02,1.103006005287170410e-01,-2.057771235704421997e-01,1.300063915550708771e-02,6.915648467838764191e-03,-2.638323605060577393e-02,-8.654293417930603027e-02,4.521397128701210022e-02,-1.106946542859077454e-01,-1.035754829645156860e-01,-3.838749825954437256e-01,1.398779600858688354e-01,-9.761516004800796509e-02,-8.051749318838119507e-04,5.639864504337310791e-02,-1.091310232877731323e-01,-1.126598268747329712e-01,-2.509942352771759033e-01,8.793099224567413330e-02,5.128436163067817688e-02,-1.826214343309402466e-01,1.464498788118362427e-01,-1.351204365491867065e-01,1.409973353147506714e-01,2.279019504785537720e-01,-5.279936268925666809e-02,-1.209673732519149780e-01,-2.382224947214126587e-01,2.457445263862609863e-01,-3.978473693132400513e-02,-9.249021857976913452e-02,-1.164250820875167847e-01,-6.014402583241462708e-02,-3.174977004528045654e-02,-9.343530982732772827e-03,1.048796549439430237e-01,-6.186737120151519775e-02,1.276710182428359985e-01,-1.071164533495903015e-01,2.590515278279781342e-02,-1.758462935686111450e-01,5.124973133206367493e-02,-2.506520748138427734e-01,-2.980566024780273438e-01,1.258125901222229004e-02,1.218625232577323914e-01,-2.281858325004577637e-01,-1.911917030811309814e-01,-4.759733006358146667e-02,1.348191350698471069e-01,3.831079229712486267e-02,7.682880014181137085e-02,7.159000635147094727e-02,-1.211072430014610291e-01,2.377815842628479004e-01,-1.727750450372695923e-01,8.879145979881286621e-02,-3.913001716136932373e-02,-2.453813403844833374e-01,-1.548099964857101440e-01,-4.729893431067466736e-02,-2.930529117584228516e-01,-5.985333025455474854e-02,-1.297682076692581177e-01,-1.326781660318374634e-01,-7.699076086282730103e-02,-7.300107181072235107e-02,4.160246346145868301e-03,2.679488807916641235e-02,9.597775340080261230e-02,-1.341943293809890747e-01,-2.084194570779800415e-01,-5.739285051822662354e-02,2.055195868015289307e-01,-2.738449573516845703e-01,3.461630046367645264e-01,1.423107981681823730e-01,3.584185615181922913e-02,-1.836178302764892578e-01,-1.636519655585289001e-02,-9.265809506177902222e-02,1.085857450962066650e-01,-1.574574559926986694e-01,-3.076109290122985840e-01,1.282303631305694580e-01,-1.332993954420089722e-01,-2.286637015640735626e-02,-2.484448999166488647e-02,2.491125278174877167e-02,-2.649940550327301025e-01,-1.995466202497482300e-01,8.617122471332550049e-02,6.187883671373128891e-03,1.424037963151931763e-01,5.839625746011734009e-02,-8.383876830339431763e-02,7.076371461153030396e-02,6.597938947379589081e-03,-6.118303164839744568e-02,9.592217206954956055e-02,-1.839920431375503540e-01,-1.637755632400512695e-01,1.444039493799209595e-01,-1.684278547763824463e-01,1.230272203683853149e-01,1.754343956708908081e-01,-1.663588546216487885e-02,-1.276952624320983887e-01,-2.149667739868164062e-01,-8.458551019430160522e-02,1.352246105670928955e-01,-3.416015207767486572e-02,-4.221025109291076660e-02,-1.084047481417655945e-01,5.704077705740928650e-02
8.643300272524356842e-03,-3.392518162727355957e-01,5.741515010595321655e-02,3.081443160772323608e-02,-1.626878380775451660e-01,-1.611249707639217377e-02,-3.003745377063751221e-01,-9.024543315172195435e-02,1.049509346485137939e-01,2.782986462116241455e-01,1.093019023537635803e-01,1.082242503762245178e-01,9.982556849718093872e-02,-1.366340667009353638e-01,1.778677687980234623e-03,-1.437654197216033936e-01,1.775198988616466522e-02,9.332524985074996948e-02,-4.147486016154289246e-02,9.808202832937240601e-02,-1.620725393295288086e-01,-5.334179848432540894e-02,-2.520837783813476562e-01,5.878930911421775818e-03,-8.283920586109161377e-02,1.124521046876907349e-01,-1.486312150955200195e-01,6.015970930457115173e-02,1.071096956729888916e-01,-4.798097908496856689e-02,-1.918759793043136597e-01,3.543923050165176392e-02,-3.122788388282060623e-03,1.024952754378318787e-01,-1.704261600971221924e-01,1.097175404429435730e-01,1.669419407844543457e-01,2.158910781145095825e-01,-3.284413740038871765e-02,-2.409042716026306152e-01,9.996242821216583252e-02,-9.031249582767486572e-02,9.165257960557937622e-02,-3.880190104246139526e-02,1.053434461355209351e-01,-1.758893430233001709e-01,1.276711970567703247e-01,-2.218473851680755615e-01,-1.161517053842544556e-01,2.008423209190368652e-01,8.820275217294692993e-02,-6.092097982764244080e-02,-2.476158440113067627e-01,2.216205559670925140e-02,1.631002724170684814e-01,2.035737596452236176e-02,-1.686242520809173584e-01,-1.501171439886093140e-01,2.035801559686660767e-01,1.876237839460372925e-01,-4.961453750729560852e-02,6.529198586940765381e-02,2.740745432674884796e-02,1.322721014730632305e-03,7.401029020547866821e-02,6.565459817647933960e-02,1.914672702550888062e-01,8.903647772967815399e-03,-9.394085407257080078e-02,-8.816097676753997803e-02,7.151532173156738281e-02,2.080705910921096802e-01,3.624780774116516113e-01,2.592853270471096039e-02,-1.191251799464225769e-01,2.130883745849132538e-02,5.125958472490310669e-02,-1.067068651318550110e-01,-1.647817939519882202e-01,-3.283761143684387207e-01,4.173779487609863281e-02,1.832248717546463013e-01,1.142828352749347687e-02,-1.204004064202308655e-01,2.319663166999816895e-01,-3.237630426883697510e-02,-7.370548695325851440e-02,1.988626867532730103e-01,8.406099677085876465e-02,1.684070676565170288e-01,1.809335649013519287e-01,-8.194014430046081543e-03,1.719598099589347839e-02,-8.233986794948577881e-03,-1.694289967417716980e-02,-1.402966678142547607e-01,-7.246798276901245117e-02,-1.006328314542770386e-01,3.437163308262825012e-02,1.036882996559143066e-01,-4.303386509418487549e-01,1.477948576211929321e-01,5.042023491114377975e-03,1.255564689636230469e-01,7.618914358317852020e-03,-1.236903443932533264e-01,-2.154326289892196655e-01,-2.197470813989639282e-01,-1.647457294166088104e-02,-7.695304602384567261e-02,-3.818506374955177307e-02,1.420554332435131073e-02,2.405524104833602905e-01,1.005329787731170654e-01,1.698244810104370117e-01,-1.594320982694625854e-01,-1.609642356634140015e-01,-4.855673760175704956e-02,-1.072933226823806763e-01,-1.746546179056167603e-01
-3.122408986091613770e-01,7.180771231651306152e-02,-8.210947737097740173e-03,-1.249473169445991516e-01,5.076941102743148804e-02,-3.724766522645950317e-02,1.997333168983459473e-01,6.215055286884307861e-02,4.614257812500000000e-02,6.515333056449890137e-02,4.264546558260917664e-02,5.345091968774795532e-02,5.542904511094093323e-02,-1.717112660408020020e-01,-1.529064327478408813e-01,-4.763326048851013184e-02,1.934536546468734741e-02,-1.028499901294708252e-01,1.573490649461746216e-01,1.603383272886276245e-01,-6.894791126251220703e-02,-1.657577604055404663e-01,2.072732150554656982e-01,-3.964126855134963989e-02,-3.362985253334045410e-01,-1.146119236946105957e-01,7.020259648561477661e-02,-3.159004449844360352e-02,1.496342010796070099e-02,9.227705746889114380e-02,-2.575719058513641357e-01,2.217755168676376343e-01,-1.527388095855712891e-01,1.196307539939880371e-01,2.126318961381912231e-01,2.357489317655563354e-01,7.095595449209213257e-02,-1.459595561027526855e-01,3.333249315619468689e-02,7.660599052906036377e-02,-2.009471645578742027e-03,-1.678377948701381683e-02,2.279996722936630249e-01,-3.037762045860290527e-01,-3.848779797554016113e-01,-2.653791606426239014e-01,-5.989584140479564667e-03,-2.072344273328781128e-01,-1.906832754611968994e-01,5.441979318857192993e-02,7.210998982191085815e-02,-1.973596066236495972e-01,-1.964604705572128296e-01,1.310249865055084229e-01,-1.383173745125532150e-02,-2.844114787876605988e-02,-3.237459063529968262e-02,-9.094232320785522461e-02,1.021001935005187988e-01,-1.508330851793289185e-01,-1.487343460321426392e-01,-6.952059268951416016e-02,-6.440789997577667236e-02,-2.379040867090225220e-01,1.641177386045455933e-02,1.580261997878551483e-02,-5.593521520495414734e-02,4.372485913336277008e-03,2.738049067556858063e-02,-1.245356053113937378e-01,1.912060976028442383e-01,1.365924030542373657e-01,9.333811700344085693e-02,4.941451177000999451e-02,-7.770448178052902222e-02,2.187466621398925781e-02,1.939135491847991943e-01,-5.852675437927246094e-02,5.011748895049095154e-02,3.193097561597824097e-02,1.076796501874923706e-01,-2.727527357637882233e-02,-8.078880608081817627e-02,1.247382014989852905e-01,6.222288683056831360e-02,-9.724287688732147217e-02,-1.284022480249404907e-01,1.573278307914733887e-01,-2.794873416423797607e-01,1.623298823833465576e-01,2.494793087244033813e-01,1.577471047639846802e-01,1.531940698623657227e-01,7.235990464687347412e-02,-6.922675669193267822e-02,-4.329886659979820251e-02,4.220287501811981201e-01,-1.710545420646667480e-01,9.400005638599395752e-02,-2.145928889513015747e-02,2.344093322753906250e-01,-1.384279131889343262e-01,9.016016498208045959e-03,-1.297939270734786987e-01,4.631552100181579590e-02,3.889454156160354614e-02,-3.159739971160888672e-01,-7.400114089250564575e-02,-8.032029122114181519e-02,-9.460318833589553833e-02,3.033501803874969482e-01,2.296247631311416626e-01,9.986202418804168701e-02,-1.148341502994298935e-02,-2.150351554155349731e-01,3.200107812881469727e-01,1.017934083938598633e-01,-1.629551053047180176e-01,-8.151003718376159668e-02,5.951678752899169922e-02
9.772332012653350830e-02,2.483756840229034424e-02,-1.417562365531921387e-01,-1.793730109930038452e-01,3.376773744821548462e-02,1.996485225390642881e-04,-1.001240536570549011e-01,1.640624552965164185e-01,-4.033654630184173584e-01,1.777244918048381805e-02,1.243367558345198631e-03,-1.370152533054351807e-01,1.856651008129119873e-01,1.568676829338073730e-01,3.914888948202133179e-02,-4.481555148959159851e-02,8.261148631572723389e-02,1.787416040897369385e-01,7.131318747997283936e-02,-1.990092098712921143e-01,-9.565846621990203857e-02,-2.160142362117767334e-01,-1.929770559072494507e-01,1.579619348049163818e-01,1.638330519199371338e-02,-1.126450523734092712e-01,-9.367339313030242920e-02,3.345788642764091492e-02,-4.951290413737297058e-02,-1.890631169080734253e-01,-1.405775249004364014e-01,-6.868761032819747925e-02,-5.228478461503982544e-02,-1.977762393653392792e-02,-1.254874467849731445e-02,-9.115845314227044582e-04,1.399627048522233963e-02,1.051613464951515198e-01,-1.744391918182373047e-01,-1.935340315103530884e-01,1.534766703844070435e-01,-1.544962078332901001e-01,1.023731455206871033e-01,-3.678610175848007202e-02,3.768786415457725525e-02,2.153156548738479614e-01,2.324530482292175293e-02,-3.613921403884887695e-01,-1.115152761340141296e-01,-5.612303316593170166e-02,3.352969512343406677e-02,2.818898484110832214e-02,1.546804010868072510e-01,-6.215983629226684570e-02,1.219239607453346252e-01,4.824956133961677551e-02,1.010978519916534424e-01,1.898420751094818115e-01,-4.185686632990837097e-02,-2.212567813694477081e-02,-7.398891448974609375e-02,1.014171466231346130e-01,1.295572817325592041e-01,8.896583318710327148e-02,-2.052808552980422974e-02,-5.689991265535354614e-02,9.815377742052078247e-02,-1.557579338550567627e-01,6.764444708824157715e-02,-7.068917155265808105e-02,2.341648787260055542e-01,1.472536567598581314e-02,2.736779749393463135e-01,1.688822954893112183e-01,1.160829328000545502e-02,4.799487069249153137e-02,2.929491102695465088e-01,2.313514351844787598e-01,-7.503513246774673462e-02,-3.417247906327247620e-03,3.075293898582458496e-01,4.503582417964935303e-02,1.533782947808504105e-02,-7.289253175258636475e-02,1.385051459074020386e-01,7.899772375822067261e-02,7.653052359819412231e-02,2.275725156068801880e-01,-4.566008970141410828e-02,1.025900840759277344e-01,8.268588036298751831e-02,1.424663811922073364e-01,-1.244228482246398926e-01,3.972715139389038086e-02,-1.687869876623153687e-01,-2.298882231116294861e-02,-9.312847256660461426e-02,-1.617664694786071777e-01,8.907848596572875977e-02,4.898213222622871399e-02,-1.109347790479660034e-01,1.995175480842590332e-01,-1.415733695030212402e-01,-5.895609036087989807e-02,1.672729551792144775e-01,-1.643554717302322388e-01,-1.227002739906311035e-01,-1.451984792947769165e-01,9.939496964216232300e-02,3.147751465439796448e-02,-9.773448854684829712e-02,-1.350617036223411560e-02,-8.897729963064193726e-02,9.021592140197753906e-02,2.351775169372558594e-01,9.623389691114425659e-02,1.724531874060630798e-02,6.396432220935821533e-02,-9.901209920644760132e-02,-2.042334824800491333e-01
-2.619831860065460205e-01,-1.276147365570068359e-01,-4.866698291152715683e-03,1.301519572734832764e-01,-5.003166571259498596e-02,-2.264394015073776245e-01,8.155915886163711548e-02,-3.729018867015838623e-01,2.201858460903167725e-01,7.113549392670392990e-03,-1.683075278997421265e-01,1.151816844940185547e-01,4.659669101238250732e-02,-6.841410882771015167e-03,-1.051229760050773621e-01,-1.676175147294998169e-01,-3.761093020439147949e-01,-8.483550697565078735e-02,3.079350478947162628e-02,3.310978785157203674e-02,1.620054394006729126e-01,1.310852617025375366e-01,-1.573561578989028931e-01,-6.339282542467117310e-02,-2.612364888191223145e-01,-2.594884037971496582e-01,9.835608303546905518e-03,1.306132227182388306e-01,6.310227513313293457e-02,2.007351666688919067e-01,-2.037692964076995850e-01,-8.428984135389328003e-02,-4.298978298902511597e-02,-1.019845679402351379e-01,-5.783768370747566223e-03,-1.033991351723670959e-01,1.827764958143234253e-01,-1.373127698898315430e-01,-1.160637214779853821e-01,3.712676763534545898e-01,-7.099916692823171616e-03,-1.674743592739105225e-01,-4.094980657100677490e-02,2.977214939892292023e-02,-2.109532207250595093e-01,-8.118329197168350220e-02,7.116303592920303345e-02,-8.700339123606681824e-03,1.404476612806320190e-01,-1.182289421558380127e-02,8.920162916183471680e-02,-1.290477365255355835e-01,1.118168234825134277e-01,-5.121574550867080688e-02,-1.154378056526184082e-01,-1.110838353633880615e-01,2.081608027219772339e-01,-4.903145134449005127e-02,1.842039674520492554e-01,-4.329222440719604492e-01,1.678131073713302612e-01,5.803552921861410141e-03,5.525497719645500183e-02,4.736089706420898438e-02,-1.837250590324401855e-01,6.076146662235260010e-02,2.127195298671722412e-01,-1.858642697334289551e-01,-1.241177842020988464e-01,-1.477421373128890991e-01,-9.406976401805877686e-02,-5.785590037703514099e-03,1.475279778242111206e-01,2.228425741195678711e-01,9.372117370367050171e-02,1.752236634492874146e-01,-1.278616189956665039e-01,-1.707674115896224976e-01,-3.270192071795463562e-02,-1.036111041903495789e-01,-8.271362632513046265e-02,-5.787275731563568115e-03,-1.128612160682678223e-01,-1.174870505928993225e-01,-1.522993743419647217e-01,1.229803338646888733e-01,4.900895059108734131e-03,7.105120271444320679e-02,4.628098756074905396e-02,1.002764329314231873e-01,-1.558794640004634857e-02,3.613005625084042549e-03,2.351991385221481323e-01,-1.159794814884662628e-02,1.239142380654811859e-02,2.837557904422283173e-02,-2.389840632677078247e-01,4.408041760325431824e-02,-4.366276040673255920e-02,1.734396368265151978e-01,-2.964107990264892578e-01,4.680165648460388184e-02,2.979448996484279633e-02,8.643922954797744751e-02,-1.585194617509841919e-01,1.197813004255294800e-01,1.440284550189971924e-01,1.603383198380470276e-02,-2.763422206044197083e-02,-3.364172577857971191e-02,1.433723866939544678e-01,-2.020167112350463867e-01,-1.615889519453048706e-01,1.817791759967803955e-01,-1.851877383887767792e-02,-2.452137917280197144e-01,-7.369033992290496826e-02,1.264370977878570557e-01,8.587770909070968628e-02,1.163991093635559082e-01
-4.500147700309753418e-02,1.567735224962234497e-01,1.748945116996765137e-01,-1.522803455591201782e-01,-1.598905324935913086e-01,1.566352993249893188e-01,9.908520430326461792e-02,7.515301462262868881e-03,-1.479784399271011353e-01,-4.342627152800559998e-02,7.898368686437606812e-02,3.521416783332824707e-01,-2.535674870014190674e-01,-1.024948316626250744e-03,2.429722696542739868e-01,2.961012534797191620e-02,-4.254810139536857605e-02,-2.250645458698272705e-01,1.727803647518157959e-01,6.447245180606842041e-02,1.428029686212539673e-01,-1.866414248943328857e-01,1.525598298758268356e-02,-7.859966903924942017e-02,-1.043433472514152527e-01,-5.454623326659202576e-02,1.010665446519851685e-01,3.121806774288415909e-03,-1.038576066493988037e-01,1.792405266314744949e-03,1.680919677019119263e-01,1.534542143344879150e-01,2.328507155179977417e-01,1.029109284281730652e-01,9.390433877706527710e-02,1.214785352349281311e-01,1.265681684017181396e-01,1.092985123395919800e-01,1.586647778749465942e-01,-5.868513882160186768e-02,-7.503633201122283936e-02,7.854423671960830688e-02,-1.135272905230522156e-01,-1.374411769211292267e-02,2.668715715408325195e-01,-8.467606268823146820e-03,-6.448382139205932617e-02,1.161567866802215576e-01,2.927789464592933655e-03,-1.829507946968078613e-01,-7.042525708675384521e-02,1.395270228385925293e-01,9.038440138101577759e-02,-1.652019917964935303e-01,-1.312487125396728516e-01,8.067470043897628784e-02,2.151638828217983246e-02,-7.748688012361526489e-02,1.517662256956100464e-01,-5.739687941968441010e-03,1.664704084396362305e-01,-1.359231770038604736e-01,2.269846946001052856e-01,4.412525519728660583e-02,3.130908012390136719e-01,1.234647706151008606e-01,-3.266077041625976562e-01,1.346266865730285645e-01,1.618750393390655518e-01,1.694402247667312622e-01,1.177183985710144043e-01,-8.725900202989578247e-02,-1.707142889499664307e-01,-1.724522262811660767e-01,-2.421254217624664307e-01,3.083896357566118240e-03,2.385282516479492188e-02,2.075755223631858826e-02,1.210890933871269226e-01,2.969158627092838287e-02,-1.639411151409149170e-01,-2.407209714874625206e-03,8.255206048488616943e-02,-1.598419994115829468e-01,-2.660070061683654785e-01,-1.413602232933044434e-01,-4.639897122979164124e-02,1.137173026800155640e-01,-2.804419100284576416e-01,-1.325251311063766479e-01,-1.049436703324317932e-01,2.104993462562561035e-01,-6.413775682449340820e-02,1.567676365375518799e-01,5.538067221641540527e-02,-3.487606765702366829e-03,-1.095638126134872437e-01,3.265139758586883545e-01,-1.486265212297439575e-01,-2.955621182918548584e-01,2.361993640661239624e-01,-3.207685053348541260e-01,1.444432884454727173e-01,-1.008577868342399597e-01,-1.649361699819564819e-01,-4.953230172395706177e-02,-6.711428612470626831e-02,1.886461675167083740e-01,1.793163083493709564e-02,6.581775844097137451e-02,-2.121354341506958008e-01,-2.875769138336181641e-01,-1.223210394382476807e-01,-3.198587894439697266e-01,-2.888208329677581787e-01,2.481246739625930786e-01,-1.362383365631103516e-01,6.499645113945007324e-02,-1.522599458694458008e-01,2.942031621932983398e-01
1.149351820349693298e-01,1.461223363876342773e-01,-1.272762287408113480e-02,2.068223245441913605e-02,2.043097466230392456e-01,-8.638672530651092529e-02,-3.250611126422882080e-01,1.984669119119644165e-01,-1.372962892055511475e-01,-2.137671411037445068e-01,8.523014187812805176e-02,-4.117512330412864685e-02,-3.734365105628967285e-01,2.043252587318420410e-01,1.424253284931182861e-01,2.022408443735912442e-04,2.656756043434143066e-01,1.240210309624671936e-01,1.686207484453916550e-03,-1.679180413484573364e-01,-1.390463560819625854e-01,1.462642997503280640e-01,-1.735886037349700928e-01,-1.980547327548265457e-03,5.988539382815361023e-02,8.418114483356475830e-02,7.055915775708854198e-04,1.102160066366195679e-01,2.354426831007003784e-01,-5.644583702087402344e-02,8.990107476711273193e-02,-2.066153287887573242e-01,3.167632222175598145e-02,-3.264637291431427002e-02,3.073641061782836914e-01,1.960658729076385498e-01,-7.108141481876373291e-02,1.013465747237205505e-01,9.803510271012783051e-03,-3.451654016971588135e-01,-1.472049355506896973e-01,-1.989747732877731323e-01,1.580569744110107422e-01,-1.854096911847591400e-02,-1.719954051077365875e-02,1.931095570325851440e-01,9.864127635955810547e-02,-3.377292752265930176e-01,-1.282958239316940308e-01,1.671511679887771606e-01,-5.417165160179138184e-02,-6.016679853200912476e-02,1.093594506382942200e-01,8.334377408027648926e-02,-1.730995485559105873e-03,-1.569460332393646240e-01,8.440285921096801758e-02,6.687311828136444092e-02,-1.199737489223480225e-01,2.005520313978195190e-01,-4.883634671568870544e-02,1.236305609345436096e-01,-1.540890932083129883e-01,5.142596736550331116e-02,-1.247495040297508240e-02,-1.564726829528808594e-01,2.024988532066345215e-01,-9.529408812522888184e-02,5.586080253124237061e-02,1.300710439682006836e-01,1.263696402311325073e-01,1.395728290081024170e-01,1.151870265603065491e-01,6.782885640859603882e-02,-1.389271020889282227e-02,-2.371512949466705322e-01,-1.263275593519210815e-01,-3.201827704906463623e-01,1.048763915896415710e-01,2.229378819465637207e-01,1.448389422148466110e-02,-4.354555159807205200e-02,1.350691020488739014e-01,-4.513505846261978149e-04,5.180371552705764771e-02,1.401629596948623657e-01,-2.668511867523193359e-01,3.615909069776535034e-02,8.176364004611968994e-02,-4.780980944633483887e-02,-1.061279550194740295e-01,-2.135602533817291260e-01,-3.661462664604187012e-01,-6.797435879707336426e-02,-1.855518817901611328e-01,2.683851867914199829e-02,-2.149821221828460693e-01,-7.196196913719177246e-02,-5.802303552627563477e-02,1.157520860433578491e-01,7.195720821619033813e-02,6.669143587350845337e-02,-1.280047446489334106e-01,-2.006799727678298950e-01,-3.330531716346740723e-02,1.930102258920669556e-01,4.223374649882316589e-02,-3.889181464910507202e-02,-9.923488646745681763e-02,-3.546092659235000610e-02,1.867507100105285645e-01,8.737352490425109863e-02,-3.296493291854858398e-01,6.715205311775207520e-02,1.190174743533134460e-01,-2.412839382886886597e-01,1.150124967098236084e-01,-9.544412791728973389e-02,1.517484337091445923e-01,-6.864298135042190552e-03
3.194250762462615967e-01,2.110013514757156372e-01,-4.666990786790847778e-02,5.334779992699623108e-02,1.214844137430191040e-01,2.149489372968673706e-01,-1.306736171245574951e-01,2.409384995698928833e-01,9.034235030412673950e-02,-3.969714641571044922e-01,-3.180010535288602114e-04,1.039529740810394287e-01,-8.356253802776336670e-02,1.210064291954040527e-01,1.096069887280464172e-01,8.946853876113891602e-02,-2.350520901381969452e-02,7.418626546859741211e-02,-2.579482793807983398e-01,6.516860425472259521e-02,8.229780197143554688e-02,2.402469217777252197e-01,-2.180667519569396973e-01,-1.052058953791856766e-02,2.554828822612762451e-01,-5.931952595710754395e-02,2.261973172426223755e-02,1.229779273271560669e-01,8.237193524837493896e-02,-2.052359133958816528e-01,-8.292700350284576416e-02,-8.339939266443252563e-02,-5.145130213350057602e-03,1.830304116010665894e-01,4.561253264546394348e-02,-9.821012616157531738e-02,7.672167569398880005e-02,-5.404374375939369202e-02,-1.250142008066177368e-01,-7.736009359359741211e-02,-1.442494094371795654e-01,2.273202836513519287e-01,-1.657139211893081665e-01,1.864826679229736328e-01,4.448776841163635254e-01,9.989962726831436157e-02,1.003044620156288147e-01,2.091072499752044678e-01,1.659820079803466797e-01,8.520248532295227051e-02,-1.167391985654830933e-01,1.922448426485061646e-01,2.245361655950546265e-01,-2.943281531333923340e-01,-1.618704795837402344e-01,-1.380316615104675293e-01,-1.669929176568984985e-02,-1.176112219691276550e-01,1.887692064046859741e-01,-3.057550825178623199e-02,-2.988479658961296082e-02,1.593079268932342529e-01,-8.173982053995132446e-02,-5.794610083103179932e-02,3.099907636642456055e-01,1.259959638118743896e-01,1.319557242095470428e-02,-1.728915125131607056e-01,-3.889112770557403564e-01,-8.280050009489059448e-02,7.025196403264999390e-02,3.006123937666416168e-02,3.650207770988345146e-03,1.792494207620620728e-01,-2.234849147498607635e-02,6.458563357591629028e-02,1.820600479841232300e-01,-1.670980453491210938e-01,-1.015468686819076538e-01,-2.330620884895324707e-01,-3.694221749901771545e-02,-1.598201841115951538e-01,2.417486608028411865e-01,1.978041529655456543e-01,1.227939128875732422e-02,7.942381501197814941e-02,-6.691727787256240845e-03,7.188487052917480469e-02,-2.529205083847045898e-01,-2.267393767833709717e-01,-2.049539685249328613e-01,2.317511104047298431e-02,-2.126030772924423218e-01,-2.560212016105651855e-01,4.460316151380538940e-02,-1.574613153934478760e-01,-2.576192617416381836e-01,3.531400561332702637e-01,-9.132896363735198975e-02,5.230432376265525818e-02,-1.243898868560791016e-01,1.207156702876091003e-01,-1.189836934208869934e-01,-1.707234041532501578e-04,-1.653983443975448608e-01,-2.431084215641021729e-01,-1.585092544555664062e-01,-6.390314549207687378e-03,1.020674183964729309e-01,1.149546131491661072e-01,-1.664760708808898926e-02,4.866155236959457397e-02,3.415004312992095947e-01,6.284181028604507446e-02,-1.951080411672592163e-01,-1.532629728317260742e-01,-2.915975749492645264e-01,1.641159802675247192e-01,1.013936623930931091e-01,1.658916920423507690e-01
-6.663872301578521729e-02,-1.528135389089584351e-01,1.634791791439056396e-01,-1.784347593784332275e-01,-2.236396968364715576e-01,-1.132666915655136108e-01,2.119640260934829712e-01,2.933913096785545349e-02,2.455801516771316528e-02,7.074166089296340942e-02,-1.594955921173095703e-01,1.844253391027450562e-01,-1.037652492523193359e-01,1.908839792013168335e-01,1.601749956607818604e-01,-6.309898197650909424e-02,-6.965079903602600098e-02,-2.031100988388061523e-01,2.207155376672744751e-01,-1.170942187309265137e-01,-1.373471915721893311e-01,5.049819871783256531e-02,2.046672999858856201e-01,2.304378896951675415e-01,5.752141773700714111e-02,1.264214813709259033e-01,7.535507529973983765e-02,1.714932918548583984e-01,-4.489288479089736938e-02,8.006022125482559204e-02,1.328377574682235718e-01,-1.333836317062377930e-01,9.384009242057800293e-02,-1.433062553405761719e-01,7.434772700071334839e-02,1.508840024471282959e-01,-1.902070492506027222e-01,3.362740576267242432e-02,3.393360227346420288e-02,3.925195932388305664e-01,8.584607392549514771e-02,2.095440216362476349e-02,1.450681537389755249e-01,1.036214753985404968e-01,1.107237488031387329e-01,-1.463831663131713867e-01,7.283977419137954712e-02,1.682465374469757080e-01,7.657721638679504395e-02,-4.575794935226440430e-02,3.053640387952327728e-02,5.999323353171348572e-02,3.694860637187957764e-02,-4.979554563760757446e-02,1.673041433095932007e-01,-1.318539530038833618e-01,1.091686114668846130e-01,-9.587759524583816528e-02,8.639114350080490112e-02,-1.802174001932144165e-01,-2.551023662090301514e-01,-1.046424359083175659e-01,-1.511087864637374878e-01,3.728530555963516235e-02,-1.406889259815216064e-01,5.224295333027839661e-02,-7.508778572082519531e-02,3.000107826665043831e-03,-9.916842915117740631e-03,2.223387919366359711e-02,1.058478429913520813e-01,8.957889676094055176e-02,-2.507774531841278076e-01,-8.072162419557571411e-02,7.211208809167146683e-03,-4.176477342844009399e-02,-1.176467686891555786e-01,1.230308320373296738e-02,1.063907053321599960e-02,-7.462844252586364746e-02,-1.788991838693618774e-01,-8.144642412662506104e-02,4.415220022201538086e-02,6.669081747531890869e-02,-1.140900403261184692e-01,-1.681027561426162720e-01,-1.614966690540313721e-01,-7.618831843137741089e-02,-2.377252131700515747e-01,4.490236192941665649e-02,-6.865177303552627563e-02,-3.393251821398735046e-02,-9.327965229749679565e-02,-6.912489235401153564e-02,-1.969693899154663086e-01,6.037478893995285034e-02,-6.828974187374114990e-02,1.065920218825340271e-01,8.190958946943283081e-02,1.055696830153465271e-01,-3.529186546802520752e-01,-1.983312964439392090e-01,-3.536148369312286377e-01,-2.164771035313606262e-02,1.435484886169433594e-01,1.875932216644287109e-01,-8.102076500654220581e-02,9.181202203035354614e-02,1.343932896852493286e-01,-2.322795689105987549e-01,2.042272686958312988e-02,-2.358187735080718994e-01,-2.771600782871246338e-01,2.400308614596724510e-03,-7.893328368663787842e-02,6.846225261688232422e-02,9.895168244838714600e-02,7.337280362844467163e-02,-1.490296982228755951e-02,1.014060620218515396e-02
-5.628296639770269394e-03,-1.116055995225906372e-01,1.482632309198379517e-01,1.144688352942466736e-01,-1.582484841346740723e-01,-1.422540545463562012e-01,1.351116299629211426e-01,2.032200247049331665e-01,-1.740557402372360229e-01,6.721985992044210434e-03,1.352144926786422729e-01,1.817691028118133545e-01,-3.575678216293454170e-03,-2.739535570144653320e-01,3.250506222248077393e-01,4.848770797252655029e-02,1.245230212807655334e-01,-1.571217924356460571e-01,-2.288384549319744110e-02,-5.679967999458312988e-02,-1.366960406303405762e-01,-3.395300507545471191e-01,-1.255169212818145752e-01,-2.124623358249664307e-01,4.213926196098327637e-02,2.376694381237030029e-01,-3.831140324473381042e-02,-1.151132434606552124e-01,1.551450602710247040e-02,-9.466544538736343384e-02,2.409924380481243134e-02,1.138934344053268433e-01,-2.664454281330108643e-02,5.711063742637634277e-02,3.357269614934921265e-02,2.779326736927032471e-01,-1.082201823592185974e-01,-2.363208681344985962e-03,-1.900364905595779419e-01,-4.120013117790222168e-02,-1.393764317035675049e-01,-1.269033998250961304e-01,-2.869090251624584198e-02,-1.224670093506574631e-02,4.647105932235717773e-01,1.372855603694915771e-01,6.708618998527526855e-02,1.555343866348266602e-01,1.148433089256286621e-01,-1.281494051218032837e-01,-1.299075037240982056e-01,9.244516491889953613e-02,-1.059432104229927063e-01,-9.717602282762527466e-02,2.242289930582046509e-01,-1.705505102872848511e-01,-1.345220357179641724e-01,4.974563792347908020e-02,1.724055409431457520e-01,-9.828009456396102905e-02,1.282856762409210205e-01,1.536863893270492554e-01,3.488462418317794800e-02,2.268740907311439514e-02,1.725365966558456421e-01,-7.541292160749435425e-02,-1.956227421760559082e-01,9.992311894893646240e-02,-7.955316454172134399e-02,-5.842792242765426636e-02,-6.929796189069747925e-02,-5.988200660794973373e-03,1.676058471202850342e-01,1.166783049702644348e-01,8.199389278888702393e-02,2.603541016578674316e-01,3.219541311264038086e-01,2.831427752971649170e-01,1.346809323877096176e-02,2.175228111445903778e-02,1.416083425283432007e-01,9.281243383884429932e-02,9.228212386369705200e-02,1.018574088811874390e-01,8.399102091789245605e-02,-1.955468505620956421e-01,8.346005529165267944e-02,4.817777276039123535e-01,-5.942012183368206024e-03,1.005809605121612549e-01,-9.873624891042709351e-02,1.334322094917297363e-01,1.859123003669083118e-03,2.184220701456069946e-01,-3.843031451106071472e-02,2.699902057647705078e-01,-1.242192611098289490e-01,1.196610853075981140e-01,1.190359517931938171e-01,-2.998642027378082275e-01,-2.603298053145408630e-02,-1.971615999937057495e-01,-5.063325911760330200e-02,1.632294207811355591e-01,1.160094365477561951e-01,-4.412906616926193237e-02,-2.171651124954223633e-01,-1.386715322732925415e-01,1.920650154352188110e-01,1.151502057909965515e-01,-4.042826294898986816e-01,-2.175022959709167480e-01,6.520598381757736206e-02,1.010412126779556274e-01,4.430950805544853210e-02,4.054113104939460754e-02,-1.110876649618148804e-01,-1.039002090692520142e-02,-6.787967681884765625e-02,2.716396749019622803e-01
1.556292474269866943e-01,6.703700870275497437e-02,2.180377207696437836e-02,-1.914625912904739380e-01,6.189925596117973328e-02,2.810684740543365479e-01,6.292507052421569824e-02,9.453427046537399292e-02,1.157587990164756775e-01,-1.812944859266281128e-01,-1.030008271336555481e-01,-8.436635136604309082e-03,2.406800352036952972e-02,-6.896752119064331055e-02,5.804958753287792206e-03,1.554393321275711060e-01,1.458172500133514404e-01,2.019952237606048584e-01,9.258942306041717529e-02,-1.366106867790222168e-01,3.897178452461957932e-03,-1.225899010896682739e-01,-1.745837628841400146e-01,1.708730608224868774e-01,1.411234289407730103e-01,-1.007293611764907837e-01,5.018095299601554871e-02,-4.713818058371543884e-02,1.095935106277465820e-01,6.636763364076614380e-02,-8.075901865959167480e-02,2.226318791508674622e-02,1.870588064193725586e-01,1.897448748350143433e-01,-5.720867961645126343e-02,6.989676505327224731e-02,-1.743707805871963501e-01,-1.940792649984359741e-01,6.489171087741851807e-02,-3.296297788619995117e-01,1.313839703798294067e-01,4.310650750994682312e-03,-1.596584767103195190e-01,1.295753270387649536e-01,2.085944563150405884e-01,5.935235694050788879e-02,-4.002775624394416809e-02,-6.673720479011535645e-02,1.385259181261062622e-01,1.196265295147895813e-01,-7.320240139961242676e-02,8.865731768310070038e-03,-6.811910122632980347e-02,-2.117480337619781494e-01,-6.967497617006301880e-02,1.159306988120079041e-01,2.279096245765686035e-01,1.274439096450805664e-01,-5.257811397314071655e-02,-1.143293082714080811e-01,-2.076577991247177124e-01,1.376920342445373535e-01,-8.749493956565856934e-02,3.821976482868194580e-02,2.540982067584991455e-01,3.247833624482154846e-02,-1.641590963117778301e-03,-9.896440058946609497e-02,1.618166565895080566e-01,-4.410132393240928650e-02,9.186558425426483154e-02,6.446492671966552734e-02,-1.372411847114562988e-01,-2.940471172332763672e-01,-8.205568790435791016e-02,1.556634008884429932e-01,7.398875057697296143e-02,1.875051707029342651e-01,6.572832353413105011e-03,-2.536906003952026367e-01,5.396306514739990234e-02,1.217685788869857788e-01,-2.540308795869350433e-02,-1.688466966152191162e-01,6.424470245838165283e-02,6.057142745703458786e-03,1.918530277907848358e-02,-1.505833864212036133e-01,-2.521890699863433838e-01,4.145804792642593384e-03,-6.860653311014175415e-02,1.981593854725360870e-02,-2.415830045938491821e-01,1.643302440643310547e-01,-1.068056896328926086e-01,7.937189936637878418e-02,-1.522057503461837769e-01,1.686945408582687378e-01,5.608366057276725769e-02,2.246690355241298676e-02,-2.958556711673736572e-01,2.282185405492782593e-01,8.859608322381973267e-03,-1.345248371362686157e-01,-1.807726547122001648e-02,1.046620868146419525e-02,1.409976631402969360e-01,-2.618275284767150879e-01,2.186982706189155579e-02,4.154213145375251770e-02,-1.719876676797866821e-01,1.183325499296188354e-01,9.736109524965286255e-02,1.284571141004562378e-01,2.253586053848266602e-02,-1.832693070173263550e-01,-2.547021210193634033e-01,4.747564345598220825e-02,2.985787019133567810e-02,7.858920842409133911e-02
3.976381197571754456e-02,-6.031212955713272095e-02,-1.868537068367004395e-01,-1.780944168567657471e-01,-6.744443625211715698e-02,-1.201074849814176559e-02,1.452719420194625854e-01,-3.377631604671478271e-01,-2.741650044918060303e-01,7.324387133121490479e-02,1.663499176502227783e-01,-1.681398451328277588e-01,5.688283964991569519e-02,-6.378428637981414795e-02,6.539928913116455078e-02,2.620259225368499756e-01,-1.934623420238494873e-01,-2.445457279682159424e-01,1.551593095064163208e-01,1.612010896205902100e-01,1.330191940069198608e-01,-2.843333482742309570e-01,1.343054026365280151e-01,-1.173259168863296509e-01,-1.546264719218015671e-02,-1.079907193779945374e-01,5.460163578391075134e-02,-1.580196321010589600e-01,2.533658221364021301e-02,-2.741034841164946556e-03,1.740253567695617676e-01,-8.004017174243927002e-02,1.419019997119903564e-01,-6.974737346172332764e-02,-6.570904050022363663e-03,1.282940208911895752e-01,1.348926965147256851e-02,1.431939303874969482e-01,-4.956982284784317017e-02,-7.444672286510467529e-02,-6.238472089171409607e-02,-8.623178303241729736e-02,9.653260558843612671e-02,4.051791876554489136e-02,2.837906181812286377e-01,-1.389112025499343872e-01,-7.596858777105808258e-03,-8.505447953939437866e-02,-3.722276166081428528e-02,8.778168261051177979e-02,-2.966271340847015381e-01,-1.982790082693099976e-01,-1.570962071418762207e-01,-1.444329321384429932e-01,1.495531648397445679e-01,1.272844225168228149e-01,-1.003375500440597534e-01,-2.843522466719150543e-02,-1.899955421686172485e-01,1.546794176101684570e-01,-2.479842752218246460e-01,1.221098676323890686e-01,-1.661975383758544922e-01,-1.303072571754455566e-01,-7.512398064136505127e-02,-2.799185812473297119e-01,2.113304436206817627e-01,1.463875323534011841e-01,9.079416841268539429e-02,-2.061063237488269806e-02,-1.580285094678401947e-02,-3.427305957302451134e-03,2.981346249580383301e-01,-8.475897461175918579e-02,3.077433444559574127e-02,-8.004252612590789795e-02,-8.378198742866516113e-02,-1.798837259411811829e-02,-5.999376252293586731e-02,1.359032988548278809e-01,-1.917270272970199585e-01,7.252247631549835205e-02,-2.275328338146209717e-01,3.650299832224845886e-02,1.869252771139144897e-01,-1.339584738016128540e-01,1.347397565841674805e-01,6.784889101982116699e-02,1.817711889743804932e-01,1.071096956729888916e-01,3.703762218356132507e-02,6.154292821884155273e-02,-3.230831325054168701e-01,1.185202300548553467e-01,1.634381860494613647e-01,4.356678575277328491e-02,2.662023305892944336e-01,-9.369651228189468384e-02,7.062897086143493652e-03,-9.914786368608474731e-02,3.707155883312225342e-01,9.262603707611560822e-04,-5.346066504716873169e-02,-1.146494448184967041e-01,4.921521060168743134e-03,-5.833075847476720810e-03,-1.479483097791671753e-01,-7.297196239233016968e-02,-3.734554722905158997e-02,-4.515011794865131378e-03,-2.519097179174423218e-02,1.785245388746261597e-01,-1.539376229047775269e-01,-5.046647414565086365e-02,5.265086516737937927e-02,-1.334464848041534424e-01,-1.756770536303520203e-02,1.627093926072120667e-02,-8.010707050561904907e-02,-7.583230733871459961e-02
-2.103423513472080231e-02,-4.365145787596702576e-02,-3.315633535385131836e-02,-1.006280928850173950e-01,1.196080744266510010e-01,-3.756413161754608154e-01,-1.235434934496879578e-01,-3.140445351600646973e-01,-1.316667944192886353e-01,2.333598770201206207e-02,8.443384617567062378e-02,-2.186137251555919647e-02,1.308329552412033081e-01,2.303204387426376343e-01,-9.207457304000854492e-02,-2.514911592006683350e-01,1.896923035383224487e-01,5.940179526805877686e-02,6.751134246587753296e-02,-1.516638249158859253e-01,9.497798234224319458e-02,1.738966554403305054e-01,-2.490122243762016296e-02,1.688426136970520020e-01,1.408216953277587891e-01,-9.207582473754882812e-02,2.900041639804840088e-03,-4.113547876477241516e-02,1.358943581581115723e-01,-1.300624106079339981e-02,-6.420587003231048584e-02,7.691670674830675125e-03,-2.649947814643383026e-02,6.992466747760772705e-02,-1.329233199357986450e-01,-6.565392762422561646e-02,-1.031073555350303650e-01,2.879064083099365234e-01,-2.146121859550476074e-02,-6.276736501604318619e-03,-9.440125897526741028e-03,-2.630153894424438477e-01,2.988700866699218750e-01,2.299700118601322174e-02,-1.508139520883560181e-01,1.215997859835624695e-01,1.186710968613624573e-01,4.010809957981109619e-02,4.029522184282541275e-03,6.811392307281494141e-02,-4.567070305347442627e-02,-1.745862513780593872e-01,1.981912106275558472e-01,1.588673293590545654e-01,1.603480130434036255e-01,-2.153775654733181000e-03,1.591262966394424438e-01,-6.735505908727645874e-02,-1.851854100823402405e-02,-9.657036513090133667e-02,1.453952789306640625e-01,-3.734186291694641113e-02,1.628171056509017944e-01,1.874333024024963379e-01,-2.280193567276000977e-01,1.953101605176925659e-01,9.103947877883911133e-02,1.226380765438079834e-01,1.211855560541152954e-01,-2.169103175401687622e-01,1.116665229201316833e-01,6.130477786064147949e-02,4.695397987961769104e-02,2.429869621992111206e-01,1.050650477409362793e-01,-2.434455752372741699e-01,-2.623363733291625977e-01,-9.228218346834182739e-02,-1.854710876941680908e-01,7.567450404167175293e-02,2.695641815662384033e-01,-4.551732563413679600e-04,-7.247940450906753540e-02,3.224845509976148605e-03,1.598676592111587524e-01,8.924613147974014282e-02,-4.925644025206565857e-02,-1.889226585626602173e-01,3.197999596595764160e-01,1.275052130222320557e-01,-1.689480692148208618e-01,-6.970893591642379761e-02,-7.344367355108261108e-02,-8.156421780586242676e-02,-2.785485982894897461e-01,3.049898147583007812e-02,4.003791883587837219e-02,5.009754374623298645e-02,1.022938117384910583e-01,1.037211120128631592e-01,-1.188801974058151245e-01,-4.207162186503410339e-03,-2.567521631717681885e-01,4.270676150918006897e-02,1.157814916223287582e-02,6.198080256581306458e-02,-1.681875996291637421e-02,2.531413137912750244e-01,-4.332765191793441772e-02,1.940090954303741455e-01,3.367128223180770874e-02,-1.400755494832992554e-01,3.307964652776718140e-03,-1.039365157485008240e-01,2.884167432785034180e-01,4.651312902569770813e-02,1.430830806493759155e-01,2.689012140035629272e-02,-4.006747156381607056e-02,-2.127914130687713623e-01
-2.237153202295303345e-01,5.860107392072677612e-02,-4.447085782885551453e-02,-1.315792948007583618e-01,1.578525900840759277e-01,1.022905409336090088e-01,1.199438273906707764e-01,-1.678787022829055786e-01,-1.821332611143589020e-02,-2.339318767189979553e-02,-9.547586552798748016e-03,-5.621130391955375671e-02,1.002236679196357727e-01,5.628605186939239502e-02,-6.162142753601074219e-02,-7.670110464096069336e-02,9.800358861684799194e-02,2.142651937901973724e-02,9.428780525922775269e-03,-8.632777631282806396e-02,2.906004339456558228e-02,-9.961264580488204956e-02,-4.095319285988807678e-02,7.259346544742584229e-02,1.395456343889236450e-01,6.354058627039194107e-03,1.809695363044738770e-01,-9.303323924541473389e-02,-1.674287952482700348e-02,1.732686907052993774e-02,-1.301011443138122559e-01,2.261408045887947083e-02,-1.127532795071601868e-01,-2.183110080659389496e-02,1.238985508680343628e-01,-2.586801052093505859e-01,3.400236368179321289e-02,-8.662910014390945435e-02,-1.542608439922332764e-01,1.612628102302551270e-01,7.405667752027511597e-02,-9.217935055494308472e-02,2.765256352722644806e-02,5.449485406279563904e-02,1.926858723163604736e-01,1.633813679218292236e-01,-1.286367774009704590e-01,1.487023532390594482e-01,6.484516430646181107e-03,-5.480340868234634399e-02,5.229577049612998962e-02,-3.328825831413269043e-01,1.233488917350769043e-01,1.164715513586997986e-01,8.402172476053237915e-02,1.470791995525360107e-01,-1.067097634077072144e-01,-7.298624515533447266e-02,-3.521886095404624939e-02,4.044907167553901672e-02,-4.874758049845695496e-02,-5.617531388998031616e-02,-5.682545527815818787e-02,1.206676848232746124e-02,-2.599611878395080566e-01,2.132817357778549194e-01,5.539234355092048645e-02,6.622410565614700317e-02,2.030989676713943481e-01,-6.577551364898681641e-02,-6.018923223018646240e-02,-1.584288924932479858e-01,1.801398843526840210e-01,1.804919093847274780e-01,4.703195299953222275e-03,2.146862447261810303e-01,9.648783132433891296e-03,-8.948266040533781052e-04,-6.137222051620483398e-02,-5.899001657962799072e-02,-2.113328278064727783e-01,1.813967227935791016e-01,8.644024282693862915e-02,-5.304036289453506470e-02,2.826905548572540283e-01,2.008115202188491821e-01,1.422786265611648560e-01,1.205261126160621643e-01,6.816023588180541992e-02,2.121641784906387329e-01,-8.665549010038375854e-02,-7.239410281181335449e-02,-1.020362693816423416e-02,-2.267476543784141541e-02,1.314325779676437378e-01,3.186115622520446777e-01,-5.651833862066268921e-02,6.136713549494743347e-02,1.388861387968063354e-01,-1.309440657496452332e-02,4.776191711425781250e-01,5.015364289283752441e-02,3.442732989788055420e-01,3.259056434035301208e-02,-1.387229710817337036e-01,-1.882946863770484924e-02,6.252833455801010132e-02,1.838606782257556915e-02,-6.452241539955139160e-02,1.707558482885360718e-01,1.200022995471954346e-01,1.010797917842864990e-01,-8.829915523529052734e-02,-7.864021509885787964e-02,1.661854423582553864e-02,-2.232661545276641846e-01,2.884384393692016602e-01,1.024040859192609787e-02,-4.533290490508079529e-02,1.944749653339385986e-01
-1.048030927777290344e-01,1.083372533321380615e-01,1.449052095413208008e-01,1.425346173346042633e-02,6.661869585514068604e-02,1.364914625883102417e-01,-1.441914588212966919e-01,-1.560991108417510986e-01,1.179752722382545471e-01,-2.075519561767578125e-01,-1.849253475666046143e-02,-1.467634886503219604e-01,-6.430843472480773926e-02,-1.567243337631225586e-01,-4.005473554134368896e-01,1.763504743576049805e-01,1.566802263259887695e-01,9.554991126060485840e-02,4.057713598012924194e-02,-1.161420643329620361e-01,-1.138626858592033386e-01,4.678019881248474121e-02,-1.614704281091690063e-01,-1.268107742071151733e-01,3.127237409353256226e-02,2.186849862337112427e-01,1.318487673997879028e-01,-1.746306121349334717e-01,9.370958060026168823e-02,-1.303934156894683838e-01,-1.820442974567413330e-01,-1.959346383810043335e-01,-8.986384607851505280e-03,-9.371729195117950439e-02,-3.057349324226379395e-01,6.423856317996978760e-02,8.525312691926956177e-02,2.163258641958236694e-01,1.351551711559295654e-01,7.111804187297821045e-02,-7.179626077413558960e-02,2.591653466224670410e-01,3.779618069529533386e-02,4.583477601408958435e-02,-3.948230445384979248e-01,1.101372018456459045e-01,-8.737277239561080933e-02,-1.608280837535858154e-02,-3.016117960214614868e-03,-3.957024589180946350e-02,2.013701051473617554e-01,1.441983133554458618e-01,1.946440786123275757e-01,1.444985866546630859e-01,-9.633638709783554077e-02,7.372680585831403732e-03,-1.494039744138717651e-01,1.169432848691940308e-01,-1.774178445339202881e-01,4.353336989879608154e-03,1.864400058984756470e-01,-8.092727512121200562e-02,1.139223352074623108e-01,-1.754619032144546509e-01,5.398350581526756287e-02,4.813550785183906555e-02,-2.055477909743785858e-02,-3.273994103074073792e-02,-3.153173625469207764e-01,-3.643896803259849548e-02,2.350820004940032959e-01,1.648861616849899292e-01,3.788529336452484131e-02,1.559477150440216064e-01,-2.121648006141185760e-02,-1.128052771091461182e-01,1.301742792129516602e-01,1.507658064365386963e-01,-3.700100779533386230e-01,-1.515367776155471802e-01,-8.001530915498733521e-02,-2.263972163200378418e-01,-3.665468096733093262e-02,8.793233335018157959e-02,2.169658988714218140e-01,1.633933335542678833e-01,1.029539033770561218e-01,8.142400532960891724e-02,1.535685360431671143e-01,1.252787187695503235e-02,-9.330923110246658325e-02,6.212500389665365219e-03,-5.631060898303985596e-02,2.763034217059612274e-02,6.473071873188018799e-03,-2.521859407424926758e-01,-1.165289357304573059e-01,8.698499947786331177e-02,-5.702904239296913147e-02,2.880208790302276611e-01,9.833149611949920654e-02,1.062626242637634277e-01,7.676147855818271637e-03,1.243309453129768372e-01,1.569910645484924316e-01,-2.703160643577575684e-01,-3.319547697901725769e-02,-1.661131978034973145e-01,-7.447593659162521362e-02,5.574458092451095581e-02,5.860000476241111755e-02,-2.159797586500644684e-02,2.407847791910171509e-01,1.270186901092529297e-01,-1.402269154787063599e-01,2.692726254463195801e-01,7.352361083030700684e-02,1.652126014232635498e-01,3.717471361160278320e-01,3.369355574250221252e-02
-1.039507836103439331e-01,-1.687147915363311768e-01,1.812398880720138550e-01,4.623175784945487976e-02,1.446258723735809326e-01,-1.240207627415657043e-01,7.685511559247970581e-02,-8.376443386077880859e-02,-1.490327119827270508e-01,3.471119999885559082e-01,1.670404225587844849e-01,-1.330553591251373291e-01,3.679969906806945801e-02,2.804827876389026642e-02,-1.764126420021057129e-01,-1.434845924377441406e-01,-2.414257228374481201e-01,-2.011909335851669312e-01,-6.886964291334152222e-02,1.489846408367156982e-01,9.980098344385623932e-03,1.865592598915100098e-01,2.379750460386276245e-01,-9.154280275106430054e-02,-2.579779028892517090e-01,-2.526684701442718506e-01,-2.243287861347198486e-01,-8.996097743511199951e-02,1.919698119163513184e-01,3.214425444602966309e-01,8.255307376384735107e-02,-3.281053900718688965e-02,3.531584143638610840e-02,1.311089843511581421e-01,8.313785493373870850e-02,3.350600302219390869e-01,-1.036463528871536255e-01,-4.517924506217241287e-03,-9.585228562355041504e-02,-4.240273311734199524e-02,-1.542338430881500244e-01,9.202523529529571533e-02,-7.768258452415466309e-02,-1.869450658559799194e-01,-3.261834979057312012e-01,-1.189698874950408936e-01,-4.355754703283309937e-02,-1.829081624746322632e-01,1.527999900281429291e-02,1.703077182173728943e-02,-9.231387078762054443e-02,-7.301089912652969360e-02,-2.724198102951049805e-01,-4.902399703860282898e-02,-2.525069750845432281e-02,1.462059617042541504e-01,-2.941769175231456757e-02,6.300877034664154053e-02,4.426385741680860519e-03,-5.224419757723808289e-02,4.840745404362678528e-02,-1.214906722307205200e-01,6.076535210013389587e-02,-6.651289761066436768e-02,1.672171428799629211e-02,7.821268588304519653e-02,1.119335182011127472e-02,-3.006000071763992310e-02,-6.524664163589477539e-02,2.443519681692123413e-01,2.424251586198806763e-01,1.434771418571472168e-01,-1.314417924731969833e-02,2.756868898868560791e-01,1.037570461630821228e-01,1.427781283855438232e-01,1.626549810171127319e-01,-1.947048902511596680e-01,-7.650504261255264282e-02,3.039264380931854248e-01,1.185576468706130981e-01,2.423504926264286041e-02,1.332214176654815674e-01,2.124130874872207642e-01,-5.407027155160903931e-02,-7.566175609827041626e-02,-1.433758735656738281e-01,-5.973689630627632141e-02,-2.587092518806457520e-01,2.255513370037078857e-01,1.667914092540740967e-01,-2.743236720561981201e-01,-1.149575635790824890e-01,-6.262808293104171753e-02,1.073373481631278992e-01,-1.071389764547348022e-01,-9.212720394134521484e-02,-2.352280169725418091e-01,-6.896886229515075684e-02,7.676351070404052734e-02,-1.902483552694320679e-01,-1.381478458642959595e-02,3.174083074554800987e-03,-1.473554670810699463e-01,6.427083164453506470e-02,7.276795059442520142e-02,-9.759765863418579102e-02,-2.251658290624618530e-01,1.993338316679000854e-01,-3.299802914261817932e-02,1.733292043209075928e-01,-1.252259761095046997e-01,3.580355271697044373e-02,2.269029766321182251e-01,6.953132897615432739e-02,-1.094957292079925537e-01,8.235946297645568848e-02,1.214215606451034546e-01,-2.741993665695190430e-01,-1.563471369445323944e-02
-5.733200814574956894e-03,2.907514199614524841e-02,6.126018613576889038e-02,3.145002992823719978e-03,1.530974805355072021e-01,-2.865664660930633545e-02,2.039543241262435913e-01,-1.320464462041854858e-01,-1.668413281440734863e-01,1.253292560577392578e-01,-2.994456142187118530e-02,8.937202394008636475e-02,-9.850925207138061523e-02,-1.857613325119018555e-01,1.522726379334926605e-02,-2.470142953097820282e-02,-4.978134930133819580e-01,-3.669325709342956543e-01,1.460652798414230347e-01,-4.570635780692100525e-02,6.037025153636932373e-02,-1.000414937734603882e-01,2.029449641704559326e-01,-2.543747425079345703e-01,-3.791149556636810303e-01,-1.288796365261077881e-01,8.107686415314674377e-03,6.168515607714653015e-02,1.229074448347091675e-01,1.647631227970123291e-01,-8.439695835113525391e-02,9.026931971311569214e-02,-1.957455277442932129e-01,1.468788236379623413e-01,1.673249900341033936e-01,5.309028923511505127e-02,-1.452502012252807617e-01,3.307324275374412537e-02,2.213461548089981079e-01,-7.127302139997482300e-02,-1.257768366485834122e-02,1.618128851987421513e-03,-1.771677136421203613e-01,-2.910818457603454590e-01,-2.426179684698581696e-02,3.040498588234186172e-03,-4.936479777097702026e-02,-4.597916733473539352e-03,1.378598362207412720e-01,7.370490580797195435e-02,1.114172860980033875e-01,-9.734847396612167358e-02,-7.946766912937164307e-02,1.966730952262878418e-01,2.068997174501419067e-01,1.347510367631912231e-01,-2.001683861017227173e-01,1.952745020389556885e-01,1.413567811250686646e-01,-1.850266382098197937e-02,1.153315380215644836e-01,-9.466397017240524292e-02,2.341337800025939941e-01,1.151955872774124146e-02,-2.208074480295181274e-01,-2.015646733343601227e-02,1.970724910497665405e-01,-1.381472591310739517e-02,2.738026082515716553e-01,8.817072957754135132e-02,-1.372969942167401314e-03,7.592079229652881622e-03,-1.584168225526809692e-01,-2.019743472337722778e-01,-2.119957804679870605e-01,8.848539739847183228e-02,-1.736759841442108154e-01,-2.606419613584876060e-03,3.649079054594039917e-02,3.122582137584686279e-01,-1.891772150993347168e-01,-1.857141852378845215e-01,5.939566716551780701e-02,2.510724067687988281e-01,-3.060228824615478516e-01,1.427713781595230103e-01,7.817108929157257080e-02,-9.049994498491287231e-02,2.286827415227890015e-01,-1.105318069458007812e-01,8.532222360372543335e-02,9.230295568704605103e-02,8.496353030204772949e-02,4.745747521519660950e-02,4.174011293798685074e-03,-1.552890799939632416e-02,5.844852328300476074e-02,-4.439604580402374268e-01,1.252291947603225708e-01,-2.871632277965545654e-01,3.461945950984954834e-01,7.924862951040267944e-02,1.515533681958913803e-02,-6.434578448534011841e-02,1.338906120508909225e-03,2.602026164531707764e-01,-8.894228190183639526e-02,-2.386413663625717163e-01,5.104251950979232788e-02,8.386351168155670166e-02,7.432278990745544434e-02,5.564283952116966248e-02,-3.150172531604766846e-01,2.153564542531967163e-01,1.736912578344345093e-01,-5.511173605918884277e-02,1.754027009010314941e-01,3.725105896592140198e-02,-1.604303419589996338e-01,1.565608829259872437e-01
-1.907444596290588379e-01,-9.027807414531707764e-02,1.240367367863655090e-01,7.688528299331665039e-02,1.604716852307319641e-02,-2.683606557548046112e-02,2.545342445373535156e-01,-8.548266440629959106e-02,1.551069915294647217e-01,2.472589761018753052e-01,-1.589485704898834229e-01,-3.079512529075145721e-02,8.959971368312835693e-02,-6.014801934361457825e-02,2.179898554459214211e-03,1.334174070507287979e-02,-5.427401065826416016e-01,5.160116404294967651e-02,3.026410341262817383e-01,5.808647349476814270e-02,2.443957142531871796e-02,4.795548319816589355e-02,2.062638401985168457e-01,2.138388305902481079e-01,-9.754932671785354614e-02,-2.006150633096694946e-01,8.022142946720123291e-02,-4.133925214409828186e-02,3.383651375770568848e-02,-1.342942565679550171e-02,9.283959120512008667e-02,-1.031468808650970459e-01,-4.523897543549537659e-02,2.097530514001846313e-01,6.207039952278137207e-02,-5.660872906446456909e-02,5.065581575036048889e-02,-2.190810739994049072e-01,2.276683747768402100e-01,1.206324398517608643e-01,-5.831311643123626709e-02,6.225975602865219116e-02,1.749240979552268982e-02,2.413340844213962555e-02,2.270353287458419800e-01,-3.481677174568176270e-01,1.242300420999526978e-01,1.039587706327438354e-01,-5.527092609554529190e-03,-1.490213274955749512e-01,1.208489313721656799e-01,-2.881514132022857666e-01,2.771500684320926666e-02,-7.635017484426498413e-02,2.188022732734680176e-01,2.881692908704280853e-02,2.013167142868041992e-01,-3.874115645885467529e-02,2.471257001161575317e-01,-4.371253550052642822e-01,-1.248830929398536682e-01,-1.591277569532394409e-01,-4.844810441136360168e-02,-9.275047481060028076e-02,-3.687300682067871094e-01,-4.791682213544845581e-02,-9.646084159612655640e-02,-9.592182934284210205e-02,1.485192328691482544e-01,-4.044665955007076263e-03,-3.708785176277160645e-01,-1.116801574826240540e-01,-2.410452961921691895e-01,-1.118685975670814514e-01,-1.898396909236907959e-01,5.993024259805679321e-02,-3.020294010639190674e-01,7.425647974014282227e-02,3.617374598979949951e-02,9.212174266576766968e-02,-2.858009040355682373e-01,1.493761874735355377e-02,-3.745459020137786865e-02,-5.657219514250755310e-02,-2.164220213890075684e-01,-5.135311186313629150e-02,1.494753360748291016e-02,1.634545922279357910e-01,-7.178231328725814819e-02,2.422656118869781494e-01,2.248327247798442841e-02,-1.554871648550033569e-01,1.934343576431274414e-01,9.590658545494079590e-02,2.850563265383243561e-03,-6.536997109651565552e-02,1.026285141706466675e-01,1.660956740379333496e-01,9.541888535022735596e-02,8.904083818197250366e-02,2.968962490558624268e-01,-1.851337216794490814e-02,2.890185713768005371e-01,-9.349665045738220215e-02,1.520852893590927124e-01,-1.489514112472534180e-01,-1.953979432582855225e-01,7.547567784786224365e-02,1.524225026369094849e-01,1.583285331726074219e-01,-1.221642941236495972e-01,-6.145430728793144226e-03,9.848735481500625610e-02,3.593008965253829956e-02,-7.215460389852523804e-02,-1.516536623239517212e-01,3.265065252780914307e-01,2.981773391366004944e-02,-4.649697616696357727e-02,9.979414939880371094e-02
-3.249889016151428223e-01,1.300366967916488647e-01,7.745951414108276367e-02,-5.954083055257797241e-02,2.099898904561996460e-01,-3.329756557941436768e-01,1.126526668667793274e-01,-1.133530586957931519e-01,-5.052440240979194641e-02,-2.288459986448287964e-02,2.400423772633075714e-02,-1.024214830249547958e-02,-4.817139357328414917e-02,-9.542011469602584839e-02,-7.289505004882812500e-02,-2.036037892103195190e-01,-1.393957138061523438e-01,-2.811588905751705170e-02,2.105083912611007690e-01,2.552470266819000244e-01,-1.331641152501106262e-02,-1.152284517884254456e-01,1.179040074348449707e-01,-5.291629210114479065e-02,-5.342859774827957153e-02,-1.489479839801788330e-01,7.743230462074279785e-02,-1.292340457439422607e-02,1.798164993524551392e-01,1.804665625095367432e-01,1.902775317430496216e-01,-1.343622244894504547e-02,-1.553572341799736023e-02,-1.545236818492412567e-02,8.167370408773422241e-02,-4.169355146586894989e-03,3.157182410359382629e-02,1.099984943866729736e-01,6.673835963010787964e-02,-1.526432018727064133e-02,-6.591905653476715088e-02,4.418956523295491934e-04,-9.840816259384155273e-02,-2.171660773456096649e-02,3.314977288246154785e-01,2.299802005290985107e-01,4.202201962471008301e-02,2.214192003011703491e-01,9.870661795139312744e-02,9.003012627363204956e-02,8.881898224353790283e-02,-2.284424155950546265e-01,1.276803314685821533e-01,6.729614734649658203e-02,-1.860334128141403198e-01,-7.763399183750152588e-02,2.241584360599517822e-01,-5.300963297486305237e-02,1.293689459562301636e-01,-1.544367223978042603e-01,6.259106844663619995e-02,-1.847938299179077148e-01,-5.129541456699371338e-02,-1.924796029925346375e-02,2.128322608768939972e-02,1.439645737409591675e-01,2.366440556943416595e-02,-1.104631349444389343e-01,2.353198826313018799e-01,2.701745927333831787e-01,-2.120329141616821289e-01,1.279644966125488281e-01,-2.424487657845020294e-02,1.296853870153427124e-01,2.644421458244323730e-01,1.423253715038299561e-01,-2.550521194934844971e-01,-6.086444854736328125e-02,2.077827155590057373e-01,3.625459671020507812e-01,2.391794919967651367e-01,-2.468800842761993408e-01,1.770173758268356323e-02,9.745591878890991211e-02,9.152977168560028076e-02,1.477023661136627197e-01,-1.724466234445571899e-01,-2.526724040508270264e-01,-7.366269826889038086e-03,1.564473658800125122e-01,-9.103024750947952271e-02,-5.590291321277618408e-02,3.177388384938240051e-02,1.419907063245773315e-01,7.142461091279983521e-02,3.457738831639289856e-02,2.220780253410339355e-01,-1.236344352364540100e-01,1.328948438167572021e-01,-5.038201063871383667e-02,-1.692340150475502014e-02,-4.500875994563102722e-02,9.443831443786621094e-02,2.499867603182792664e-02,-3.027939051389694214e-02,1.972416341304779053e-01,-2.620889432728290558e-02,3.150977790355682373e-01,-1.428828388452529907e-02,-7.859436422586441040e-02,-1.753378063440322876e-01,-1.732088774442672729e-01,-1.381451487541198730e-01,-1.154632419347763062e-01,-1.555574536323547363e-01,-4.231289029121398926e-01,5.714605748653411865e-02,1.616565883159637451e-02,-8.475907146930694580e-02,1.348584741353988647e-01
3.177684843540191650e-01,2.022407650947570801e-01,1.850205846130847931e-02,1.354111284017562866e-01,-2.579430304467678070e-02,3.749280571937561035e-01,5.609576124697923660e-03,-5.938387289643287659e-02,1.896035224199295044e-01,-1.023582294583320618e-01,1.609358787536621094e-01,2.668488919734954834e-01,1.788028031587600708e-01,2.852004580199718475e-02,6.326074898242950439e-02,2.211030721664428711e-01,8.782098442316055298e-02,1.012897267937660217e-01,2.639102935791015625e-01,1.634541712701320648e-02,-2.264891862869262695e-01,-7.446071505546569824e-02,-1.042944043874740601e-01,1.425149571150541306e-02,1.646184921264648438e-01,7.389293983578681946e-03,1.451727002859115601e-02,4.668482393026351929e-02,-1.458576321601867676e-01,-1.959842443466186523e-01,1.582360565662384033e-01,3.038958460092544556e-02,2.020533084869384766e-01,-7.189367897808551788e-03,-1.599523127079010010e-01,-2.030526995658874512e-01,1.063703745603561401e-01,-6.493980437517166138e-02,1.212963908910751343e-01,2.941686213016510010e-01,-1.076767891645431519e-01,1.442414522171020508e-01,-1.748557686805725098e-01,3.513779044151306152e-01,3.672548234462738037e-01,-5.908169969916343689e-02,-5.481982231140136719e-02,3.067080676555633545e-01,2.446415126323699951e-01,1.155639514327049255e-01,-1.661222577095031738e-01,-5.304283276200294495e-02,2.496521025896072388e-01,2.526859939098358154e-02,-7.698202878236770630e-02,1.036773994565010071e-01,4.837949201464653015e-02,-2.451101094484329224e-01,1.925518959760665894e-01,-9.201806783676147461e-02,1.161075308918952942e-01,6.686288863420486450e-03,-5.176207795739173889e-02,1.495234519243240356e-01,-1.017580851912498474e-01,-5.319053307175636292e-02,-1.647344678640365601e-01,5.077197402715682983e-02,-2.422397285699844360e-01,-6.713651865720748901e-02,-5.850556865334510803e-02,6.655182689428329468e-02,-2.599144876003265381e-01,-1.894939243793487549e-01,-3.981785476207733154e-01,9.303674846887588501e-02,-2.293942421674728394e-01,2.704654335975646973e-01,-8.341865986585617065e-02,-1.872786730527877808e-01,-1.563109308481216431e-01,1.364811062812805176e-01,-7.162039726972579956e-02,9.755256772041320801e-02,1.651924103498458862e-01,4.021015018224716187e-02,1.240743994712829590e-01,1.070086359977722168e-01,1.748445332050323486e-01,-1.235124021768569946e-01,-4.259204864501953125e-01,1.680097281932830811e-01,2.020286619663238525e-01,1.438186168670654297e-01,-3.327663987874984741e-02,-3.970979899168014526e-02,2.790123037993907928e-02,3.819805383682250977e-01,-4.611514508724212646e-02,8.892381191253662109e-02,1.851939558982849121e-01,1.362213194370269775e-01,1.603999882936477661e-01,5.827411264181137085e-02,2.362472750246524811e-02,-3.803834915161132812e-01,-2.837891224771738052e-04,-7.656869292259216309e-02,-2.312185615301132202e-02,-1.009195819497108459e-01,7.264719158411026001e-02,1.190990954637527466e-01,-5.309336632490158081e-02,3.166653588414192200e-02,-1.657918393611907959e-01,-2.846336960792541504e-01,1.459260564297437668e-02,1.365807652473449707e-01,2.342771440744400024e-01,5.116286128759384155e-02
2.273699641227722168e-01,-1.446501724421977997e-02,9.458325803279876709e-02,2.887616455554962158e-01,1.917491108179092407e-01,2.179760634899139404e-01,-1.949448585510253906e-01,2.212547063827514648e-01,-7.225885055959224701e-03,-4.260906577110290527e-02,6.058679893612861633e-02,-1.313012838363647461e-01,3.267042338848114014e-02,2.886279523372650146e-01,6.993881613016128540e-02,2.278751432895660400e-01,-1.077372655272483826e-01,-7.576943188905715942e-02,-3.440173715353012085e-02,6.692646443843841553e-02,-1.588199473917484283e-02,1.722943782806396484e-01,8.060880005359649658e-02,1.368530988693237305e-01,2.111965231597423553e-02,2.930626738816499710e-03,8.609188348054885864e-02,1.261809021234512329e-01,1.425210684537887573e-01,-2.152877300977706909e-01,1.400533765554428101e-01,9.981756657361984253e-02,2.768868207931518555e-01,-1.562826484441757202e-01,-1.363087296485900879e-01,1.985213160514831543e-01,-1.314083337783813477e-01,2.134375423192977905e-01,-3.186446428298950195e-02,-3.677211403846740723e-01,-1.166880950331687927e-01,-7.572424411773681641e-02,2.175237238407135010e-02,4.252296313643455505e-02,-1.355164945125579834e-01,9.824032336473464966e-02,-1.649116575717926025e-01,-3.936191275715827942e-02,2.318266481161117554e-01,4.392078518867492676e-02,-4.542446881532669067e-02,2.378550469875335693e-01,1.030953302979469299e-01,-5.766829475760459900e-02,-2.565951943397521973e-01,-1.400886923074722290e-01,1.125378683209419250e-01,-6.224092841148376465e-02,8.081793040037155151e-02,3.426423668861389160e-01,-3.692769631743431091e-02,2.090123742818832397e-01,2.632150053977966309e-02,9.406430274248123169e-02,6.662581115961074829e-03,-3.414147794246673584e-01,3.309957087039947510e-01,-8.166734874248504639e-02,-6.234782282263040543e-03,3.452018275856971741e-02,1.610030978918075562e-01,2.000725865364074707e-01,-5.612584203481674194e-02,-1.030840426683425903e-01,-2.286311239004135132e-01,1.018973663449287415e-01,6.672058254480361938e-02,1.747462898492813110e-02,5.966218188405036926e-02,-1.178850308060646057e-01,-2.197450250387191772e-01,2.217116020619869232e-02,-2.902858704328536987e-02,2.204919904470443726e-01,-3.763640522956848145e-01,2.345316410064697266e-01,4.515326768159866333e-02,2.294123470783233643e-01,6.847680360078811646e-02,-1.385853737592697144e-01,1.363918650895357132e-02,1.491600126028060913e-01,-2.574855983257293701e-01,-3.347797989845275879e-01,1.434804499149322510e-01,-1.738952100276947021e-02,-5.727986618876457214e-02,2.054994367063045502e-02,-1.505720056593418121e-02,5.069674924015998840e-02,-1.084125787019729614e-02,3.543833792209625244e-01,-6.570725888013839722e-02,-3.610859438776969910e-02,-1.110644116997718811e-01,-1.237757652997970581e-01,1.963789761066436768e-01,1.475804205983877182e-02,-7.491478323936462402e-02,1.733590848743915558e-02,2.116055339574813843e-01,-3.637491492554545403e-03,-1.082658544182777405e-01,3.070152401924133301e-01,2.272418588399887085e-01,-1.438818573951721191e-01,-2.835792899131774902e-01,-1.365611106157302856e-01,1.084338128566741943e-01,1.295133233070373535e-01
-2.602305449545383453e-02,-7.643586397171020508e-02,-4.003410413861274719e-02,3.798267617821693420e-02,-5.029949918389320374e-02,-1.009037625044584274e-02,-7.316471543163061142e-03,-6.488968431949615479e-02,4.435516893863677979e-02,-4.764143750071525574e-02,-1.492006033658981323e-01,1.256703436374664307e-01,-1.715459078550338745e-01,-1.944651603698730469e-01,1.179437711834907532e-01,6.422454118728637695e-02,-8.241237956099212170e-04,-9.641864150762557983e-02,5.019216611981391907e-02,4.552565515041351318e-02,-1.583987027406692505e-01,-9.162370115518569946e-02,4.334588721394538879e-02,3.775345161557197571e-02,-1.795646548271179199e-01,6.062878668308258057e-02,2.106527984142303467e-02,-1.195534467697143555e-01,-7.897835969924926758e-02,-8.408802747726440430e-02,-1.603703796863555908e-01,7.174516469240188599e-02,-4.860655218362808228e-02,-9.638470411300659180e-02,7.004734873771667480e-02,-2.178155481815338135e-01,-1.245767623186111450e-01,-1.627200543880462646e-01,-1.431336551904678345e-01,-4.548501223325729370e-02,2.358911931514739990e-02,-1.974518969655036926e-02,-7.482080254703760147e-03,-7.537188380956649780e-02,-1.522289216518402100e-02,-1.253479532897472382e-02,-3.226475417613983154e-02,-1.675073802471160889e-01,-1.157139837741851807e-01,-7.845867425203323364e-02,-1.324799507856369019e-01,-1.550828814506530762e-01,2.611205540597438812e-02,-1.493640691041946411e-01,-6.885234732180833817e-03,3.625497221946716309e-02,3.878627344965934753e-02,-1.411541551351547241e-01,-1.352885812520980835e-01,-1.719589978456497192e-01,5.363077670335769653e-02,-4.128956794738769531e-02,-4.807740449905395508e-03,-1.803004592657089233e-01,7.571876049041748047e-02,-1.757754534482955933e-01,4.027845337986946106e-02,1.231475323438644409e-01,-2.136844247579574585e-01,-1.616033017635345459e-01,5.167692527174949646e-02,3.013722226023674011e-02,-1.262250542640686035e-01,-9.348718822002410889e-02,-7.799087464809417725e-02,-1.269013881683349609e-01,9.850240498781204224e-02,1.106459572911262512e-01,-4.168114811182022095e-02,-8.947417140007019043e-02,-3.983990475535392761e-02,-6.714055687189102173e-02,-1.072634309530258179e-01,-1.322818994522094727e-01,-1.446708478033542633e-02,-6.871543079614639282e-02,-7.205689698457717896e-02,1.116648018360137939e-01,5.343101918697357178e-02,2.285895310342311859e-02,-1.207961067557334900e-01,8.390045166015625000e-02,-8.186150342226028442e-02,-1.309686154127120972e-01,3.619630262255668640e-02,-1.111927703022956848e-01,-8.068647235631942749e-02,1.212434694170951843e-01,-7.419617474079132080e-02,-1.663088351488113403e-01,1.011857837438583374e-01,-9.899412095546722412e-02,1.042028963565826416e-01,-1.321852765977382660e-02,1.624944955110549927e-01,6.477136909961700439e-02,1.073125842958688736e-02,3.255836293101310730e-02,1.449368335306644440e-02,7.815577089786529541e-02,3.646177798509597778e-02,-7.701016217470169067e-02,-2.013809829950332642e-01,-9.232036769390106201e-02,7.027862221002578735e-02,-9.596472978591918945e-02,-1.023316830396652222e-01,-1.686105877161026001e-01,-5.222067702561616898e-03,-2.227561175823211670e-01
6.810698658227920532e-02,-7.044932991266250610e-02,1.414792090654373169e-01,-1.378476917743682861e-01,-4.287875816226005554e-02,-2.966747879981994629e-01,-4.082720279693603516e-01,1.708583235740661621e-01,-8.301814645528793335e-02,6.557664275169372559e-02,-7.060819864273071289e-02,-2.258563786745071411e-01,-3.443829715251922607e-01,-4.926879703998565674e-02,5.953971296548843384e-02,1.908894181251525879e-01,1.308288872241973877e-01,-1.586011350154876709e-01,-6.059518828988075256e-02,3.420797735452651978e-02,7.479710876941680908e-02,-4.987929388880729675e-02,1.668390631675720215e-01,-1.306882686913013458e-02,-9.468994289636611938e-02,2.511145919561386108e-02,-6.537719815969467163e-02,4.480062343645840883e-04,-1.491081565618515015e-01,-7.004866749048233032e-02,-8.010060340166091919e-02,2.436932921409606934e-01,1.737533360719680786e-01,1.951267123222351074e-01,-9.602641314268112183e-02,-1.515642106533050537e-01,4.314059019088745117e-02,3.420295659452676773e-03,2.167706340551376343e-01,2.582845389842987061e-01,1.015599165111780167e-02,-2.364930063486099243e-01,-2.497027441859245300e-02,-2.994078095071017742e-04,3.552783653140068054e-02,-2.583315670490264893e-01,6.648944318294525146e-02,2.032387815415859222e-02,2.146514132618904114e-02,-9.334950149059295654e-02,1.558277476578950882e-02,-1.523186359554529190e-02,1.972770318388938904e-02,-5.545602738857269287e-02,2.049016505479812622e-01,-8.283515274524688721e-02,-1.111150067299604416e-02,-1.528283953666687012e-02,-1.133882850408554077e-01,-2.127668857574462891e-01,1.001650691032409668e-01,1.754544228315353394e-01,1.266424506902694702e-01,4.792065173387527466e-02,1.434801667928695679e-01,-2.083659321069717407e-01,2.438965998589992523e-02,1.177951344288885593e-03,8.472193777561187744e-02,-8.496688306331634521e-02,-2.129086554050445557e-01,-2.351186871528625488e-01,-2.796820597723126411e-03,-8.459532260894775391e-02,6.246954947710037231e-02,-9.343970566987991333e-03,-1.250454038381576538e-01,5.931053310632705688e-02,6.798020750284194946e-02,-2.301531881093978882e-01,3.311620280146598816e-02,1.253569126129150391e-01,-2.451174706220626831e-02,-2.001504302024841309e-01,-1.453019827604293823e-01,1.816707849502563477e-02,1.659742593765258789e-01,-2.122124284505844116e-01,1.477391123771667480e-01,9.047359973192214966e-02,-2.021512091159820557e-01,1.221228986978530884e-01,-4.920975863933563232e-01,3.230126574635505676e-02,1.102837175130844116e-02,2.205666899681091309e-01,3.867544978857040405e-02,-1.818366646766662598e-01,9.559793770313262939e-02,3.855443373322486877e-02,-3.217705488204956055e-01,-2.165849357843399048e-01,-3.989506885409355164e-02,-1.066708043217658997e-01,-8.193889260292053223e-02,1.718023568391799927e-01,1.873002499341964722e-01,3.610735759139060974e-02,1.390559524297714233e-01,1.669902354478836060e-01,-1.324978917837142944e-01,5.591231957077980042e-02,-6.025842204689979553e-02,-1.523462533950805664e-01,1.125224307179450989e-01,1.396502554416656494e-01,-2.068782746791839600e-01,8.999046683311462402e-02,-5.039552226662635803e-03,-2.516048550605773926e-01
1.003873646259307861e-01,-2.028223574161529541e-01,1.763184368610382080e-01,1.718301475048065186e-01,2.251053601503372192e-02,-6.746609508991241455e-02,2.812828682363033295e-02,-8.362303674221038818e-02,4.866631701588630676e-03,2.880507707595825195e-01,-6.047883629798889160e-02,-1.030593365430831909e-01,1.511214673519134521e-01,-1.241548731923103333e-01,-1.384619623422622681e-01,1.753649860620498657e-02,-2.074315249919891357e-01,-1.683286428451538086e-01,-9.238805621862411499e-03,9.436463564634323120e-02,2.364158444106578827e-02,1.536462157964706421e-01,2.501237392425537109e-01,-1.008229181170463562e-01,-1.411364823579788208e-01,-2.462814375758171082e-02,-1.103809401392936707e-01,1.501434594392776489e-01,2.250782400369644165e-01,1.509588360786437988e-01,-6.543949991464614868e-02,2.046618424355983734e-02,-7.582607120275497437e-02,-1.001348569989204407e-01,2.090509533882141113e-01,-4.545440897345542908e-02,-3.810471668839454651e-02,2.253036014735698700e-02,1.476139426231384277e-01,1.085088253021240234e-01,7.625037431716918945e-02,1.716944947838783264e-02,9.100645035505294800e-02,1.327037364244461060e-01,-2.180251777172088623e-01,-2.274915874004364014e-01,-1.527691185474395752e-01,-8.467139303684234619e-02,1.830730028450489044e-02,-1.239522695541381836e-01,-2.881378633901476860e-03,-2.019406259059906006e-01,-1.110203936696052551e-01,-1.804191172122955322e-01,1.953823268413543701e-01,-2.494517900049686432e-02,2.269965596497058868e-02,-1.164187416434288025e-01,5.968386307358741760e-02,-3.259756565093994141e-01,-2.182417511940002441e-01,-1.081465333700180054e-01,1.659101247787475586e-01,4.224921390414237976e-02,-8.087740093469619751e-02,-1.110885292291641235e-01,3.354093804955482483e-02,3.462792187929153442e-02,5.883093923330307007e-03,1.345098763704299927e-01,5.427484214305877686e-02,1.656086146831512451e-01,9.413419663906097412e-02,1.411123666912317276e-02,-1.409086436033248901e-01,3.030339479446411133e-01,2.407137453556060791e-01,-1.112223714590072632e-01,-1.831617206335067749e-01,-1.093468368053436279e-01,-4.373047873377799988e-02,3.676715493202209473e-02,1.180868782103061676e-02,2.693313658237457275e-01,-6.110615655779838562e-02,-1.087382435798645020e-01,1.161256060004234314e-01,3.417823836207389832e-02,-8.444866538047790527e-02,2.572063803672790527e-01,5.164512991905212402e-02,-4.681258648633956909e-02,1.931902766227722168e-01,1.382769346237182617e-01,1.829732060432434082e-01,-2.778938710689544678e-01,6.503558903932571411e-02,6.201200559735298157e-02,-3.900024667382240295e-02,6.483854353427886963e-02,-1.529167592525482178e-01,1.373611688613891602e-01,-8.279010653495788574e-03,-7.913242280483245850e-02,-1.485658138990402222e-01,-1.872001215815544128e-02,6.745528429746627808e-02,-1.285105645656585693e-01,1.138637140393257141e-01,-6.936816126108169556e-02,1.199101731181144714e-01,-2.691261097788810730e-02,6.120511144399642944e-02,2.198951989412307739e-01,-2.411922439932823181e-02,-8.352381736040115356e-02,-4.676979407668113708e-02,9.745107672642916441e-05,-5.563656613230705261e-02,-1.774209439754486084e-01
-2.436449229717254639e-01,-8.128958754241466522e-03,-7.858403772115707397e-02,-4.194111749529838562e-02,7.136695086956024170e-02,-2.461851537227630615e-01,7.582682371139526367e-02,-4.360918104648590088e-01,1.480066627264022827e-01,1.460187952034175396e-03,1.317468732595443726e-01,-2.564233914017677307e-02,1.007923483848571777e-01,-2.064284533262252808e-01,-1.810054928064346313e-01,-3.485081195831298828e-01,-1.515948325395584106e-01,8.260352909564971924e-02,1.667115651071071625e-02,-2.982701547443866730e-02,-8.154893666505813599e-02,7.803488522768020630e-02,-1.269598752260208130e-01,2.262927591800689697e-01,1.918948739767074585e-01,-6.426582485437393188e-02,-1.068633571267127991e-01,1.396825760602951050e-01,1.041575148701667786e-01,1.083761304616928101e-01,-1.669318377971649170e-01,-1.398508399724960327e-01,-1.795784756541252136e-02,1.323664486408233643e-01,3.139234613627195358e-03,1.661680489778518677e-01,1.291883736848831177e-01,-2.204453647136688232e-01,6.382998824119567871e-02,-1.645583063364028931e-01,-1.006324440240859985e-01,1.084207966923713684e-01,1.216053441166877747e-01,-1.271586865186691284e-01,1.549254655838012695e-01,1.289448887109756470e-01,-2.602539258077740669e-03,1.285141892731189728e-02,-1.173200532793998718e-01,1.508479863405227661e-01,-4.649477452039718628e-02,-4.366928711533546448e-02,1.014855457469820976e-03,1.468419134616851807e-01,-8.145803958177566528e-02,9.792989492416381836e-02,1.066421121358871460e-01,2.067698389291763306e-01,-6.460811942815780640e-02,-5.750985816121101379e-02,3.035524114966392517e-02,-1.242730319499969482e-01,-7.085452973842620850e-02,-4.001321643590927124e-02,-2.793043553829193115e-01,1.230728700757026672e-01,-1.950440257787704468e-01,-5.959605798125267029e-02,-3.981401398777961731e-02,1.508335024118423462e-01,8.655308932065963745e-02,7.500095665454864502e-02,2.470296323299407959e-01,-3.448187932372093201e-02,2.836025655269622803e-01,-5.430733785033226013e-02,-1.682987660169601440e-01,1.316635608673095703e-01,3.395864367485046387e-02,1.465995460748672485e-01,1.200402304530143738e-01,7.935819774866104126e-02,-1.719850748777389526e-01,8.543515950441360474e-02,1.102555170655250549e-01,-1.205526664853096008e-01,-1.286354809999465942e-01,-4.463550150394439697e-01,-2.183784842491149902e-01,8.903329819440841675e-02,5.244939122349023819e-03,9.898991137742996216e-02,-5.812139436602592468e-02,6.284295767545700073e-02,-1.217867210507392883e-01,-2.633890807628631592e-01,2.181213535368442535e-02,-1.697093099355697632e-01,5.539780482649803162e-02,-1.545989215373992920e-01,-6.795516610145568848e-02,-3.709634765982627869e-02,4.774305969476699829e-03,3.446052968502044678e-02,3.680835291743278503e-02,-3.537444025278091431e-02,5.768787488341331482e-02,5.828109011054039001e-02,-1.209826469421386719e-01,8.477602899074554443e-02,-1.205992251634597778e-01,-2.033661603927612305e-01,1.434196233749389648e-01,-8.376102149486541748e-02,1.462342403829097748e-02,-1.295267194509506226e-01,1.156124100089073181e-02,-1.547331660985946655e-01,-6.592006981372833252e-02,-4.450096189975738525e-02
-6.580163538455963135e-02,1.615126430988311768e-01,-1.745554804801940918e-01,-2.199162393808364868e-01,-8.192171901464462280e-02,1.208034381270408630e-01,2.671628445386886597e-02,-8.524172008037567139e-02,2.109774202108383179e-01,-2.502166926860809326e-01,3.866364806890487671e-02,2.545888423919677734e-01,9.471472352743148804e-02,-2.301314175128936768e-01,2.318515256047248840e-02,1.284748464822769165e-01,6.371320784091949463e-02,-1.901678554713726044e-02,1.215930748730897903e-02,-5.349778383970260620e-02,1.359401941299438477e-01,-2.746379375457763672e-02,-2.293026745319366455e-01,4.149960577487945557e-01,1.964113116264343262e-01,-5.839435383677482605e-02,5.552914738655090332e-02,-1.694899946451187134e-01,-1.167355254292488098e-01,1.212386339902877808e-01,1.396598666906356812e-01,-1.723709702491760254e-01,2.978335022926330566e-01,1.148817688226699829e-01,8.498070389032363892e-02,-2.544948160648345947e-01,-1.111320033669471741e-01,-2.421061843633651733e-01,1.914943605661392212e-01,1.911451667547225952e-01,8.979810774326324463e-02,-2.204015105962753296e-01,1.360019147396087646e-01,1.586631499230861664e-02,5.940423533320426941e-02,6.448025815188884735e-03,2.633882872760295868e-02,1.059080380946397781e-02,-1.109711751341819763e-01,2.554268017411231995e-02,1.225411742925643921e-01,1.326140947639942169e-02,5.899130180478096008e-02,8.630438148975372314e-02,-4.618101194500923157e-02,-1.720026731491088867e-01,1.212330907583236694e-01,-2.377019375562667847e-01,-1.366228461265563965e-01,-2.747111320495605469e-01,-7.032687775790691376e-03,-1.401648949831724167e-02,-3.360076993703842163e-02,-5.594082549214363098e-02,-1.302943825721740723e-01,1.867565512657165527e-01,5.517633259296417236e-02,-5.493250489234924316e-02,3.290643915534019470e-02,-1.492135971784591675e-01,-2.116095423698425293e-01,-2.238577157258987427e-01,4.638648778200149536e-02,-7.945895195007324219e-02,-3.187213838100433350e-02,1.859635859727859497e-01,-4.600231349468231201e-01,1.596559882164001465e-01,1.327969878911972046e-01,-2.161622643470764160e-01,-1.533148288726806641e-01,8.236687630414962769e-02,-3.534162640571594238e-01,7.573246210813522339e-02,-9.992108494043350220e-02,-1.286397278308868408e-01,1.457547098398208618e-01,-7.879990339279174805e-02,6.720466166734695435e-02,-1.276136934757232666e-01,-1.802469938993453979e-01,-4.319544509053230286e-02,-9.723861515522003174e-02,6.486967951059341431e-02,6.913454830646514893e-02,2.265987396240234375e-01,7.483695447444915771e-02,2.271519601345062256e-01,6.651940941810607910e-02,3.491612896323204041e-02,-6.985208392143249512e-02,-1.987685710191726685e-01,-5.328678339719772339e-02,-2.353167682886123657e-01,2.674877829849720001e-02,3.178805112838745117e-02,-4.901359975337982178e-02,4.907692782580852509e-03,-1.762064248323440552e-01,1.413454413414001465e-01,1.861791461706161499e-01,2.654805779457092285e-01,4.626028239727020264e-02,-3.954236581921577454e-02,-2.674789167940616608e-02,-1.837308146059513092e-02,1.364125609397888184e-01,5.994415655732154846e-02,1.015606746077537537e-01,1.972882449626922607e-01
-8.056527376174926758e-02,-1.474515534937381744e-02,-7.658118754625320435e-02,-2.613012194633483887e-01,-2.927143359556794167e-03,9.986869990825653076e-02,3.186676651239395142e-02,1.068756077438592911e-02,2.069679051637649536e-01,-1.136087849736213684e-01,1.900280825793743134e-02,-3.705154359340667725e-02,2.010355144739151001e-01,-1.220943406224250793e-01,1.934557408094406128e-01,-2.984789609909057617e-01,-2.740646339952945709e-02,4.346841480582952499e-03,-7.647070288658142090e-02,2.426809966564178467e-01,-2.085634171962738037e-01,-1.549604386091232300e-01,-1.903937906026840210e-01,1.107931137084960938e-01,3.669627308845520020e-01,1.024808138608932495e-01,1.299491524696350098e-01,-4.590154811739921570e-02,-7.165597379207611084e-02,6.269412487745285034e-02,3.749077394604682922e-02,-6.919863075017929077e-02,1.221193596720695496e-01,-1.314932107925415039e-01,-9.126909077167510986e-02,-3.429578840732574463e-01,-1.102705672383308411e-01,-2.279963046312332153e-01,-3.853108733892440796e-02,2.302578836679458618e-01,-1.367939263582229614e-01,-1.456608921289443970e-01,2.295689582824707031e-01,7.356741279363632202e-02,2.582192718982696533e-01,5.085651949048042297e-02,-1.927281357347965240e-02,-4.672937840223312378e-02,4.026589170098304749e-02,4.423317685723304749e-02,2.437931597232818604e-01,-1.566476374864578247e-01,-2.183339092880487442e-04,3.568607270717620850e-01,-9.782256186008453369e-02,-8.934893459081649780e-02,2.492637485265731812e-01,2.059332132339477539e-01,-4.031109064817428589e-02,2.485940046608448029e-02,1.176171079277992249e-01,1.636307090520858765e-01,-7.876669056713581085e-03,1.114706471562385559e-01,-1.539380289614200592e-02,1.168671846389770508e-01,-1.348721235990524292e-01,-5.531246960163116455e-02,9.693816304206848145e-02,1.920069307088851929e-01,-2.535860985517501831e-02,-2.884582988917827606e-02,-1.287361532449722290e-01,9.293358027935028076e-02,6.730988156050443649e-03,6.909332424402236938e-02,-2.091021239757537842e-01,-6.644978374242782593e-02,8.392058312892913818e-02,1.025372743606567383e-02,2.058484107255935669e-01,1.824910379946231842e-02,1.345942914485931396e-01,-2.292140722274780273e-01,8.141781389713287354e-02,5.143737047910690308e-02,-1.308590453118085861e-02,-2.209480106830596924e-01,5.850104242563247681e-02,-1.246073916554450989e-01,-9.562591463327407837e-02,2.604709863662719727e-01,9.353130310773849487e-02,2.340119183063507080e-01,-2.171959877014160156e-01,2.302680909633636475e-02,-1.553910225629806519e-02,-1.650748103857040405e-01,-3.931725770235061646e-02,1.077907979488372803e-01,9.729019366204738617e-03,-9.633085131645202637e-02,1.312037855386734009e-01,1.674376614391803741e-02,1.224542930722236633e-01,-1.908868364989757538e-02,1.656427830457687378e-01,2.674729935824871063e-02,-1.184954047203063965e-01,1.444686353206634521e-01,8.664643019437789917e-02,-4.086134582757949829e-02,2.267854474484920502e-02,-4.458942413330078125e-01,-1.708336174488067627e-01,-1.311089694499969482e-01,2.513632774353027344e-01,5.625426024198532104e-02,2.613959014415740967e-01,8.521936833858489990e-02
9.168947488069534302e-02,4.766612127423286438e-02,2.631742954254150391e-01,6.374314427375793457e-02,2.209532409906387329e-01,8.521202951669692993e-02,3.313301131129264832e-02,1.089690998196601868e-02,9.276786446571350098e-02,-5.623552203178405762e-02,-2.954453043639659882e-02,-5.267075821757316589e-02,-4.679903015494346619e-02,1.046193465590476990e-01,-1.954803913831710815e-01,1.692746132612228394e-01,-2.925714254379272461e-01,7.826181501150131226e-02,-1.166666746139526367e-01,2.099813669919967651e-01,-7.718381285667419434e-02,2.082031369209289551e-01,4.123785346746444702e-02,8.221824653446674347e-03,1.154299639165401459e-02,-1.270746886730194092e-01,-1.419418454170227051e-01,-1.689926162362098694e-02,1.470221132040023804e-01,1.196757629513740540e-01,-1.133997589349746704e-01,-2.201833426952362061e-01,-6.038494780659675598e-02,8.917854726314544678e-02,1.861661523580551147e-01,-4.239046573638916016e-02,-8.277352154254913330e-02,-1.807688176631927490e-02,-6.474098563194274902e-02,8.700767159461975098e-02,-1.380183100700378418e-01,3.966183960437774658e-02,-1.591048687696456909e-01,4.091346636414527893e-02,-3.199642598628997803e-01,-1.183436661958694458e-01,3.284148871898651123e-03,-4.623603448271751404e-02,1.142264753580093384e-01,-1.962829940021038055e-02,1.973748654127120972e-01,-7.386383414268493652e-02,-3.806321648880839348e-03,-7.570370286703109741e-02,-7.572632282972335815e-02,2.040654234588146210e-02,7.496158033609390259e-02,-5.226907785981893539e-03,1.020308881998062134e-01,2.076516747474670410e-01,-8.763967454433441162e-02,-1.504902392625808716e-01,1.029544994235038757e-01,-1.374210864305496216e-01,-3.825360536575317383e-02,1.602643877267837524e-01,3.706556260585784912e-01,-7.877685874700546265e-02,-8.840027451515197754e-02,3.430844470858573914e-02,-1.816792041063308716e-01,4.049886390566825867e-02,-4.633235186338424683e-02,8.132716268301010132e-02,8.630950003862380981e-03,-1.051040813326835632e-01,-2.550519704818725586e-01,-7.787092775106430054e-02,-2.182575762271881104e-01,7.234139367938041687e-03,-7.589944452047348022e-02,-6.883852928876876831e-02,8.045855909585952759e-02,2.525751590728759766e-01,-2.760833203792572021e-01,7.214795798063278198e-02,1.001214981079101562e-01,-1.725695282220840454e-01,-5.399804934859275818e-02,1.108355820178985596e-02,2.429343909025192261e-01,1.156796216964721680e-01,2.846117131412029266e-02,-1.428940147161483765e-01,1.587763726711273193e-01,4.153903946280479431e-02,8.935038000345230103e-02,-2.998216077685356140e-04,-1.357390582561492920e-01,1.983613818883895874e-01,6.741967797279357910e-02,3.142885863780975342e-01,2.458467483520507812e-01,1.194811761379241943e-01,1.981911435723304749e-02,3.758719563484191895e-02,2.886452674865722656e-01,6.069841608405113220e-02,-1.641689091920852661e-01,8.183209598064422607e-02,8.422492444515228271e-02,2.421546876430511475e-01,-4.632696881890296936e-02,1.795419156551361084e-01,-2.757602930068969727e-02,-1.164840757846832275e-01,8.458835072815418243e-03,-6.286554038524627686e-02,1.499077305197715759e-02,-1.246463786810636520e-02
7.308376580476760864e-02,-6.212333589792251587e-02,4.734020307660102844e-02,-7.428303360939025879e-02,2.027286589145660400e-02,1.731629520654678345e-01,-1.889595389366149902e-01,-4.627905786037445068e-02,3.508003801107406616e-02,-1.081000939011573792e-01,6.378602981567382812e-02,2.341759055852890015e-01,8.761994540691375732e-02,-1.273159980773925781e-01,1.013601422309875488e-01,1.300998497754335403e-02,1.973766088485717773e-01,-6.707567255944013596e-03,8.891028165817260742e-02,3.680360317230224609e-02,-3.392463922500610352e-02,-2.380547970533370972e-01,2.614873647689819336e-01,-2.166622504591941833e-02,1.572322249412536621e-01,4.271773993968963623e-02,-8.541855216026306152e-02,4.239001777023077011e-03,1.137563288211822510e-01,-2.709353528916835785e-02,1.358709037303924561e-01,-1.398739516735076904e-01,-2.698697149753570557e-02,7.508589327335357666e-02,6.093767005950212479e-04,3.396843373775482178e-02,-1.471543610095977783e-01,1.316177099943161011e-01,-6.390819698572158813e-02,-7.813365198671817780e-03,-1.219962984323501587e-01,-3.187894076108932495e-02,-7.024171203374862671e-02,-1.142557188868522644e-01,-2.162783592939376831e-01,2.318467199802398682e-01,-1.518954336643218994e-01,-1.021114066243171692e-01,-1.426859050989151001e-01,1.961006522178649902e-01,1.653278768062591553e-01,1.506992429494857788e-01,-7.708775997161865234e-02,4.295924305915832520e-02,6.175510585308074951e-02,-7.692763209342956543e-02,-1.072080731391906738e-01,7.201825734227895737e-03,-3.030141294002532959e-01,2.842998504638671875e-01,-1.650741323828697205e-02,2.488347142934799194e-02,2.139596045017242432e-01,-2.721687257289886475e-01,-1.158472970128059387e-01,-1.688810288906097412e-01,3.831719979643821716e-02,-1.142066065222024918e-02,1.065200753509998322e-02,1.580647192895412445e-02,1.038926560431718826e-02,-1.915199905633926392e-01,-1.646110266447067261e-01,1.110065951943397522e-01,1.128647029399871826e-01,-1.498842984437942505e-02,-1.362089365720748901e-01,8.978007733821868896e-02,-8.719788491725921631e-02,8.760340511798858643e-02,1.100598499178886414e-01,2.739658057689666748e-01,-5.155235156416893005e-02,5.848859995603561401e-02,1.292907595634460449e-01,2.365945279598236084e-01,1.020717993378639221e-01,-5.126277357339859009e-02,2.731135487556457520e-01,-2.981522977352142334e-01,1.545598804950714111e-01,4.681938514113426208e-02,-8.951544761657714844e-02,-2.006546854972839355e-01,-1.737525016069412231e-01,2.908802628517150879e-01,-8.927823603153228760e-02,7.418677210807800293e-03,8.774747699499130249e-02,1.427279859781265259e-01,1.070896312594413757e-01,4.896580241620540619e-03,9.874128550291061401e-02,9.831340610980987549e-02,1.066629737615585327e-01,3.196257054805755615e-01,2.007164955139160156e-01,3.825705870985984802e-02,-1.181730479001998901e-01,5.788700282573699951e-02,3.998690098524093628e-02,8.330281078815460205e-02,-1.217993646860122681e-01,6.737767159938812256e-02,2.039574831724166870e-01,-6.819129735231399536e-02,-2.523212432861328125e-01,-2.932101488113403320e-02,1.469756066799163818e-01,-4.611005261540412903e-02
